167 100
the -0.016644975 -0.0047193775 0.0022107773 -0.008483565 0.00766258 -0.0058730957 0.0018892658 -0.0013707601 0.011258107 0.013454215 -0.013572116 -0.0016156245 -0.0068638036 0.016227657 0.00082651817 -0.0032383099 0.0013431448 -0.002979925 -0.0014998276 0.004974219 0.0047119805 -0.0017489757 0.020473208 -0.006813204 0.022590041 0.004355093 0.0146941645 0.012335106 0.0038763173 0.0092732655 -0.007269447 0.01635548 -0.002863544 -0.00772677 0.0018530556 -0.0036040496 -0.0053804717 -0.006599872 -0.013161095 0.004572265 0.0014909874 0.0014170713 0.0067100273 -0.019026566 0.025653165 -0.0045412686 -0.0012504623 -0.0018611054 -0.0023356513 -0.01564589 -0.01891944 0.0018856226 0.000680988 0.0042162878 0.006157969 -0.008107002 -0.0041390145 -0.020917878 0.016741263 -0.016001564 0.00029510556 0.0026581713 0.00018770726 0.013119703 0.0054375073 -0.015414089 0.008418101 -0.0047627687 -0.021068774 -0.012238199 0.001138807 -0.013573407 0.014640656 -0.022778837 0.006207266 0.01622405 -0.01771693 -0.009194686 0.005856208 -0.0087661985 -0.011617375 -0.0026963134 0.00024027242 -0.019997567 -0.007830313 -0.015968023 -0.0014563506 -0.0012629475 -0.00018833175 0.010388401 -0.025383845 -0.013546281 0.0021437143 -0.002889459 0.019829866 0.015250101 -0.016256481 -0.0031306094 -0.008488307 0.013220341
of -0.013913218 -0.0036664288 0.0072737588 -0.004349389 0.007189772 -0.0041397805 -0.0015007174 0.0049065882 0.012053802 0.013021755 -0.0075260275 -0.00039089052 -0.009467791 0.007557985 0.0037611253 0.0040156557 0.008135983 -0.0054104715 0.0020869086 0.004000697 0.005148257 0.0013078586 0.010554589 -0.0063455254 0.019443756 0.00070701586 0.007242644 0.0077618808 -0.0031193758 0.011554484 -0.002902883 0.006982796 -0.004188916 -0.007215074 0.008395464 -0.0018357134 -0.003347716 -0.010260375 -0.009752589 0.0067412755 -0.0012278036 -0.0042858175 0.0010860016 -0.01078798 0.022828655 -0.00577229 -0.00648131 -0.007333077 -0.005529436 -0.017037041 -0.014194938 -0.0012858163 0.005393974 0.0011065444 0.008716866 0.001163951 -0.0020737941 -0.017169163 0.012370431 -0.0141445985 0.0066251648 0.004271097 0.0003339393 0.008119348 0.007175887 -0.015264597 -0.0011023873 -0.0067509064 -0.013147031 -0.013463549 -0.005118022 -0.0076533803 0.006410444 -0.020600086 0.0069549982 0.010911279 -0.018612739 -0.0071389545 0.0028854918 -0.0089673465 -0.01178806 -0.0019218737 -0.00025794684 -0.017518615 -0.006186733 -0.0068261954 0.0010079768 -0.0052429526 0.0021877731 0.010925782 -0.021016186 -0.010777967 -0.0010031586 -0.004981664 0.015138827 0.016077721 -0.018958557 -0.008318968 -0.00046065456 0.014029643
and -0.0071735824 -0.0027318874 0.008485489 -0.009557997 0.010253534 -0.0036944633 -0.002724013 7.083061e-05 0.010373596 0.012619518 -0.0058511393 -0.0018312995 -0.0035313005 0.010053642 0.0061612437 0.0028995606 0.0018899498 -0.009001848 -0.003448493 0.00031692474 0.0022398382 -0.0005150674 0.017888047 -0.007639987 0.016851371 -0.0032810022 0.010655822 0.013884502 -0.0012974883 0.007249191 0.0015487877 0.008087082 0.0011988631 -0.00050841743 0.0065501896 -0.007681118 -0.008299777 -0.005535391 -0.007998791 -0.0015942743 0.002970518 -0.00014757752 0.001801624 -0.012398907 0.013963551 -0.0055243736 -0.0017328911 -0.004416939 0.0007520241 -0.02025412 -0.011743906 -0.0019180442 -4.0941806e-05 0.0073802015 0.004508077 -4.0728133e-05 -0.0039165323 -0.019001378 0.013525509 -0.011446312 0.0006283761 0.003227754 -0.0021822844 0.0062662526 0.00054713164 -0.011796606 -0.00040848445 -0.0031099159 -0.021377204 -0.015255326 0.0026671719 -0.007416461 0.0065759583 -0.019055372 0.009782741 0.006400453 -0.008702595 -0.006238625 0.0047924784 -0.005356711 -0.011874489 -0.00448839 0.0066444557 -0.021024007 -0.0041622682 -0.01478942 -0.0031292418 0.00076732435 0.00014931346 0.004340767 -0.016084684 -0.0053865504 -0.0019470305 -0.0034363314 0.011322981 0.016629746 -0.011607559 -0.0018204872 -0.006562063 0.009729501
in -0.009414327 -0.0024439432 0.00044099602 -0.0018575528 0.004967226 0.0020668008 -0.0038201525 0.00054223766 0.011213834 0.015385499 -0.013769469 -0.006443276 -0.007837285 0.016825913 8.724848e-06 -0.004523175 0.0009279064 -0.008940213 -0.004169272 0.0007130731 0.0052485447 0.0032824515 0.013800728 -0.006855518 0.01576025 -0.00039580578 0.011723538 0.011598228 0.006633453 0.011275532 -0.0019128746 0.015247062 -0.006044615 0.0008297014 0.008035111 -0.0021448624 -0.0075127007 -0.012571925 -0.0058264183 0.00013232013 0.0038731166 -0.0031759138 0.002245295 -0.01566416 0.02469279 -0.003524354 -0.0082421135 -0.005394926 -0.00091613067 -0.017648062 -0.015476476 0.0036581391 -0.00023166685 0.0042042867 0.004896637 -0.0033889269 -0.0021263824 -0.022755956 0.016642125 -0.013634504 0.0032323403 0.0006238763 0.0041914824 0.012339295 0.0024160163 -0.009953983 0.007831088 -0.0019484434 -0.021455316 -0.011739402 -0.0028697576 -0.013711201 0.014420362 -0.017700069 0.011966334 0.014466888 -0.014981575 -0.011626729 0.0009874385 -0.0051572165 -0.012620732 -0.0026709645 0.00085659826 -0.02485121 -0.0057392744 -0.015704872 -0.0035209318 0.0025120357 0.0017435389 0.0109079955 -0.024289237 -0.0060970425 -0.0014208197 -0.009263335 0.012914843 0.0096977 -0.014596052 -0.00320881 0.00039527693 0.013825433
to -0.012692092 0.00026621958 0.004942951 -0.007466614 0.0095641315 -0.0021061 -0.0009912178 -0.0022095256 0.008052843 0.006408992 -0.009829455 -0.004418661 -0.0038500568 0.0069358284 0.0036472897 -0.0018749868 0.006856482 -0.008115184 0.0045788484 0.005108178 0.0016772952 0.00020465215 0.009618314 0.00022995716 0.014206405 0.00035670502 0.011048139 0.009543362 0.0046207607 0.004968223 -0.002538758 0.01218629 0.0028154089 -0.0068982 0.004128188 -0.0020133406 -0.006927704 -0.0074728895 -0.009060763 0.0046806987 0.005576263 -0.0010555563 0.0031378835 -0.009400232 0.010945665 -0.0011912199 -0.0029981283 0.0026941013 -0.0039633606 -0.0143777 -0.010076943 0.0030674166 0.0084170755 0.005080505 0.0036741856 -0.004067779 -0.0028195921 -0.014504661 0.011435158 -0.009558823 0.0009706383 0.001573377 0.0018781213 0.001554385 0.006296386 -0.004818358 -0.00066344655 -0.0018027932 -0.010206379 -0.007849275 -0.00079917995 -0.00555857 0.010764927 -0.009289859 0.0064489157 0.0035408973 -0.015881874 -0.008669882 0.0045687053 0.0007105429 -0.0026104748 0.002528706 -0.0020907149 -0.011825862 -0.005725826 -0.008933893 -0.0055402284 -0.003407147 0.001486187 0.0037568547 -0.016789274 -0.011321639 -0.00082320237 0.0017103574 0.011782974 0.0084759565 -0.014803538 -0.006851013 0.00084008934 0.0024240832
a -0.0068931384 -0.00067527225 0.005361157 -0.004882403 0.0035711862 -0.0015375994 -0.0019954008 0.0021412708 0.007663961 0.0021927522 -0.007818673 -0.0012120007 -0.0031890967 0.009790508 0.005522998 0.0021621475 0.002515078 -0.006238466 -0.0031581612 0.003052391 0.004857924 0.002845836 0.007674741 0.0014706507 0.006643482 -2.6171192e-05 0.003230994 0.008724245 0.00039279778 0.0035108048 -0.004152887 0.010004937 0.0004869512 0.00017758361 -0.0011545038 -0.001523026 -0.0063397344 -0.009411809 -0.002136206 0.0004282533 0.0038865807 0.0014822466 0.004505012 -0.008631817 0.006959433 -0.006758889 0.001256964 0.001097464 0.0017499994 -0.012252179 -0.007244621 -0.00014984289 0.006984404 0.00420848 0.0034332355 -0.004959977 -0.0018808178 -0.00987777 0.0068457634 -0.0065409387 -0.0025372698 0.003735294 0.0031614976 0.002161745 0.0006125191 -0.0032703553 0.0061667794 -0.004243293 -0.006740723 -0.006700386 0.0007207861 -0.0057055163 0.0022467745 -0.009639801 0.0065388493 0.0067558386 -0.0057249176 -0.007459719 0.0071974522 0.00025430863 -0.0048786374 0.0010892107 0.004668166 -0.010397684 5.8336864e-06 -0.0011662906 0.003347243 -0.0039597712 -0.0050435727 0.0069116172 -0.0052449014 2.3823442e-05 0.0016927066 -0.0070546446 0.008484194 0.010469376 -0.006363401 -0.001972981 -0.0037856249 0.009376637
for -0.004043143 1.1249292e-05 0.0029459049 -0.0038329326 0.0064786943 -0.0048634815 0.005519989 0.0014014775 0.0053573675 0.010282698 -0.007029044 -0.0061880047 -0.008187398 0.0048054233 0.0044315537 0.004492482 0.0049897474 -0.0047584735 -0.004017666 -0.0013297946 0.0061033373 0.00085496047 0.010568193 -0.005826344 0.011166441 -0.0023602545 0.004897368 0.008874733 0.0057832533 0.003813012 -0.0050382945 0.0033129635 0.00015685477 -0.005373033 0.0076511754 -0.0070776977 -0.0072482135 -0.005945121 -0.0061856452 -0.0022719423 0.00025362612 -0.0022842162 0.004803576 -0.010351039 0.017904853 -0.0062795524 -0.0042616804 -0.005645555 -0.0062525524 -0.011150884 -0.009751007 -0.0035539893 0.0056380886 0.005507856 0.0014187992 -0.0056491527 0.0017197612 -0.009590648 0.011188682 -0.010294261 0.0041104443 0.0012551331 -0.003890875 0.0020917372 0.005224782 -0.0029879666 0.005137943 -0.0019219572 -0.013777127 -0.005730243 -0.0002914821 -0.009555627 0.008876969 -0.008137965 0.0062727416 0.0073835338 -0.013958143 -0.009077554 0.00092982576 -0.004941194 -0.009190349 -0.0035359364 0.0056622066 -0.016126681 -0.007555193 -0.012579961 -0.003910553 0.003959511 0.0013114715 0.0025683136 -0.009563992 -0.0044953316 -0.001689058 -0.00422968 0.014426648 0.011785894 -0.006953224 0.000756439 -0.0013700398 0.0075661875
is -0.007047414 -0.007991232 -0.0007713719 -0.00092753797 0.0058211675 -0.0051545096 -0.0036255578 0.0053205583 0.010091665 0.011801291 -0.0061528906 -0.0005380327 -0.008097431 0.0066083423 0.0052554477 -0.002702403 0.0015866555 -0.00830521 -0.0003678898 0.0038595025 0.003116716 0.0010271667 0.00808855 -0.0053102877 0.009788117 0.0053286985 0.006583467 0.004848802 0.004765535 0.008741874 -0.004836453 0.004067871 -0.004944693 0.0014735215 0.0065291338 -0.0029987395 -0.0018219948 -0.0067680376 -0.0042616017 -0.00015627615 -0.0010043139 0.004695861 0.003095013 -0.011779264 0.012097143 -0.0037257627 0.001780711 -0.002641743 -0.003156863 -0.015303883 -0.01197217 -0.003585002 0.0035161679 0.0087454375 0.0041093803 -0.005810102 -0.0024418214 -0.012719291 0.011799795 -0.0071915095 -0.0021527032 0.0068813884 0.0015782943 0.002915987 0.0030882184 -0.00911307 0.00048559636 -0.0037581562 -0.016400784 -0.009116254 -0.00055852503 -0.010149903 0.009248989 -0.010971531 0.0037583057 0.0062034912 -0.015314507 -0.0040607858 -0.001354145 -0.0061349412 -0.0028121031 0.0006317795 -0.0019453991 -0.015753 -0.009863112 -0.005202713 0.002179744 0.0032582046 -0.003946041 0.0015828554 -0.01424347 -0.008356086 0.0014940221 -0.004454744 0.0075250072 0.012985214 -0.014919638 0.00049458415 -0.005243164 0.0040076477
robotic -0.005353505 0.0013878859 -0.0023021272 -0.002575207 0.006655424 -0.0055022547 -0.0035925389 -0.0010446634 0.005179554 0.0017789487 -0.006408083 -1.825533e-05 -0.0021853498 0.0050129415 0.0014386364 0.004254005 0.00060141325 0.00067140994 0.002832813 -0.0019540288 0.0062839305 0.0054168967 0.0075753666 -0.0076995566 0.00849022 0.0026855562 0.0039568655 0.008186161 -0.00019434214 0.0026433433 -0.0053135874 0.006937004 0.0007918849 0.000796623 0.005191273 -0.0061785174 -0.0074738655 -0.0022204123 -0.0085531 0.002081789 -0.0004363385 -0.0016358739 -0.00043219523 -0.008106724 0.013403757 -0.0048690154 0.000887677 0.0007583574 0.0024261554 -0.006755885 -0.0035396155 0.000135765 -0.00040355953 0.0037796875 0.005734092 -0.0014879978 0.003939099 -0.011439518 0.0042921165 -0.0027371089 0.0061512436 -0.002861268 0.0019476415 0.008757458 0.0023845052 -0.004490961 -0.0020750132 0.0015693451 -0.0070243226 -0.0037349158 -0.0050359634 -0.004297532 0.0092027895 -0.013445533 0.0031159779 0.0032182683 -0.008725575 -0.0042886483 0.0052904384 -0.006686282 -0.006190659 -0.0049945675 0.0026561555 -0.011896451 -0.005730942 -0.009786439 -0.00025287803 -0.0032967885 -0.0011948998 0.004366411 -0.009492547 -0.0032644009 0.0029168695 -0.0030646399 0.003930107 0.011438647 -0.007694316 0.0017527749 -0.004983552 0.0042042183
on -0.005860113 -0.0048856973 0.007723626 -0.005667348 0.007188106 0.0035059527 0.0034403706 0.003551693 0.008917772 0.0068709217 -0.0023151664 -0.0005343548 -0.0068637487 0.010536014 -0.0015323587 -0.0025331322 0.0016636454 -0.0015376772 -0.004311238 0.0041015176 -0.0023133615 0.0040382617 0.012691955 0.0002232126 0.012625412 0.0026144858 0.0037373356 0.010009959 -0.002431201 -4.9220434e-06 -0.00055980356 0.010621448 0.0008177809 -0.002934189 0.0052158087 -0.0042653712 -0.0034364758 -0.009263445 -0.0032487144 0.0057125883 0.00022642458 0.001895714 0.005178957 -0.006466543 0.007570578 -0.0027632664 -0.0021355073 -0.0012092234 -0.0040366957 -0.0074145882 -0.01343188 -0.0019832975 0.0040737847 0.0061403615 0.005613059 0.0017015468 0.0041844915 -0.012157015 0.011666268 -0.008177783 -0.0029725987 0.0032093432 -0.002711711 0.0030536533 0.0002419329 -0.008409833 0.0044789086 -0.0002476264 -0.015965192 -0.01150908 -0.002263272 -0.0016486038 0.010727162 -0.014730402 0.00034002418 0.0032635902 -0.0043817987 -0.002824612 0.00681078 -0.0044759684 -0.009542874 -0.0012067934 0.005972922 -0.00806701 -0.0025227305 -0.010230973 -0.0010202223 -0.0053236787 -0.0049663857 0.004020419 -0.01635678 -0.0101574585 -2.0299525e-05 0.0003799817 0.004536047 0.006811917 -0.011671606 -0.0039625918 0.000117358046 0.004201751
control -0.0038899854 -0.0047951946 9.9813115e-05 -0.007828112 0.005174184 0.0005276991 0.0032318598 0.002381109 0.0014816296 0.009497165 -0.0023429012 0.0028152924 -0.0076451125 0.008491519 0.00640691 0.0030481704 -0.0019428866 0.0010868191 -0.00056911306 0.0034507918 0.00662911 0.0016050684 0.008035578 -0.004737566 0.0075453343 0.00078126864 0.0014739395 0.009284732 0.00019968035 0.0053942613 -0.0014082667 0.003964266 6.500039e-05 -0.006659014 0.0051649534 -0.0014927958 -0.0006439932 -0.00033921472 -0.0074629816 -0.0024059413 -0.0019292015 0.0039713243 -0.0015692787 -0.00513679 0.0129503235 0.0020625757 -0.0063623646 0.00290734 -0.0036494266 -0.0041182158 -0.010087525 -0.0025470825 0.0027616865 0.0042546066 0.0067809983 0.0016877326 0.000298933 -0.006935991 0.0077146147 -0.002219385 0.0041167014 0.0065347725 -0.003887513 0.008663838 0.0010856458 -0.002032193 0.0058461633 -0.0030941796 -0.0129585415 -0.0088698575 0.0034791739 -0.0040312074 0.009485093 -0.010709828 0.005729779 0.0025221757 -0.006062123 -0.0062911273 0.0075365114 -0.004421073 -0.00631339 0.0019342625 -0.0034819169 -0.011471443 -0.001669034 -0.009028279 0.0025825913 -0.005053537 0.0012164246 0.0046588317 -0.012304327 -0.008117139 0.003269303 -0.0041927365 0.0075362897 0.0059252093 -0.0092837 -0.007083022 -0.007110309 0.0032441793
agriculture -0.005432524 0.0021765772 -0.002561089 -0.0020191506 -0.0013106624 -0.0014883936 0.002258704 0.0039342185 0.0014309073 0.0015720712 -0.0072923414 0.00025074964 0.0010076463 0.007844318 0.004625445 0.0028902455 -0.0012454467 -0.0054045958 -0.0020157937 0.0010977542 0.0067208544 -0.00266089 0.00665362 -0.0007051406 0.0068884077 0.0006387322 0.0035475835 0.0049842307 -0.0003162787 0.0053562424 -0.0049839425 -0.0006124174 -0.002050936 -0.00086071726 0.001176978 0.0003292901 -0.006244553 -0.0010226049 -0.0065552355 0.0048117596 -0.0038728158 0.00075056916 0.0036493372 -0.0058729975 0.0053000413 0.0014292119 -0.005820687 -0.00020423174 0.0020354278 -0.00698045 -0.003418219 -0.0042876024 -0.0031373273 0.00248487 0.004843139 -0.0013358969 0.0032943783 -0.008068833 0.0021801186 -0.0076113786 -0.0024917899 0.0034565402 0.00027060835 0.0065754396 0.0014838418 -0.007749391 0.005291116 0.0030464362 -0.008962167 -0.008341436 -0.004025355 -0.007037369 0.0056724316 -0.0101022795 0.0032454736 0.0005558959 -0.0071307397 -0.0066112946 0.003699743 0.0014261762 -0.0042094514 0.002623699 0.004300118 -0.0027982148 0.0006076066 -0.003302102 -0.0057678493 0.0034011453 0.0012640691 0.004966748 -0.010371358 -0.002768014 -0.0016322434 0.0028910472 0.0088987015 0.0043104854 -0.00081958465 0.0008353194 -0.002926179 0.005335894
plant 0.00066279306 -0.00094032474 -8.1566126e-05 -0.006817303 0.0015828023 -0.001008752 0.0025670794 0.0013976694 -0.00036916728 0.008069513 -0.0007136952 -0.0005936032 -0.0026270514 0.005151911 -0.00044473185 0.003929739 -0.0013084708 0.0011682583 -0.002870074 0.0041549224 0.0039455197 0.003779676 0.0074667083 -0.004963247 0.0050271936 -0.0015409928 0.0048539527 0.0085186055 0.002919241 0.002473706 -0.0016722487 0.0023630871 0.0024164584 0.0013170956 -0.0026258344 -0.0010802036 0.0020193995 -0.008399319 -0.0018832545 0.00544448 0.0038636879 0.0010563041 -0.0036391676 -0.008805775 0.009204605 0.00186991 -0.004915407 -0.00135441 -0.005618413 -0.0065803323 -0.008362494 0.0042714775 0.0005408594 0.006925328 0.0041381246 -0.0029485568 0.004885736 -0.002557954 0.0031439413 -0.005036648 0.004849118 -0.000892976 0.0040488383 0.0043788045 0.005429145 -0.008683125 -0.002064208 -0.00069954596 -0.005215316 -0.0020574792 -0.00331744 -0.005272346 -0.0007264693 -0.006874389 0.00102287 0.002405955 -0.00014471046 -0.003610845 0.0026806404 -0.005008212 -0.0031394644 -0.00374093 0.001631672 -0.008135516 -0.007591586 -0.0068775318 -0.002036343 0.0035780943 -0.00024154944 0.0068536447 -0.01002813 -0.007446618 -0.0041827327 -0.0044309245 0.0023458973 0.0065948227 -0.008758851 -0.005125622 -0.0006399201 0.0026639726
are -0.0031103012 0.0014200466 -0.0030917514 -0.0073230374 -0.00056755607 -0.0034647298 0.0039886716 0.0006699296 0.0022650573 0.008107847 -0.00095886586 -0.004393804 0.0007016697 0.00035127814 0.0052779196 -0.00020705779 -0.00023594919 -0.0011509252 -0.000859881 -0.002341876 -0.0023187126 0.0040355613 0.0065976647 -0.0028718996 0.0010236755 -0.0043474436 -0.00075193064 0.0040845564 0.0043727164 -0.0023528724 0.0024121087 -0.00022731283 0.0042227246 0.003110032 0.0041684792 -0.0022680853 -0.002359462 -0.007865471 -0.0072169416 0.0038894678 0.0032337406 0.0039506527 0.0042028404 -0.004651692 0.0090430025 0.002909954 -0.006133713 -0.0012800002 -0.0032799514 -0.009274975 -0.00969788 0.0011341877 0.005079936 0.00035720007 0.0015347975 0.0020582015 0.0020799944 -0.009927663 0.0058150524 -0.006485607 0.0022844858 0.0018814929 0.0027200386 0.0011409903 -6.55174e-05 0.00045640423 0.0046711485 -0.0027149238 -0.005765221 -0.0047368035 -0.003031615 -0.006145295 0.0004391388 -0.0029111104 0.0033255212 0.0071310983 -0.009844021 -0.0008923052 -0.0003006012 0.00269453 -0.004684837 -0.004182372 -0.001863417 -0.0054238434 0.001450633 -0.00848376 -0.005752696 0.0029041409 -0.0029623755 -0.0012822811 -0.01087978 0.00030024842 0.003137359 -0.0031298187 0.0037803315 0.0052696904 -0.0041450537 -0.0010694021 0.00032503123 0.005192937
weed -0.005293169 0.002438259 0.0029835866 -0.004005447 -0.00015965903 -0.00050616567 -0.00031314933 0.0039744372 0.006792333 0.0058955844 -0.0019748968 -0.0049471096 0.0001994941 0.009352217 -0.0024079543 0.0011389087 0.004483831 0.0002608731 0.002216451 0.0057118437 0.0070961183 0.003509601 0.010078613 -0.0024220296 0.008066091 0.0019568973 0.006856363 0.008382868 0.0005836859 0.004630778 0.0018134332 0.0051757256 -0.0019832407 -0.0055771596 -0.0013731533 -0.0023089137 -0.00041274398 -0.00044255692 -0.0086387135 0.0037209068 0.005388651 0.0030967402 0.005024818 -0.002371336 0.014459157 -0.0057389126 -0.004453544 -0.004297659 -0.0043432023 -0.006994898 -0.0027345375 -6.9843185e-07 0.0038051314 0.0037655467 0.00554435 -0.00095963775 -0.002367798 -0.010054407 0.010437066 -0.00496971 -0.0025849396 -0.0030917295 -0.004018076 0.0064149415 0.004464554 -0.009776473 -0.0029809158 0.0021155677 -0.005559695 -0.007958677 0.001677573 -0.008342579 0.005126777 -0.013782013 0.0044647506 0.0014203769 -0.0046603526 -0.008138977 0.004845957 -0.00051254575 -0.006777902 0.0009129592 -0.0017477425 -0.009375479 -0.0015255426 -0.004004023 4.3840237e-06 -0.005184069 -0.00054918294 0.007181286 -0.0061496403 -0.002368614 0.001910643 -0.0014522242 0.010484876 0.01057769 -0.010157755 -0.0009414414 -0.005608134 0.009507573
transformation -0.0024310532 -0.0003989185 0.0038989247 -0.006699235 0.000268244 -0.0035029836 0.0051582786 0.0010091646 -0.0007827677 0.0067009176 -0.003203161 -0.005576036 0.0008136066 0.003147375 0.0016124522 0.002201311 0.006237553 0.0010219719 -0.003882368 0.0029418804 0.003264795 -0.0020530226 0.005329091 0.0016886193 0.0035584685 0.004622869 0.004693499 0.0039707962 -0.0007745971 0.0021816422 -0.0021018416 0.005260464 -0.0051319543 -0.005586576 0.0008262475 0.0010392749 -0.0006795976 -0.0043461635 -0.0031071573 -0.00089585996 0.004310166 -0.003709375 0.0010987319 -0.0029990575 0.007914947 -0.005978186 -0.0050046835 -0.0015067155 -0.005287867 -0.009109429 -0.0071569863 0.0028767851 0.006954516 0.0063491557 0.005303395 -0.0037627795 0.002349663 -0.00493933 0.007318181 -0.007906018 0.0009229505 0.0031833302 -0.0036906393 -0.00076347095 0.00685944 -0.0073304316 -0.00067029044 -0.004999134 -0.0033100403 -0.0029485647 -0.0031112402 -0.0025648323 0.0076784063 -0.011783685 -0.001666188 0.0007446848 -0.0028746077 -0.0077399947 0.0006968142 -0.0056829136 -0.0043675797 0.004042564 -0.0033645886 -0.0073716 -0.0074871397 -0.003240016 -0.0050689215 -0.004936291 -0.0034645086 -0.0013839917 -0.011614268 -0.0037445202 0.002457314 -0.0036367115 0.0023001647 0.0017295874 -0.0062724985 -0.0039790873 -0.006424392 -0.001098964
autonomous 3.0156705e-05 -0.0024517763 0.0031492573 0.00026926593 0.007965454 0.0030961891 0.0002033875 0.0014426232 0.0019849862 0.000422943 -0.003446124 -0.00079882354 0.0025135104 0.0021347518 0.00016249764 -0.0042855428 -0.001439324 -0.0065948362 0.002675807 -0.0023024655 -0.00048705732 0.003716838 0.0048369938 -0.005907858 0.009986082 0.0009116609 -0.00086561695 0.0057196515 -0.0039448487 0.00381626 0.00024489255 0.007921207 -0.0043766424 0.0005148954 0.0010785622 -0.0059718494 -0.00079875626 -0.0022580945 -0.005578842 0.00093221903 0.00081397424 -0.0049412195 0.005381905 -0.0043305517 0.0038678641 -0.0052524377 0.0017179577 0.000893331 0.00012357319 -0.005070242 -0.0024355315 0.0020595964 0.0028780254 0.006488481 0.00024684932 0.00042829648 -0.00047976783 -0.0067093447 0.0021584323 -0.008277575 -0.0031334292 0.006243508 0.005018859 0.0011934963 -0.0018201886 -0.0019538673 -0.0021074775 -0.0039144633 -0.008675838 -0.0067069354 0.0022060887 -0.0064642956 0.003270183 -0.003680137 -0.0008316831 -0.00085453095 -0.0073829987 -0.0007444871 0.0004214511 -0.0042751003 -0.008209098 0.0038850054 0.0032663697 -0.008902023 -0.0059398324 -0.0091960775 0.002823604 -0.00438759 0.0039070332 0.0029618181 -0.003144234 -9.270717e-05 -0.0003463331 0.000113487804 0.0066752336 0.0031679098 -0.0039144284 -0.006437986 0.0012865107 0.0041929465
this -0.003042354 -0.0063473545 8.2566585e-05 -1.44945625e-05 0.0076612034 -0.0016918023 0.0045216484 0.0041734832 0.00069793 0.004368129 -0.0082173245 0.0029559925 0.0027702686 0.007701933 -0.0033246037 -0.0035055468 0.0048325197 -0.006613446 0.0011546125 0.0021032274 0.004805913 -0.0021258185 0.00058915094 -0.0053694835 0.0015978458 0.004936496 0.0038310662 0.004597544 0.0019709694 0.0029508586 -0.004061618 0.003400092 0.0005244896 -0.005524505 -0.0027405897 -0.00058398675 -0.0027141862 -0.0054013347 -0.005547796 -0.0021378007 0.0021252262 -0.0038330408 -0.0029463612 -0.00342039 0.01046041 -0.0007791808 -0.00031139422 -0.0041474192 -0.0043360186 -0.004811872 -0.008765947 -0.0018179145 -0.0017687151 0.0047997385 0.0036605904 0.0011888465 -0.002394848 -0.00950771 0.0012314739 -0.0025217498 0.003048043 0.004199595 -0.004532201 0.0049741752 0.0014554003 -0.0026964315 0.0037084592 -0.0030830926 -0.0042447355 -0.008016608 0.0019649882 -0.005923925 0.0037912573 -0.0046182736 0.0029164865 0.0010047253 0.00018166959 -0.0021431374 0.00474181 -1.4845297e-05 0.0017541319 -0.0015921919 0.0034874298 -0.0031548801 -0.005506285 -0.0038281137 0.0009390937 0.0016126032 -0.0048918165 0.0024308418 -0.0023636215 -0.0050022644 -0.0033536945 -0.0018525496 0.0082182735 1.5321782e-05 -0.0011622871 -0.0025840502 0.00029757264 0.0040790318
system -0.0044524213 -0.0065132617 0.0036737686 -0.0069491933 0.0069967424 0.0013514418 -0.0002548754 0.0016514685 0.0042792065 0.006663178 -0.0033965975 0.0027040576 -0.005082634 0.0033885902 -0.0009793952 -0.0022968666 0.004102951 -0.007513236 0.004291796 0.0067720623 0.0012652979 0.00024941654 0.0031291256 0.0011469212 0.011478168 -0.0018703266 0.0024430351 0.004197025 0.0003310955 0.007796054 0.003389557 6.399868e-05 -0.0057358537 -0.0037068448 0.006697237 -0.0053797043 -0.0024990642 -0.0012711812 -6.529976e-05 0.003396594 -5.9833532e-05 -0.0022804318 -0.0008123822 -0.010190618 0.0034997463 -0.0056850845 -0.005184631 0.0035476214 0.0029897704 -0.0031764244 -0.0036443572 -0.0006593553 -0.0023676495 -0.0023226645 0.007173697 0.0034712881 -0.003694736 -0.008966866 0.0036224143 -0.0027103138 0.0013843392 -0.0022441535 -0.004158902 0.0029990354 0.0053963275 -0.0068197898 -0.0018034879 -0.0031548734 -0.010345405 -0.008090869 -0.0029620738 -0.008901236 0.005839085 -0.00983246 0.0010776952 0.00546188 -0.010375176 0.0005305388 0.0069140485 -0.003666473 0.0004865107 0.003928707 0.00022387828 -0.010150304 -0.0073933546 -0.0049041314 -0.0006391486 0.0037437754 -0.0018123015 0.0020886192 -0.0038797446 -0.007349307 0.0011607034 0.0025261668 0.0021887429 0.0053649275 -0.004756232 -0.0012052192 0.00020675427 0.0077764085
detection -0.009442845 -0.003715262 0.003893322 -0.0050927643 0.0074221794 0.0036129553 -0.0031558112 -0.003642581 0.0020122358 0.0051127854 -0.0013305956 -0.0045578154 -0.0035463574 0.005360365 0.0014200461 -0.0019098719 -0.00076273124 0.00062954257 0.0024777846 0.005390481 0.004900353 0.002424029 0.0028617363 -0.004840612 0.012181925 -0.0005433094 0.00916652 0.0026140204 0.00057953596 0.0058298954 -0.0029909422 0.0015877966 -0.0046742763 -0.0006261211 0.004811735 0.0033431668 -0.003980896 -0.0022000987 -0.0016377219 0.0020499253 0.004826091 5.5332235e-05 -0.0028094181 -0.009710401 0.0085267965 -0.005958441 -0.0033795997 -0.006414612 -0.0051818606 -0.00679361 -0.0052629593 0.002944393 -0.0015355438 0.00023197324 -0.00012631518 0.0009792307 -0.0026978145 -0.010947332 0.006261294 -0.0039637405 -0.0012814462 -0.003700108 -2.5965588e-05 0.00048235507 0.00086223206 -0.004436743 0.0045228763 0.003272642 -0.013128046 -0.002890243 0.0013602751 -0.009329117 0.005344869 -0.011843288 0.0032274825 0.0072579044 -0.011171689 -0.0024105106 -0.0010173096 0.0009830542 -0.0038977917 -0.0014971105 -0.00015841992 -0.007162891 -0.0063184947 -0.0004544226 -8.454481e-05 -0.0047803186 -0.00014435053 -0.00053177984 -0.01100161 -0.006529114 0.0010098505 -0.004073505 0.009672855 0.0014253245 -0.007441402 0.0017511171 -0.0060658967 0.0059072864
an -0.003475232 -0.0005899702 0.0008646073 -0.0026453 0.00055930816 0.0025064563 0.0046082106 -0.0038473129 0.00077045127 0.0027290126 -0.0063028387 -0.002749607 0.00010292333 0.009736175 0.0052255574 -0.0038912413 0.0036176664 -0.0044815177 -0.004252859 0.0011817561 -0.0011372397 -0.0009849417 0.0031355263 -0.006118861 0.011565699 0.004600333 0.007982366 0.0014565687 -0.004179357 0.003925946 -0.0038807723 0.0037104816 -0.0031956683 0.002231355 0.0061424966 -0.0005260463 -0.0038609193 -0.006590966 -0.0038654774 -6.249257e-05 -0.0013595956 0.0015860784 0.0021865135 -0.0058468645 0.007659172 -0.0013119268 -0.004360137 -0.0016652005 -0.0055518947 -0.009212086 -0.009297399 -0.0052464516 1.7102946e-05 0.006652063 0.0045118122 0.0021604227 0.0025971904 -0.0043143854 0.008929043 -0.0018645007 0.0014534951 0.0028395096 -0.00033309305 0.007303025 -0.00020730017 -0.009422202 -0.0009581871 -0.0027246578 -0.009146033 -0.0031857204 0.0015503981 -0.009113605 0.0031066167 -0.007042463 0.0044278027 0.0010340867 -0.0071455115 -0.0039948537 0.0068666697 -0.0014335162 -0.00021034337 -0.0038878163 0.0014372525 -0.0099635925 -0.0064196447 -0.001651697 -0.0022094005 -0.0036637094 0.002971461 0.00041579996 -0.007925133 -0.0067773997 -0.003584885 -0.0049348692 0.010908415 0.0017704185 -0.0071845404 0.0007299691 -0.0017835683 0.0076805926
agricultural -0.0070994683 -0.0026065065 -0.0024137106 -0.0062220083 0.0049362998 -0.003046356 0.0031856922 -0.0017961765 0.0026719067 0.0042671277 -0.0007812636 -0.0028935766 0.0016116616 0.0059759803 -0.0011625976 -0.001467481 0.0007611387 -0.0010525967 0.00427433 0.0030511122 0.0026149831 -0.002380795 0.0038338352 -0.0047398238 0.0024673454 0.0034109738 0.006916396 0.0057301917 -0.0034752921 0.0032274814 -0.0012164788 0.005384408 -0.0022246384 0.00091654836 -0.0010318118 0.0029600544 -0.004847618 -0.0014599344 -0.006747898 0.0027582063 -0.0010510748 0.0004947406 -0.0038306504 -0.00509577 0.00701832 -0.00011843636 -0.00406604 -0.0031684558 0.0018206885 -0.0013949877 -0.004189919 0.0018451564 0.0019906724 0.0016962856 0.005599508 0.0023233376 0.00038410808 -0.0072265547 0.004982936 -0.00726027 -0.0014056063 0.0021062158 -0.0011856682 0.002396575 0.0004452642 -0.00774391 0.0023957614 0.0014456623 -0.0029328875 -0.0037119584 -0.0018649459 -0.0035482394 0.007002449 -0.0027111743 0.0066281715 0.0053977524 -0.00076372456 0.00241563 -0.00046163736 -0.0019545048 -0.0059364666 -0.0049631335 0.004233746 -0.0040262365 -0.0066639762 -0.0001292698 -0.0044686175 -0.0041658804 -0.0047066133 -0.0022722895 -0.008306512 -0.0032663397 -0.0029176953 -0.0035461928 0.003118136 0.0060613276 -0.005838718 -0.004871107 0.0013493473 -0.00043024257
based -0.0020106183 0.002963937 0.00024178669 -0.0052543557 0.0004444402 -0.0044415407 -0.00072662276 0.0045533134 0.004565024 0.008693376 -1.2335162e-05 -0.004174646 -0.004584828 0.0016673511 -0.0031812247 -0.0016375687 0.002826673 -0.0038825131 -0.004101935 0.0029201575 0.00062696246 0.00028453112 0.0045050727 -0.003486316 0.0048534414 0.0003032338 0.0005071556 0.005982479 0.0055359076 -0.0011306177 -0.0010551405 0.0059137554 0.0012879295 0.0005880343 0.0057104398 -0.0039256522 -0.0054309443 -0.00425993 -0.0068118297 0.0056511643 -0.0035553677 -0.003579634 0.0021743816 -0.0058638495 0.012201278 -0.0065091285 0.0032264043 0.002360766 -0.0034993077 -0.0066929045 -0.0019523291 -0.0044035786 0.003016694 0.0055186586 0.001984088 -0.00012104825 0.0045580533 -0.0024619554 0.005264691 -0.008081297 -0.0030370296 0.003471171 -0.0011282467 0.0023038094 -0.0020107222 -0.0016060756 -0.00033261118 0.0003894755 -0.010060678 -0.0029975614 0.0030282873 -0.0062663644 0.0027384576 -0.010431372 0.0037335923 0.0043271924 -0.008514218 0.00051878404 0.0036753477 -0.0034573986 0.000538651 -0.003073064 0.003182009 -0.00826889 0.0019174182 -0.00092748826 0.0028960926 0.002257118 -0.0031583046 0.0068388293 -0.0052601444 -0.003238278 -0.00029455635 0.002804659 0.005608603 0.0046471935 -0.0074206796 0.0007156258 -0.0033696198 0.002041959
systems 0.00094521005 -0.0010192498 -4.251142e-06 0.00010848711 0.0032367047 -0.0052048634 -0.0036782469 0.00066174875 -0.0007725727 0.0010206628 0.0010032055 -0.0004105601 -0.0011529197 0.004255571 0.0055736583 -0.0035593945 0.0023984073 -0.0031809448 -0.000103958286 0.0018830274 0.0041398946 -0.0037490025 0.005890353 0.0012659149 0.0009111449 0.003905681 0.0062331604 0.007853365 0.0048331567 0.004983726 -0.003228195 0.0023052825 -0.0019300699 -0.0034812333 -0.0016246184 -0.005611905 -0.00069012906 -0.004382013 -0.005651645 0.0017842874 -0.0037449026 -0.001252035 -0.0032637923 -0.009185942 0.0076491614 -0.0011545062 0.0021718293 -4.929705e-05 0.001374967 -0.010623483 -0.0077392794 0.0043247943 -0.0035190287 0.005523674 -0.0014081188 -0.0033694007 0.0032279505 -0.0059516453 0.0030713344 -0.0070237075 -0.0030226642 0.0059562176 0.0021243955 -0.0021935038 0.0015048832 -0.002184529 -0.0008885023 0.002237188 -0.008709572 -0.008968183 0.004514822 -0.0028952563 -7.5466945e-05 -0.010693001 0.00488449 0.0062495135 -0.00496386 -0.0066718888 -0.0024822543 0.00036785225 -0.0010698485 0.0041081016 0.0022464518 -0.00902499 -0.0012162995 -0.0053775734 -0.0011107258 -0.0033896982 0.0023126523 0.0029454771 -0.011352791 -0.0039212108 0.0052110194 0.0016498407 0.0033904759 0.0018796809 -0.0059426893 -0.00025506475 -0.0006842287 0.0072234953
four 0.00029237394 -0.0036502967 0.0023634667 -0.0045371666 -0.0008569831 -0.0020306287 -0.0026069435 -6.5968685e-05 0.0037030755 0.0011735897 -0.008395113 0.0041133547 0.0028241924 0.008428107 0.0055117616 0.0007860183 0.00036101328 0.0023859192 0.0024115222 0.005981902 0.0010847487 0.0051923622 0.009484334 -0.004783553 0.009524448 -0.0010507071 0.0018647246 0.007957724 -0.002335937 0.005388111 -0.0009705268 0.008076465 0.0030358974 -0.005695784 -0.0008560749 0.0030043926 -0.0075048744 -0.0014160183 -0.0065574152 0.0034348343 -0.00467282 -0.0049296618 -0.0021168347 -0.004455484 0.0037077554 0.003340298 -0.00079930195 -0.0020548329 -0.0035435527 -0.0041374504 -0.00628647 -0.0014281542 -0.00052885263 -0.00021101697 0.005980281 -0.0019250057 0.002530635 -0.005895337 0.005682149 9.2320864e-05 0.0034557339 0.0008972339 -0.0036522003 0.0024377294 0.006574907 -0.00082680385 -0.00228199 -0.0030857236 -0.0078058965 -0.0061863414 -0.0046171006 -0.0034408942 0.0015831614 -0.004142386 -0.00031403644 0.0004039712 -0.009862779 0.0009370656 0.0041201715 -0.00321733 -0.007096073 0.003408087 0.0008383535 -0.0108793825 0.0005348926 -0.0055774665 -0.005543549 0.00064593693 -0.0042263586 0.0069635026 -0.0067453803 -0.006331681 -0.00024031228 -0.002803157 0.002117711 0.0078110443 -0.0086868955 0.0014333518 -0.00060733623 0.002806865
yield 0.00093018514 0.0030747545 0.0055295797 -0.0033726594 0.003771684 0.00402712 0.004376217 -0.0030073973 -0.002737364 -0.0010095132 -0.00411659 0.0039807917 -0.0035634646 0.0013218456 0.00094012707 -0.0042818454 -0.0005351544 -0.0023027668 -0.0041432693 0.0053971345 -0.0027032192 0.0026362706 0.0018615329 0.0010323521 0.0061166813 -0.00076048827 0.006388469 0.0022493023 -0.003042028 -0.0018356733 0.0036159812 0.0009566036 -0.0024965834 -0.0018813517 -0.0032141826 -0.004037098 -0.005760931 -0.0018966219 -0.00035606924 0.0007435292 -0.0042054225 -0.0027737364 -0.002785469 -0.0032730196 -0.00036920956 -0.00018330867 -0.00064008276 0.0040658517 -0.0019831627 0.00026425044 -0.0067865476 0.00457486 -0.0024641342 -0.002784263 0.0010316423 0.00069430796 -0.00031849448 0.00094977196 -0.0023557674 -0.0036018908 -0.003774008 0.00013041757 7.2897994e-05 0.0015058256 -0.0032405956 0.000718153 0.0055799466 -0.0006142383 -0.00613163 -0.0010478486 -0.00016535337 -0.0012418017 0.007042716 -0.006340465 -0.0035033762 0.0053565404 -0.0056011267 -0.0008819879 0.00071059976 0.003305991 -0.0026214244 -0.0049903602 0.0037185738 -0.0082094865 0.0026820672 -0.006109499 0.002677751 0.00080334063 0.0037440793 0.00076841435 -0.005463001 -0.006439557 -0.0043732403 -0.00033309133 0.00076351006 0.0027418581 -0.004298274 -0.00221711 -0.0016991687 -0.0011323084
performance -0.0021567515 -0.0017465738 0.0030659693 0.000794419 0.00571663 -0.0045810104 -0.0036926055 0.0019468166 0.0051215147 0.00711089 -0.0055683227 0.0038122556 -0.0049492586 -0.00013771538 0.0055249147 0.0027624283 0.003755397 -0.006493628 0.00071287155 0.0016416974 0.004954572 0.0013423564 0.007974054 -0.0049315444 0.00607943 -0.004777764 0.0061566886 -0.00083108235 -0.003308033 0.0013571098 -0.0047923108 0.005469883 -0.0029928 -0.0033572167 0.000818872 -0.0010237085 -0.001999947 -0.002815347 -0.005176803 -0.00080321735 -0.0005144629 0.0016090907 0.0014171986 -0.00032695808 0.0026692806 -0.0035735848 -0.004261067 0.00039227676 -0.004504853 -0.0068581253 -0.00035088015 0.0035926485 0.0044427286 -0.00226395 0.0037214204 -0.004196349 0.0047019986 -0.0020341354 0.00822461 0.0009952072 0.002137741 0.0015756167 -0.0025694661 0.000206654 0.0045027314 0.001617294 0.004667622 -0.0007057246 -0.0075092246 -0.0061510685 -0.0029671702 -0.007700612 0.0030807913 -0.006345403 0.0013311238 -0.0015745037 -0.001329581 -0.0048902226 0.0038917025 -0.0042621447 -0.0054994677 0.00071531575 0.00236901 -0.0010544647 0.0006012284 -0.000951993 -0.001381785 -0.0025871762 -0.0052434877 0.004793428 -0.005204229 -0.0046256706 0.0045394558 -0.0016602349 0.0008151704 0.007740736 -0.0051714266 -0.0032858124 -0.00058185414 0.0009794033
from -0.009093546 -0.0069974433 0.0018099558 0.001635505 0.0013430335 0.0008417831 0.004756168 0.0053261206 0.00018506445 0.0040304586 -0.0054264464 -0.0012509865 -0.0038649652 0.005554539 0.0027450304 -0.0027892347 0.000119243596 0.00057694525 -0.0005666354 0.002807537 0.003876259 0.0032774403 0.00971226 -0.0060037975 0.0033147961 0.0052713077 0.0028627927 0.0027891353 0.0028943736 0.0044433544 -0.00528591 0.0044196304 -0.0025985956 -0.00671526 0.0047045206 -0.002570859 0.00044528063 -0.00582081 -0.0028173141 -0.0031807201 0.004054333 0.0044382294 0.0056107957 -0.0037149496 0.011594899 -0.0067985165 0.0023155876 0.0017255627 -0.0032962312 -0.0059279334 -0.006506641 0.0021586304 0.0049743266 0.0037722383 0.008201271 0.001013445 -0.003906362 -0.013416176 0.0046553733 -0.010385791 -0.0037769144 -0.0016362212 -0.0033281054 0.0022518649 0.00073634187 -0.0008887096 0.002079039 -0.0020118202 -0.013815417 -0.009868963 -0.0006583326 -0.0076896744 0.0097646965 -0.005790893 0.0035065576 0.007830365 -0.006176671 -0.005997656 0.007154407 0.0015488011 -0.004276359 0.0043516853 0.0008937709 -0.005634528 -0.0048906934 -0.005442244 -0.0057205097 0.0023851704 0.0016032575 0.0008835324 -0.009914401 -0.0019159915 0.0035790866 -0.0039943033 0.002787026 0.011182223 -0.007909649 0.0003290787 -0.0038464067 0.002714852
these -0.0014541671 0.00039329665 0.0027729142 -0.0033184497 0.0063658315 0.0018392976 0.0022027113 -0.00060193404 -0.0012781959 0.004907792 -0.006868338 0.003931806 -0.003664704 0.00016391875 0.0055968617 0.00100057 0.005897639 0.0018173818 0.0004665947 0.004978473 0.0048128027 0.0026350194 0.00500675 -0.0034293528 0.0028308562 -0.0017001405 0.00681453 -0.00043353665 0.0010168301 0.003106093 0.000970144 0.007496991 0.0035887985 0.0022028647 0.002041144 0.001044526 -0.0024107757 -0.0032455751 -0.00034617723 -0.0035959834 0.004805643 0.0026612817 0.003325578 -0.0011482746 0.009533454 -0.0019748346 0.0011302709 0.0011837976 0.0007848045 -0.0064321253 -0.0034129536 -0.0032659753 0.0029780695 0.005309861 0.003120789 -0.005717169 -0.00058491755 -0.009875623 0.0039959596 -0.0026857823 0.0052873488 -0.00045453198 0.0024240897 -0.0018306707 0.0044313245 -0.0033343073 -0.0031951417 -0.0024232173 -0.005656011 -0.0047681388 0.0043981355 -0.0041830223 0.007572605 -0.0018690429 0.0029948014 0.0021440727 -5.845951e-05 -0.0012459031 0.002355926 0.0032884455 -0.006908871 -0.0009697977 -0.0013411271 -0.0040295315 0.001352815 -0.007284938 -0.0028199456 0.0022533492 0.00037914992 0.0009317751 -0.0066628214 -0.0044010123 -0.00063009834 0.00014269314 0.0033972617 0.008834958 -0.00029975612 0.0033566344 0.0013603232 0.0031459334
application -0.005856902 -0.002780808 0.00015764638 -0.0069208313 0.003052848 -0.0027242026 0.0016654775 0.004335851 0.003088813 0.0025909173 -0.00072130695 3.6014e-05 -0.00066199043 0.0040398864 -0.002942519 0.003481838 -0.0028024456 -0.0003030704 -0.0012406433 -0.0029334498 -0.0017978183 0.005337321 0.0062721563 0.003183039 0.008877288 -0.0026348194 0.0027707363 0.0067640464 -0.0021683797 0.00015931782 -0.005890903 0.0027500642 -0.0042272834 -0.0006689948 0.0023932396 -0.0015975895 -0.0048635467 0.0005617045 -0.007052565 -0.0036551594 0.004645968 0.0012167932 0.0018960255 -0.0066806995 0.0034314056 0.0032538578 -0.0030685083 0.0009609037 -0.0039406694 -0.008838058 -0.0045554545 0.0039783125 0.0049813585 0.0024160955 -0.002147375 -0.004841633 0.0023662178 -0.010033858 0.007979261 0.0008652649 0.003282699 0.003716702 0.0022307085 0.0048884507 0.006099535 -0.007739328 0.0022151854 0.0025531307 -0.010776667 -0.006044417 -0.00129358 -0.0045626527 0.0017350545 -0.007982599 0.0011101096 0.0014967892 -0.007970975 -0.0070600556 -0.00020819464 -0.006150759 -0.00717271 -0.0002080234 0.0045645395 -0.010527476 -0.0012262963 -0.003398132 -0.002509039 0.0019303932 0.0033793563 -0.0009751456 -0.007702278 0.0011087549 0.002016023 0.0014628789 0.0055591725 0.009385571 -0.0018481141 -0.005468628 0.0014256468 -0.0018870144
by -0.0054531973 -0.0032832983 0.0025519934 -0.006118497 0.0030441587 -0.0017260985 0.0024384574 -0.000120526514 0.0018944844 0.0013665374 -0.008810146 -0.0044703186 -0.007137759 0.0014856322 0.006761558 0.003754363 0.004618666 -0.0072296285 0.004670372 0.006343688 0.00044480394 -0.0019117333 0.0067298305 -0.00095052924 0.00976654 0.004324679 0.0076503367 0.008519577 -0.0022152937 0.006557465 -0.0003656278 0.0016434165 -0.0043327934 -0.004990276 0.0010964688 0.00095500326 -0.0077666477 -0.006886038 -0.0035424863 -0.0036550618 0.0008505567 0.00418476 0.0054399213 -0.004236923 0.011561046 -0.000517155 -0.003776571 0.0011424636 0.0009805615 -0.013070235 -0.007433041 -0.0030580172 -0.0012074796 0.007366431 0.0069298325 -0.0052732592 -0.0040125977 -0.011851028 0.001516489 -0.0044235294 -0.0033152164 0.0054675005 -0.0016509014 0.005617393 0.00042748376 -0.008021455 0.006760734 -0.0025071122 -0.013280879 -0.003018012 -0.0011743738 -0.0065998854 0.0017380482 -0.003477823 0.0032531917 0.0019041792 -0.0106263915 -0.006678554 0.0026812428 -0.0040503964 -0.0010143201 0.0013977044 0.004151043 -0.014169268 -0.0062350826 -0.0049716407 -0.0021832865 -0.00517659 -0.00031178622 0.005641691 -0.008287503 -0.008349221 -0.0021871119 -0.0052673724 0.008890992 0.0016430882 -0.008332832 0.00019198097 -0.0007108172 0.00065471476
be -0.006393214 0.0030438958 0.0063834907 -0.0010092559 0.0023418448 -0.0056921495 0.0051612086 -0.0023740316 0.0056278836 0.00010532794 -0.0054763276 0.0025853487 0.00077676744 0.005841884 0.0056514 -0.00047980814 0.0018438221 -0.0072012837 -0.00060115225 0.0052820123 0.002792801 0.0029130627 0.0063751363 -0.0002523055 0.0046161963 0.0027829765 0.00557673 0.0018582757 -0.0034142456 0.0025750701 0.0024646227 0.006309238 0.002067565 -0.006196327 0.00057605084 0.0013121335 -0.00036563617 -0.002197319 -0.003595218 -0.0004319152 -0.0027089138 0.00397171 -0.0026024114 -0.003651525 0.007918772 0.0033120564 -0.003311199 -0.0049250214 0.0033379209 -0.008737786 -0.006765394 -0.004205933 0.0026385605 -0.002211405 -0.0019413342 -0.0021330407 0.0045194617 -0.011396511 0.0034347656 -0.0014970655 -0.0027994332 -0.0026103682 -0.0037324121 0.0056376616 -0.001106611 -0.0038168128 0.0020339915 -0.002434252 -0.005732711 -0.0014668476 -0.00472492 -0.0032705676 0.0075723105 -0.0040249135 0.0027007347 -0.00029547757 -0.0062613175 -0.005883391 0.0036330887 -0.0009406252 -0.0018462401 0.0035379112 -0.0009494193 -0.010540937 0.002211623 -0.0002985544 0.0038483355 0.0018481298 -0.004771829 0.0007695511 -0.010092746 -0.0061806403 -0.0011836608 0.0034928496 0.0022196604 0.005444236 -0.0048448653 -0.0046860008 0.0014918243 0.0002622774
robotics -0.005868154 -0.0058336295 -0.001979048 0.003034426 0.0048202937 -0.004046388 0.00048788142 0.0025315636 -0.0020624236 0.0010765375 -0.0058340677 -0.0042276043 -0.0062020244 0.003435614 -0.0021476801 -0.0025315345 0.0037778937 -0.005281311 0.0048361393 -0.00074164005 -0.0015886837 0.00057160115 0.00081906613 0.00079768605 0.009336648 0.0026592754 -0.001655708 -0.00019992923 0.004841919 -0.0018008609 -0.004461855 -0.0017770566 -0.004696404 -0.0027075182 -0.002399532 0.0016114854 -0.0032131227 -0.0070699793 0.001689627 -0.0037444558 0.004659392 -0.0036034165 -0.0020233374 -0.008424628 0.0041995905 -0.0042909887 -0.0038785383 -0.0025109039 0.00055944 -0.006770517 -0.008254621 -0.0043697264 0.0013293454 9.962062e-05 -0.00067917013 -0.0031353175 -0.0033087824 -0.009322541 0.0060641337 -0.0045127375 0.0038969046 0.00467053 -0.0014869719 -0.002403679 0.0011375416 -0.0051443703 0.00047180286 -0.0026028024 -0.0052577695 -0.004768056 -0.005044163 -0.0022619786 0.004593724 -0.004540356 0.0041156546 0.007966534 -0.006674797 0.00018285053 -0.002553062 -0.0055273836 -4.686397e-05 -0.003944087 -0.0009400304 -0.0028879382 0.0014888803 -0.0066409186 -0.0039020912 0.001960021 -0.0023252647 0.006778147 -0.008968504 -0.00038362513 -0.0017360611 -0.0019177685 0.001517515 0.0027851602 -0.0053322515 -0.0049636904 0.0019821445 -1.0931213e-05
vehicles -0.007312027 0.0018308774 0.0063127563 -0.007018217 0.00027916726 -0.0059048436 0.0028104107 -0.0014566949 0.0043533933 0.0025528038 -0.0068808477 -0.0014858814 -0.0049164044 0.002531861 -0.0016968393 0.0025403178 -0.0024573822 -0.0040078615 0.0017884799 0.0068068705 0.0056454497 0.0037675344 0.0091737285 -0.0028593852 0.01021401 -0.003788381 0.0022738252 0.006911532 0.00018403766 0.0011962949 0.0017656418 0.006903233 -0.0035015105 0.002469302 0.0059564803 0.00044172816 -0.003235971 -0.0004374294 -0.0059818276 0.00044685058 0.0037532954 0.00010524379 -0.002693716 -0.0034875742 0.010739909 4.4489534e-06 -0.0009416433 0.0019760127 -0.0045984406 -0.013703447 -0.010929683 -0.0014147607 -0.0015807179 0.0013502479 -0.00020820524 -0.0063186106 0.0013054353 -0.0137121985 0.00870454 -0.010425765 -0.0034431235 0.0016033031 0.0048338296 0.0023793916 0.0016805457 -0.005645985 0.0070335018 -0.0029641662 -0.0052255555 -0.004959617 -0.0036354987 -0.0028268532 0.005657878 -0.012166276 0.0004729137 0.0009630083 -0.01125635 -0.00601778 -0.00035284707 -0.0039722915 -0.0023740514 0.00062990305 0.00050628115 -0.01287862 -0.0028036085 -0.010714642 -0.0042857 0.0041053374 -0.004966099 0.0012843662 -0.011036262 -0.0012941285 0.00046372498 -0.0056447093 0.011775824 0.009289113 -0.012600137 -0.0038127345 -0.003384704 0.0034376592
vehicle -0.004514099 -0.005405971 0.00209129 0.0018918727 0.0045290636 -0.0027282091 -0.0035111804 -0.0006631243 0.006021029 0.00060690846 -0.007858038 0.0031619587 -0.0009502113 0.0020367443 0.0058071204 -0.0018170216 0.00512584 -0.00024596433 -0.0045395605 0.00061370403 0.0019370139 -0.0017712257 0.010008797 -0.0015375224 0.004918615 -0.0023265209 0.0073980144 0.0067244023 0.0032219386 0.00010657475 -0.004544702 0.0074012135 -0.003933886 -0.0028729427 0.0026527427 -0.0024872571 -0.0042015803 -0.005792197 -0.0059976047 2.1365511e-05 0.0035831204 -0.0024896238 0.0009415106 -0.0044704936 0.005034836 -0.002456689 -0.005923079 -0.0013999003 -0.0035153462 -0.007664358 -0.0043519 -0.00141809 0.005968305 0.0044981716 0.0011421526 -0.0056222873 0.001772404 -0.0055856816 0.005485904 -0.00031066162 0.001846345 0.0050623366 -0.0035748521 0.001026432 0.003741131 -0.008996251 -0.0023295763 -0.00043081626 -0.0052825697 -0.0043742913 0.0030893083 -0.004802544 0.00789154 -0.009936933 0.0023712402 0.005299435 -0.009796137 -0.00066939497 0.0010237482 -0.006070649 -0.006010703 -0.004751167 0.0029296633 -0.011821456 -0.0013210695 -0.0047225105 0.0005318958 -0.0006647717 0.0034210107 0.0043473397 -0.013219164 -0.004312669 0.004512519 0.0022480392 0.008854692 0.005310442 -0.0046153124 -0.00078738126 0.0014925259 0.0024390095
tasks -0.0013845768 -0.0042414367 0.0051752524 -0.0056421845 0.007422542 0.0019975582 -0.004455034 -0.0035621054 -0.0023749017 0.0075316965 -0.005788197 -0.0030211674 -9.085773e-06 0.0060715713 0.0049733487 -0.00047176424 -0.0024433364 0.0028657848 -0.0025778743 0.0028771388 0.002269825 -0.0017336637 0.00081451156 0.0016465617 0.009067604 0.0037129724 0.0059180404 0.00436268 9.12377e-05 0.0021852488 0.0038077289 0.0024045005 -0.0029304163 -0.0039755935 0.00040608217 0.002547165 -0.0016119168 -0.00022698975 0.00094750384 0.0017257804 -0.002312364 0.0048806956 -0.0028504995 0.0001307838 0.002537327 -0.002804355 -0.0019758998 -0.0049320185 0.0017859848 -0.0060932375 -0.004144029 0.0042177723 -0.00032560693 0.004640159 -0.0005257522 0.0036315275 0.0015371655 -0.009382974 0.002182482 -0.0073207463 -0.0013594913 -0.0009888755 0.0026357074 0.0037248372 -0.00024065 -0.0051728035 -0.0025477533 0.000853781 -0.0020987354 -0.00087177515 0.0002039182 -0.0023840403 -0.0015790489 -0.0031328755 0.00608852 0.005784592 -0.0014766846 -0.004752525 0.0041096387 -0.0017118817 -0.0013554278 -0.0033956324 0.0012204162 -0.00406264 -0.00348432 -0.0041121244 0.0025432997 0.00042036138 1.2577002e-05 0.002410996 -0.0013305406 -0.0044684876 0.00022384316 0.0025599455 0.006237744 0.0038882608 -0.0035401362 -0.00023339032 -0.00040546694 -0.0019760863
technologies -0.0045414884 0.00074975425 0.0043376223 -0.0066580544 0.005085199 -0.002471078 0.0031714668 0.0010157186 0.0005686484 -0.0019589602 -0.0033462546 -0.003433965 -0.0036569617 0.007784096 0.00536424 -0.00039029002 -0.0007525481 0.00022436916 0.003611328 0.0052062683 2.6859998e-06 -0.0019757678 0.007979302 -0.004695806 0.0006072247 0.002042468 0.0058234744 0.001790357 -0.0015483001 0.00081932626 0.00080439023 0.0023710807 0.0016239379 0.0034755564 0.0014903512 -0.00063210045 -0.00035474048 -0.007182939 -0.006708083 -0.00062882376 0.0020135476 0.0019978075 -0.0016417752 -0.003906738 0.004385806 0.0002060317 -0.0031737 0.0004984406 -0.005688015 -0.0023819932 -0.000331425 0.0023573579 -0.0023884152 0.0008446978 0.006263838 -0.002926712 0.0010353398 -0.001543022 0.0028769204 0.0008979644 0.0054727956 0.0003091316 -0.0022647975 -0.0022123014 0.0022168483 -0.0005069781 -0.00010639302 0.002092553 -0.0025597443 -0.005573064 0.0010742891 -0.0021631597 -0.0007185366 -0.0019163208 0.005406331 0.007411469 -0.0037461575 -0.0026406816 0.001067982 0.00090121565 0.001992066 -0.00064587 -0.0031455674 -0.0035525425 -0.0020298276 0.0010312919 -0.004200689 0.000943671 -0.0014819537 -6.2144056e-05 -0.010905118 -0.00543023 -0.0030041353 0.000532472 -0.00041990477 0.0042539784 -0.0040340074 0.0012946741 -0.0015573207 0.0048232153
potential -0.00488031 0.00024319538 0.0032775605 -0.006266459 0.0013149836 -0.0036024936 0.0028806496 0.0033278514 0.007585429 -0.0007099935 0.0006764803 -0.00018269575 -0.0059234304 0.0043179668 0.0038382434 -0.0033226877 -0.003043282 0.0017963599 0.0032057709 0.0051561473 0.0053365566 0.0008590422 0.0096321 0.0023831641 0.0024018935 0.0031911 0.007810416 -0.00048374623 0.005335016 0.0060548577 0.0035786892 0.0019162719 0.0014525717 -0.0014399074 -0.00022045916 0.00076261634 -0.003497834 -0.0075871022 -0.00143715 -0.00065540103 -0.00029018306 0.00028998565 0.0030679656 -0.006011157 0.005062613 -0.0015452912 -0.0005038095 -0.004267023 -0.0031700158 -0.006581476 -0.0026082709 -0.0046229875 0.00464599 -0.0015708621 -0.0011387968 0.0003924287 0.003949962 -0.006432559 0.004427449 -0.0063749407 0.001040063 -0.00074248086 0.0010724424 0.0057348525 0.0011181079 -0.005479265 0.0053638136 -0.0006637715 -0.008870136 -0.0041505154 -0.001464029 -0.0049377354 -0.00012590783 -0.0072370884 0.007249849 0.008554545 -0.007766811 -0.006158196 -0.0016798875 -0.0027753168 -0.003442752 -0.0038691072 0.0027759562 -0.006777558 -0.00021742914 -0.008213052 -0.0002191975 -0.00022113632 -0.003067027 0.00057856226 -0.004987646 -0.007736096 0.0030424292 -0.005525763 0.0024380067 0.0026198765 -0.0065675084 -0.005729322 0.0017808309 0.004710907
field -0.0032158387 -0.0023503061 -0.0002955284 -0.00095135014 -0.0012031359 0.0029216255 0.00010527891 0.0026521971 0.0016199298 0.0018076523 -0.0037304265 0.0026821203 -0.0041924515 0.00056285376 -0.0026281388 -0.00024518138 -0.0022066461 -0.0007018828 -0.0010826967 -0.0027803583 -0.0031721084 0.0026540142 0.0043724217 0.0028613065 0.002160133 -0.0017952536 0.006054182 0.0072240634 0.0025415514 -0.0009856633 0.00031691347 0.00800282 -0.0023791457 -0.0056545073 -0.0021057886 0.0029651807 -0.005342902 -0.0015366991 -0.0048410613 0.0019521452 0.002670886 -0.0018152418 -0.000450998 -0.005685678 0.008072448 0.0012960518 -0.0026668422 -0.00033729893 -0.002882959 -0.006071759 -0.004168805 0.0009736385 0.0008153006 0.0032353837 -0.0007228531 -0.0022417738 0.0007721343 -0.008678388 -0.0011496074 -0.0011842598 -0.00069832726 0.0014197677 0.0005952564 -0.00030483553 0.0037706036 -0.000393476 7.1956165e-05 0.0002710413 -0.003101361 -0.007641194 0.00320595 -0.0018566676 0.0035192037 -0.010165757 0.001271896 0.007574578 8.925673e-05 -8.882162e-05 -0.003339761 -0.0033439328 -0.0043316036 -0.0019103946 0.005549703 -0.009169717 -0.0067340853 -0.007504414 -0.0015761955 0.0030941418 0.0025428098 0.002288397 -0.004495338 -0.0011317378 0.0002049869 -0.0053064805 0.0040610586 0.008057363 -0.0065273573 -0.0030794863 -0.0034815478 0.0008134595
research -0.0078276135 -0.0024477637 1.4029273e-05 -0.005983752 0.004405076 -0.005286235 0.003956249 -0.0042544287 0.0037391018 0.006645675 -0.004752503 -0.0055337353 0.0009574079 0.008954639 -0.001360258 0.0038906676 -0.0012052105 -0.0008834561 -0.0028710377 -0.002626792 0.0059562568 -0.0020271046 0.0011668963 -0.0031988996 0.008902574 0.0021693446 -0.00082614867 -0.00029833798 0.0011015382 -0.0022802602 0.0030158563 0.007696501 -0.0004594633 -0.0028392877 -0.0018169822 -0.0029562647 -0.0025937934 -0.006739087 -0.0018434295 0.0003407013 0.0014520222 0.0024473527 -0.0033183391 -0.005136077 0.0039704167 0.0021225864 -0.0034945288 0.0027530894 2.1161086e-05 -0.007883963 -0.0026987693 -0.0022998948 0.0018108768 0.005547626 0.007553237 -0.0018905102 -0.0047153425 -0.008349059 6.39145e-05 0.0007552295 -0.0029568134 -0.0016096255 -0.0036551524 0.0002988625 0.006512241 -0.0042192885 -0.0021621021 0.00026727555 -0.009575631 -0.0026008356 -0.0037142688 0.0006770402 0.0047830623 -0.011053583 0.0054028337 0.00020101335 -0.002831669 -0.0057918383 0.005173566 0.00265813 -0.0011405635 -0.00064704317 0.0050628614 -0.011381004 -0.0076107443 -0.0009539333 0.003333344 0.0017962701 -0.002263096 -0.00081232854 -0.007512438 -0.007018065 0.0038963084 0.0010957379 0.009766651 0.0020762635 -0.0070542595 -0.0064413007 -0.003089071 0.006684526
paper -0.00018409631 -0.0010603424 -0.0005997953 -0.005665374 -0.0010482157 0.0027755124 0.0034743603 0.00525991 -0.0016814041 0.0026718136 -0.007832251 0.0038654406 -0.0025024426 0.0059963865 0.0034902405 0.0047864206 0.00474345 0.002888043 -0.0013309731 0.0014913921 0.005952044 -0.0021940037 0.009150525 0.0010859207 0.007612211 0.0036801002 0.0034084024 0.002295742 -0.0025839387 0.0052313562 -0.002612183 0.008250419 -0.0022040876 0.003097352 0.0006248827 -0.00084946386 -0.0015129705 -0.0068834606 -0.0067576612 -0.0011097151 0.0054057166 0.0021647434 0.005127585 -0.0030686036 0.0077242004 -0.003395888 -0.0044494327 -0.0030397219 -0.0026429729 -0.006755171 -0.0041618566 -0.00028926184 -0.00028764215 -0.00032503172 0.0047359285 -0.0045348196 0.0019673258 -0.0011961935 0.00045128612 -0.008184512 -0.0018271481 -6.928996e-05 0.004218184 0.0007132919 0.0014904382 -0.0020950527 0.0005967843 0.0012968567 -0.0010719865 -0.009073327 -0.0010978801 -0.0072278767 0.004503227 -0.0068176556 0.006324885 0.0052262344 -0.0031807849 0.00072873983 0.0028588825 0.0029185747 -0.0070961015 -0.00043819996 -3.7001704e-05 -0.00486007 -0.0005513819 -0.0045086145 -0.0050566616 0.0010923838 0.0035060167 0.0069135968 -0.004352202 -0.006026139 -0.004371397 -0.001983802 0.0068655363 0.0040524974 -0.0061657485 -0.0016429609 -0.0016885637 0.0034508812
network -0.0050906558 0.0018173377 0.0025245312 0.0011635891 0.0055173314 -0.0021656153 0.0032820946 0.0054913964 0.0053682392 0.0010863866 -0.007876487 0.003190122 0.0021709707 0.0017420127 0.0015985045 0.0004763052 -0.000110291156 -0.0017188393 -0.0013581844 0.0061006816 0.0020105196 -0.0012522247 0.002854761 0.0003459947 0.0022666815 0.003774443 0.007016917 0.0014792954 0.0012254053 0.0011806105 0.0033063588 0.0014406285 -0.0028965091 -0.0048606014 -0.0016415259 -0.0044161044 -0.0011861093 -0.0044981544 -0.004185514 -0.0016517126 0.0012208613 -0.0012337464 0.0014593947 -0.0027831255 0.004698325 -0.0046606697 -0.0061314055 -0.005228931 0.00078767305 -0.007826763 -0.0048930924 0.004554602 0.0002353407 0.002038591 -0.00039594018 -0.0035243072 0.004558297 -0.008088153 0.00482924 -0.004842641 0.0016231225 0.0012603515 -0.0013723994 0.0058351276 0.004476685 -0.0068155313 0.0049926317 0.00060623686 -0.005360181 0.00032933548 0.004496507 -0.0066120373 0.0020893763 -0.0067032487 0.006998004 0.0028579326 -0.007035793 -0.005975221 -0.0014744191 -0.00033708074 -0.0030982003 -0.00036552054 -0.0038566685 -0.010694762 -0.0064413464 -0.008319922 -0.0044513266 0.0016377028 0.0025218378 0.00330548 -0.0086643165 0.001650034 0.0025138324 -0.0044082594 0.004661096 0.0057985997 -0.0054230033 -0.0044203713 0.0035919964 0.0072320076
training 0.00028375813 -0.006647774 0.0012348219 -0.0063606896 0.007398331 -0.0011794828 0.0005757353 0.0008963237 0.0036379504 0.0046680085 -0.0035480266 -0.0049009435 0.00085654313 0.008927779 -0.0014793883 0.0013008117 0.0011755298 -0.003344966 -0.004660647 -0.0030643898 -0.0028323012 -0.003500455 0.0030566617 0.0032812792 0.0012210273 0.0042728307 0.0041050157 0.007316368 0.0036540611 0.0024801856 0.0030553483 0.006283856 0.0012954612 -0.0022979372 0.005231824 -0.0027320501 -0.0068746516 -0.0051974338 0.00039398656 -0.0012481372 -6.0101032e-05 -0.0025645916 0.001664512 -0.0092681665 0.0076825307 0.0031878354 0.002305538 0.0015695203 0.0016167521 -0.006837317 -0.0071130516 0.003979535 -0.00042050373 0.0009139017 0.0036118084 0.0037242277 0.0038782265 -0.010414873 0.001451801 -0.0005808475 0.004619853 -0.0029015252 0.0009757971 0.0067442823 -0.0017852383 -0.0040772175 -0.00066758704 -0.0010330852 -0.005631354 -0.002525426 0.004792517 -0.0041298377 0.00084809994 -0.0051744883 0.0051566362 0.007569955 -0.009073437 -0.005472327 0.0027705457 0.00053058116 -0.0012681382 0.003329956 -0.0016400443 -0.0020737704 -0.0007686562 -0.002490143 -0.002815262 -0.0047333944 0.00075112906 0.0066759815 -0.008975932 0.0006829989 0.0045657647 -0.00044626696 0.008925887 0.0049344776 -0.0042603402 -0.004864146 0.00071927236 0.0005605786
data -0.008496132 -0.0038427904 0.005644092 -0.0014185455 0.006810778 0.0007253962 0.0009428438 -0.00019702577 0.0040656365 0.002764782 1.457496e-05 -0.005303118 -0.004226899 0.005782069 0.0038860969 -0.000118241536 0.005902155 0.00060496514 0.00060751627 -0.0029247673 0.003940031 -0.0015145399 0.008074816 -0.003297287 0.003610003 -0.0045032203 0.004493354 -0.00024697778 0.0046773064 -0.0010470309 -0.00079104287 0.0063681863 4.148136e-05 0.003424999 -0.0009535318 -0.0061018653 0.001942528 -0.008972092 -0.0037316044 0.0037661977 0.0007691709 0.0016117137 -0.0024556462 -0.01001284 0.012749059 0.0030963356 0.00030010458 -0.00590022 -0.0026235941 -0.0056395745 -0.0030533925 0.0030232521 0.0017857963 0.0033896565 0.0045000287 -0.0027168752 -0.0044887913 -0.009249971 0.0063770656 -0.0047463104 0.003046444 -0.0007622906 -8.086473e-05 0.0034567574 0.0043423753 -0.002342806 0.0033005294 -0.0037622335 -0.005311108 -0.0016835196 0.0027342082 -0.0012042784 0.0044824616 -0.006600592 0.0020913011 0.0031664022 -0.002055614 -0.0050000288 -0.002379313 -0.006359363 -0.0029350435 -0.0011749075 -0.0031383417 -0.0057081673 0.0010363163 -0.00036142324 -0.0035411674 -0.00046136865 -0.0013960266 -0.0011602865 -0.009752776 -0.0055253115 -0.0028913494 -0.00319419 0.00853329 0.00074034545 -0.004132722 -0.0019300914 7.994916e-05 0.004328298
precision -0.0039198888 0.0015134953 -0.0020015554 -0.005209704 0.003121158 0.004031934 -0.002269344 0.0036001678 -0.0010663006 0.0039223293 -0.0012854708 0.0032021834 -0.00029700994 0.008884638 0.0034415028 -0.00051026273 -0.0027444588 3.843507e-05 0.004065367 -0.0011314062 -0.0006541214 -0.0005409324 0.0029985067 -0.00025039882 0.0041782395 0.0018452007 -0.00073830324 0.0035090768 0.0052489797 0.007260858 0.00025102706 0.002134868 -0.0009648794 0.0033765796 0.004763033 -0.0019957982 -0.0028480273 -0.007252378 -0.0058421544 -0.0024089348 0.0019166744 -0.0018211359 0.0028366519 -0.001842004 0.012391692 0.0033652154 -0.00035278648 0.00017354592 -0.0008019942 -0.00250001 -0.0033785861 0.0015429396 0.00044414337 -0.0012179855 0.0005950971 0.0033355928 -0.0012524783 -0.009119528 0.00032033314 -0.0008765409 0.0035075594 0.0002670191 -0.004221311 0.0063772895 0.005632199 -0.0055532055 -0.0016382876 -0.003793368 -0.007955253 -0.000595943 -0.0020789376 0.0013160873 0.0028945557 -0.01090725 0.0031448714 0.0066607455 -0.010177071 -0.006496409 0.0060034953 -0.00430021 -0.006886336 0.0024303726 0.0039086915 -0.010593908 -0.003297253 -0.0053208824 0.0022229508 -0.00011506342 -0.0050997618 0.0030147734 -0.010116393 2.0007967e-05 -0.0034470882 0.0017483424 0.0048154076 0.00308303 -0.006480083 0.002735921 0.001669906 0.006245605
process -0.00036219554 -0.0058868285 0.0031944287 0.0015777869 0.0029912398 -0.0016532248 -0.0015913071 -0.0026902873 0.002271583 -0.001953699 -0.004097303 0.0012474513 -0.0027162323 -0.00038801084 0.004024453 0.000106885374 -0.0009985458 -0.0011208693 -0.002227924 0.0029605553 0.005804093 -0.00025148373 0.0011456999 -0.0007970654 0.0006111743 -0.0016435402 0.0048576915 0.0012816485 -0.0010780861 0.0033006093 0.0030032033 0.00102232 0.00227648 0.0004994102 0.0033320508 0.00069898006 0.0016833096 -0.00021134477 0.0015266434 -0.0041034212 -0.0027003495 0.004001443 -0.002038738 -0.0021884134 0.00090616714 0.0012139773 -0.002800008 0.00044207805 -0.0015678933 -0.00095474033 0.0006559398 0.0022977672 0.0001489662 0.0035254178 -0.0021783826 -0.005098553 0.0021102342 -0.008948208 0.006481895 -0.002376631 0.0014069008 0.005559431 0.004453633 -0.0006017032 -0.00029427893 -0.0055440287 -0.003882905 -0.0040737875 -0.005291835 -0.002263748 0.0025806872 -0.0042589186 0.007051697 -0.0029841168 0.0022078909 0.001008449 0.0010108964 0.00041614982 0.003945469 -0.0005488312 -0.003346476 -0.004160423 0.0011873153 -0.005778545 -8.105034e-05 -0.00048980396 -0.004211608 0.0029073097 -0.003597843 0.0018108296 -0.00045402467 0.00085544726 0.00406389 0.0036630784 0.0029997067 0.0036529 -0.0048734783 -0.0023494202 -0.0044889944 0.0032345504
fruits -0.007913872 0.0015329493 0.0040716757 0.0007050442 0.005734355 -0.0045972574 -0.0029740157 0.0031531695 0.00027613048 0.0050541395 -0.0034232265 -0.0052630305 -0.0021171065 0.00398228 0.0058892774 -0.0003407321 -0.0031119594 -0.00723961 -0.004257176 0.00404431 0.0062295063 0.00011978598 0.0019302511 -0.0057312283 0.009272693 0.003104872 0.0020310578 0.0051317164 0.004373325 0.0057639657 -0.003569583 0.00263606 -0.00017276077 -0.0002003333 0.0028413972 -0.004548365 -0.006595101 -0.0033297138 -0.0062593063 -0.0038423995 -0.0023557825 4.1079653e-05 -0.0031997075 -0.010054641 0.0060448125 -0.0057437248 -0.0024838864 0.0005607729 -0.0027881505 -0.0028037536 -0.010395373 0.0011243735 0.003778827 0.004046406 0.0055098007 0.0017361789 -0.004108388 -0.008761416 0.0023135613 -0.0023124595 -0.0008961389 -0.0032000698 0.0006470223 0.003994435 0.0054514045 -0.0033795065 0.0041886847 -0.0028174769 -0.009288306 -0.004326019 -0.0020770347 -0.005344033 0.0019539502 -0.0027810333 0.006114885 0.007542555 -0.0016247411 -0.006752109 0.00017459455 0.00055123115 -0.0025627846 0.00065464916 0.00042880446 -0.0043474003 -0.005602627 -0.0055325204 -0.0021446515 -0.0037011022 0.0002219272 0.005714652 -0.010422896 -0.002416288 0.0010050146 -0.002257935 0.00434728 0.0046592806 -0.0011245096 0.0023042432 -0.004542378 0.0076135043
used 0.00013797518 0.0010097825 0.002641149 0.0022002726 0.0061598853 0.00371931 0.0007319818 0.0019633465 0.0069531063 -0.0012517314 0.0005407724 -0.002387028 -0.005831245 -0.0011279323 0.0018092364 0.0015780932 0.002466456 -0.0061249523 0.0023696115 0.0027326485 -0.00027669268 0.0016198301 -7.589281e-05 0.002696586 0.007072916 0.0017026463 0.0025967797 0.007797311 -0.0032397693 0.006750027 -0.001561014 0.0050542117 0.0011075974 0.003099552 0.0015788806 0.0018806406 0.0003324068 -0.00052992324 -0.005876199 0.0039085285 0.004857017 -0.0041063544 -0.0032453765 -0.0032680375 0.009494581 -0.00281236 -0.0027971256 -0.0029663905 -0.002865112 -0.0063409326 -0.0003338932 -0.0048408303 0.0005681459 0.0049122097 -0.00047686615 0.0026694972 0.004029281 -0.005548387 0.0027660953 -0.008157283 0.0029472648 0.0006926448 0.0029485552 -0.0022934098 0.0049812505 -0.00198616 0.0011155951 0.0036965488 -0.0016819588 -0.0062603303 -0.001523437 -0.0072965194 0.0028247396 -0.007946085 -0.0016936634 -0.0001715085 -0.0066186422 0.00051839143 -0.0014205143 0.0016098983 -0.00042720867 -0.0034448502 -0.0039147544 -0.0053755012 0.0012639848 -0.005025176 -0.00056960766 0.0038429974 0.0009702963 0.0044533475 -0.005375553 -0.0077020684 -0.0012841611 -0.0024868948 0.005344152 0.008496813 -0.0031422717 -0.0044888537 0.00089881127 -0.00012636297
current 0.0016125985 0.0028539926 0.0059488225 -0.0037619185 0.0050501153 0.0013593847 -0.0017344173 0.0043758787 0.0014243701 0.0027236603 -0.0028882774 0.0017634241 -0.0008688565 0.004461498 0.0021765498 -0.0018642026 3.1988618e-06 -0.006264028 0.00048774987 -0.00235545 0.0016462817 -0.0026619136 0.0028138275 0.0004528694 0.006008303 -0.0007861246 -0.0013239551 -0.00093224837 -5.056686e-05 0.004925587 -0.0007072401 0.006272693 0.0041208053 -0.0059142113 0.006060524 0.0005501558 -0.0043387823 -0.001961416 -0.0071807797 -0.00239323 2.9181248e-05 -0.00046399934 0.0037620738 0.0009793033 0.0049448987 -0.005388744 0.0002563684 -0.004418543 0.0021568297 -0.0036516811 -0.0029163554 0.0019551418 0.0057839323 0.0054641357 0.0033512607 -0.0024727848 -0.0019941758 -0.0026557276 0.004002033 0.00021547487 -0.0013997665 0.0033782779 0.0016343588 0.0053290045 0.0030212945 0.00107636 -0.002459431 -0.0015912803 -0.0073330337 -0.002350811 -0.0019961149 -0.0016505129 0.006179554 -0.007637906 -0.0007574066 -0.00064093 0.0013490537 0.0020347736 0.00063923764 -0.0042917514 -0.00021561577 -0.0003721366 0.0023998155 -0.0070948307 -0.0042817923 0.0018374537 0.0039641308 0.0029106492 -0.0023425885 0.0044602854 -0.009486841 -0.002661083 0.0047214655 0.0035814014 0.008014585 0.0044273846 -0.000705961 -0.005966391 -0.005763199 0.0032316989
its 0.0011142322 -0.00284317 -0.0031836976 -0.0024574033 0.0048732115 0.0014227419 -0.001571923 0.0056206407 0.0040303343 0.006032332 -0.0016121883 -0.0013105312 -0.004356417 0.005256279 -0.0023550803 -0.0030444697 0.0019378955 0.0013457248 0.0046870024 -0.0021738266 0.003561121 0.002121562 0.0024527619 0.000778446 0.0060775955 -0.0032788063 -0.0004394995 0.0031290564 0.0026907357 0.006898528 -0.005679391 0.0014264697 0.0012673212 -0.0046439474 -0.0009833146 0.0007847442 -0.0060226535 -0.001643159 -0.0009528421 0.0038836508 -0.004128293 0.003070861 0.00146354 -0.005888927 0.010255064 0.0033819256 -0.00054496655 -0.004552679 0.0026642296 -0.0031743657 -0.0019494123 -0.0040379874 0.0037039265 0.0062671388 0.004039678 -0.0032324574 -0.0009717655 -0.0009234942 0.007875634 -0.0070413365 -0.0011020475 0.0051734713 0.0025219063 -0.0014786781 0.0010492888 -0.0016622875 0.0035788962 -8.37692e-05 -0.002660635 -0.0050818995 0.0023539737 0.00026941276 -0.0015049607 -0.0059410436 0.004493997 0.0012708047 -0.0044447267 0.0019491152 0.004145543 -0.0016492398 -0.005020614 -0.002963186 0.0036694936 -0.010064695 -0.0020567456 -0.00061517843 -0.0009802423 -0.002263738 0.0007693164 0.0038020401 -0.01012912 -0.0020783837 -0.0015756444 -0.0019197727 0.00635343 0.007822198 -0.0012692654 -0.0037446646 0.00083184935 -0.0008311746
required -0.0078231655 0.0026240037 -0.0003142348 -0.0044641583 0.002915725 -0.0023899137 -0.001017553 -0.0022291478 0.0033525159 -0.00056668126 -0.00027934738 -0.002964597 -0.0029931925 0.007502078 0.0058183772 0.0043967315 0.00027249986 -0.0046010306 -0.0035682225 -0.0016885577 -0.0018424406 -0.004537303 0.00687381 -0.0047939504 0.005916882 0.0008903333 0.0066660396 0.008155499 -0.0007226834 0.0029887347 -0.0006256775 0.005307009 -0.0029196925 -0.0007820517 0.000857473 -0.0032418307 -0.004024602 -0.0036891059 -0.0038644848 -0.0030367519 0.002254351 0.004274712 -0.0012717637 -0.00034591288 0.0038960937 0.0014390895 -0.00053583056 -0.0033956084 0.002705064 -0.0037439493 -0.0036188376 0.003049378 -0.00011064577 0.0061154743 0.002281815 0.0012054497 0.0039764484 -0.007554521 0.0034948324 -0.005575831 -0.0019974401 0.0029150846 -0.0023437887 0.00490808 -6.687862e-05 -0.0047507766 0.0028694884 0.00068380777 -0.001174217 -0.00068035675 -0.0007441638 0.0013684502 0.0040432964 -0.00030704102 -0.001303043 0.0064771455 -0.0025158697 -0.0007283883 -0.0023456998 -1.9731006e-05 -0.00092749996 -0.0051603145 -0.0016101833 -0.0013656131 -0.0058746147 0.0007105377 -0.00064801134 0.0029228271 0.0024000416 0.0068335366 -0.004011005 -0.0041923234 0.0025125383 -0.0035685713 0.005053107 0.008224943 -0.00366545 0.001039962 -0.003177782 0.007696756
under -0.0034916932 -0.0018758496 0.0006437852 0.0015136759 0.0055434955 -0.0010655635 -0.0001927263 0.0020895414 0.006657757 0.0019597348 -0.0041600377 0.00021926439 -0.005703822 0.0051254453 -0.0015156433 0.0021346796 0.0048563285 0.00037565376 -1.8479888e-05 0.004943273 0.005150008 0.0044371933 0.008063671 -0.0049378136 0.00529671 -0.0045824894 0.0028124547 0.005841273 0.004806863 0.007770156 -0.006335912 0.0055975965 0.0035950597 -5.871482e-05 -0.0009898739 -0.0014677139 -0.00037992804 -0.007122427 0.0005482355 0.0060243383 0.002603094 0.0041463394 -0.0021958149 -0.004745899 0.006711619 0.0029002193 0.0001530345 0.0011440215 -0.0031618732 -0.004827851 -0.01068729 -0.00066139945 -0.00021677693 0.0071075945 0.0046229586 -0.0055090277 0.0019980606 -0.006077963 0.0030595367 -0.007826176 0.002908383 -0.0017565691 0.001641032 -0.0015813974 -0.00065264513 -0.0013899358 0.006196406 -0.006301641 -0.011122801 -0.0029922088 -0.0032905506 -0.008224986 0.00031675596 -0.011734977 0.0075283023 0.0014550365 -0.008640848 0.00050447223 0.00030440514 -0.0059379437 -0.0031101746 -0.0034099657 0.00264478 -0.012246679 -0.0077338596 -0.0022196134 -0.006051592 -0.0048065013 -0.004775024 0.0018555232 -0.00901252 7.190187e-05 -0.0024373732 0.0029264211 0.0025470755 0.0081191305 -0.0052422793 -0.005821427 -0.0035000227 0.0056977198
fields -0.0028514273 0.0012848247 -0.00018129773 -0.0017695101 0.006396265 0.0016008407 -0.002705608 0.002839702 0.000773745 -0.0024550967 -0.0068278722 -0.00074873614 -0.00015533037 0.003784788 -0.0025674314 0.00037335893 -0.0015843683 -0.003436505 -0.0023997235 0.002924376 -0.0032697627 0.0036568195 -0.00086291286 -0.0026025823 0.0006510211 0.00028803042 -0.0027404495 -0.0012123664 -0.0040722424 -0.00075596856 0.004241772 -0.0002050968 -0.005182541 -0.0021609983 0.0021481968 -0.0035680954 0.0027354795 -0.0061772456 -0.0036729665 0.0041438425 -0.002962862 0.0012154831 -0.0010303061 0.0008909073 0.0030410534 -0.0044618114 -0.001188438 -0.0035251926 0.0031908352 0.00027809924 -0.001585131 -0.0038504351 -0.0013918609 -0.0034921714 0.0007582048 -0.0046336213 0.0040839263 -0.0025968705 -0.0014233022 -0.0058922293 -0.0008373062 0.0003044415 -0.0021916397 -0.00037931697 0.0037325048 -0.0060848524 -0.003117616 -0.005229309 -0.00035527858 2.849889e-05 -0.0039471216 -0.005102382 0.0056646373 -0.0067721624 0.0033934293 0.0024089976 -0.0024855165 -0.0024438272 0.0019573641 -0.0054533836 -0.0008588562 -0.0035939307 0.005222573 -0.0061220303 -0.0025252053 -0.0024295761 -0.0033129386 -0.002471461 -0.002347219 0.0036521417 -0.002509524 0.0026123587 -0.0012833944 0.0035517386 0.00057693187 -0.00040547698 0.0011332328 0.0008607977 -0.0025376303 -0.002774885
such -0.002809385 -0.003281987 0.0037801538 -0.0051963115 0.0044164895 0.0015894913 0.0027572736 -0.002541245 0.0030712695 -6.893293e-06 -0.0056220694 0.0001964316 0.0017686065 0.0031216408 -0.00027454342 -0.004593703 0.003347757 -0.003296629 -0.0008901558 0.004735724 0.00076226366 0.003080896 0.0025208942 -0.0032714056 0.0031926532 0.003404823 0.00068353233 0.0032437616 -0.0024087958 -0.00036042972 0.0043294365 0.0032706226 -0.0012063056 0.0034001977 0.0026482057 -0.0018901464 -0.0013706372 -0.007061392 0.0022719789 -0.0035805416 -0.0002446982 -0.004679674 -0.0026053612 -0.0018381961 0.0046295314 0.0034668937 -0.002399635 -0.00048632812 0.0010718519 -0.0072921957 -0.006657307 -0.0022022778 -0.001621109 -0.0022249368 -0.000861878 -9.363511e-05 -0.0017467492 0.00067791843 0.0035431003 -0.006641627 0.0031774875 0.004256853 0.0006636477 -0.00048792636 0.0058592465 -0.001317851 0.0031406512 0.0023636639 -0.00089180446 -0.0010838892 0.0009844683 0.0020063086 -0.0020769702 -0.002718434 0.0019910184 -0.0010268951 -0.004748594 -0.0059289015 -0.0005951966 -0.0041206162 0.0023178055 0.0014406801 0.0049407645 -0.004919293 0.0017711525 -0.007008026 -0.005104492 -0.00037064962 0.0027026725 0.00014982707 -0.0059348377 0.00029501028 -0.0017598268 0.0025587562 0.0066783866 0.0033020892 -0.007345601 -0.0048311385 0.002739003 0.0006577621
as -0.0013836074 -0.0006268673 0.0023657652 0.0009936104 0.006012198 -0.0054323347 -0.0047007278 -0.00066309475 0.004648283 -0.0021320563 0.00153373 0.0015350756 -0.0041904277 0.007917957 0.0056823553 0.00028292643 -0.0034819525 0.0012179344 -0.004646957 0.0018076181 0.005927682 -0.0043008532 0.005407205 -0.005932553 0.0076355925 0.0008035714 0.0027877667 0.00747195 0.0039793653 -0.0021094878 -0.004586353 0.0043325466 -0.0028656616 -0.004924181 0.005484013 -0.0041260663 -0.005617272 -0.00017314398 -0.006090522 0.002193413 -0.0006819008 0.0021318963 0.004517412 -0.006804442 0.008836093 1.6222262e-05 -0.0052479175 0.0033675646 0.0016891374 -0.0060636727 -0.005071873 0.0019124394 0.0058200397 0.0021604074 0.0005586552 -0.0050376276 -0.00088508247 0.0002214722 0.007002338 -0.007702914 0.002435992 -0.002546227 0.00090822275 0.0056617428 0.0014233569 -0.005520777 0.0021421532 -0.0053410134 -0.0043860213 -0.007807339 0.0024070246 0.0015584459 0.0064821383 -0.007197379 -0.001122041 0.0066006132 0.00036037606 0.00037161942 0.0022985518 -0.0026543927 0.0015044577 -0.00396785 0.0005953037 -0.005938497 -0.004407775 -0.0028094342 0.0030330431 -6.199994e-05 -4.700644e-05 -0.0008532938 -0.00018822536 -0.003330064 -0.0032193188 -0.0016435046 0.008027074 0.0030829955 0.0009695641 -0.0014818737 -0.003943307 0.0007632599
orchards -0.008231178 -0.0057269637 0.006125517 0.002471122 0.007837902 0.0013143708 -0.0007190814 0.0024171898 0.00020763664 0.008100515 -0.004378809 0.0010060493 -0.0035731562 0.005822414 -0.002248375 0.0036755532 -0.00047306038 -0.0065894667 0.004320334 0.003143962 0.00077708485 0.0038267241 0.0046156044 -0.004019062 0.0021748936 -0.004359834 0.00666182 0.0075411936 0.001886401 -0.0019135027 -0.0009070669 -0.0006359794 -0.0026226384 0.0024325626 0.0007425599 -0.0001487053 -0.0012019253 -0.0003015838 -0.005620446 -0.003182189 -0.0016251854 0.0044258297 0.001866499 -0.0074558924 0.006393766 -0.0009227485 0.0027348765 -0.0056714253 -0.001189734 -0.005744453 -0.007388841 0.002037615 -0.0013247944 0.0060104984 0.003412076 0.0030075647 0.0007407872 -0.005091725 0.0015272262 -0.006158706 -0.0023098644 -0.0015035797 0.0019225852 0.007136655 0.006006712 0.000100978854 -9.308994e-05 -0.005119603 -0.0077223824 -0.0054907785 0.004730905 -0.006533218 0.0044252244 -0.001149308 -0.00042343387 0.0069987266 -0.0059063504 -0.007063224 0.004102016 0.0025626465 0.0013465404 0.0036267417 0.0013155151 -0.0060151797 -0.0019423096 -0.007274491 -0.005018843 0.0037309604 -0.0037896335 0.0032618574 -0.011143251 0.00036543963 0.0009683752 0.0028032688 0.0015084351 0.0015358796 -0.0038644325 -0.0035900283 0.002431179 0.004677799
significant -0.007488158 -0.004107738 -0.0010843368 -0.0066726 -0.00079933176 -0.001032631 -0.0035605966 -0.0023389105 0.0069216583 0.0066194194 0.0011766956 0.0044029104 0.00034724848 0.0038898194 0.0025653874 0.001018147 0.005579921 5.145712e-05 -0.0034198523 0.005517287 0.0040864376 0.0014864263 0.006589061 -0.0016881868 0.008471334 -0.0033890475 0.0033039649 0.0070975246 0.0044927998 0.006195957 -0.0048768222 -0.0010584622 0.0004391565 0.0007773498 0.0029139363 0.0012200016 -0.0030583462 -0.0044039306 -0.0031318117 -0.00030040566 0.0024861319 -0.0028838755 0.0017800193 -0.0072763176 0.0017541525 -0.006018716 -0.005424467 0.0010514319 0.0036765686 0.0003358595 -0.0009186606 -0.00016040416 0.0037214444 -0.0023862666 0.005910255 -0.002815323 0.0046028416 -0.00688425 0.0018559373 -0.0061332663 0.0001842601 0.00010849159 -0.0012378178 0.004895155 9.937101e-05 -0.0054424945 0.0026448984 -5.48896e-06 -0.0033663108 -0.0054822494 -0.00084059587 0.001290504 0.005354362 -0.0023613963 0.00018481063 0.0012477613 -0.0063764635 0.0024782044 0.00058853475 -0.0033948445 0.0013683 -0.0031944157 0.00013610476 -0.006046869 -0.0036102554 6.472834e-06 0.001902332 -5.2981366e-05 0.0028825426 -0.0024298527 -0.009384817 0.00095072476 0.002609219 -0.0023727652 -0.00096440053 0.006713222 -0.0077687744 -0.00020387945 -0.0015450441 0.0020535013
than 0.00015100748 -0.0005530424 0.0027269819 -0.006180925 0.004676204 -0.0006587049 -0.0030711181 -0.0024080551 0.0033186923 0.0022916936 0.000541533 -0.0023820542 0.0022410806 0.003706678 -0.0031839623 0.0008005302 -0.00096200814 -0.0011229598 0.002300636 -0.0018782539 0.003276321 0.00015507083 0.0007737149 -0.0065019857 0.0036603047 -0.0043098745 0.0077689323 0.00665156 -0.0040253387 0.0032805793 0.0015786521 0.0006394887 -0.0020718926 -0.002853015 0.005342338 0.00030741878 -0.0037710501 -0.0068685994 -0.0070444136 0.005079417 0.0045027374 0.00016817557 0.0048555634 -0.006295297 0.004488233 0.0028565568 -6.8416055e-05 -0.0014502562 -0.0007389979 -0.009129506 -0.008755129 -0.0013556118 -0.0035550636 0.005306006 0.0027023267 -0.0022935478 0.0019375498 -0.0039724135 0.0038812223 -0.006670111 0.0021919727 0.0014409211 0.0046470976 -0.0021688417 0.0019784046 -0.0045355693 0.0056758397 -0.0019539385 -0.009906784 -0.001481783 -0.0023537653 -0.004731921 0.007530912 -0.0028327908 0.0040283822 0.0059363088 -0.0068825 -0.006412954 -0.0014561797 -0.0012998702 -0.0035362528 -0.0014589435 -0.001791065 -0.008776791 -0.006759022 -0.0051983683 -0.0055075325 -0.0021577987 -0.0038758288 -0.0014940706 -0.004246343 0.002024018 0.0026168118 -0.0005901586 0.008913197 0.0045901276 -0.0012280842 0.0022585604 -0.0033919767 0.0014590573
images -0.007344302 0.0030366194 0.0062834523 0.0013763435 0.0031622997 -0.0032178191 0.0031600185 0.0017515529 0.0008549535 0.0015714609 -0.0034462593 0.0007421489 -0.004457591 0.0009376092 0.0040751286 0.004554645 0.0006790511 -0.0005441818 0.004475306 -0.0030968068 0.0060267677 0.003077461 0.0016355977 0.00093117025 0.005780643 0.0038603006 0.0026449102 0.0067045037 0.0013704449 0.0002700904 -0.00076040055 -4.387275e-05 -0.0047031147 -0.0058032307 0.0029782015 0.0007127488 -0.0033902735 -0.0046085115 -0.0011631685 -0.00073048635 0.0009535664 0.00010974901 -0.00025481707 -0.007188012 0.009705945 -0.0014657371 -0.0035913899 -0.00534787 -0.00176202 -0.005324743 -0.0046451157 -0.0028695627 0.004630982 0.003504357 -0.0026876144 -0.0018764398 6.9552356e-05 -0.00469214 0.0057223933 0.0017567654 0.0055323946 -0.0013450779 0.003127578 0.005386468 -0.000116379044 -0.003495322 0.0010333972 0.003797914 -0.0008171643 -0.0083308555 0.004691452 -0.004230323 0.0054177954 -0.005636533 0.00039461197 0.0029020594 -0.0069404934 -0.004539648 0.0024505458 0.0009035516 -0.0059458055 -0.0011627113 -0.0037201815 -0.0019535744 0.0013760462 0.0009041333 -0.0021409593 0.0032162734 -0.0016787793 0.0018958617 -0.0073094442 -0.006364534 -0.0037965337 -0.00088021375 0.0048078136 0.0066842753 -0.0029217321 0.0016453917 -0.003314319 0.005114013
deep -0.00037239768 -0.0009035162 0.0014290756 -0.004103228 0.0048429114 -0.0055690254 0.0021611291 0.0035555242 0.00407173 0.0013247668 -0.00483012 -0.0033331946 -0.005205692 0.0019325747 -0.0013287418 -0.00011017549 0.0041825334 -0.0030668436 0.0019651495 0.0011302786 -0.0018237367 0.0020070407 -0.0006990936 -0.0008904174 0.0019589243 -0.0042596217 0.0054980866 0.0049472544 -0.000946115 -0.00023700704 -0.0032667385 0.0020048448 -0.0005439375 -0.0057330895 0.0027849465 -0.0010638335 -0.0050595826 0.0017770244 -0.0047206986 0.0041660676 0.0043488587 -0.00029277554 -0.004010115 -0.0032596325 0.006704355 -0.00019069192 -0.0053219576 -0.005560564 0.0038012846 -0.0065907207 -0.0034128274 0.00043200603 0.0039865277 0.0004044232 0.0059822774 -3.7249512e-05 9.846974e-05 -0.0006933869 0.0053560333 0.0018450667 0.0024669832 -0.0011629926 0.004904404 0.004984843 -0.00023506605 0.0009251408 0.0034011314 0.001161832 -0.009554429 -0.001037167 0.0003328379 0.001487468 0.007161413 -0.0005871628 0.006732993 0.0039890152 -0.0034901446 0.002700167 0.0026667004 -0.0022092576 -0.0030451878 0.0011878475 0.0026423193 -0.0020074141 -0.0012220108 -0.004083277 -0.0020415755 -0.0016925044 0.004433061 -0.0022423277 -0.0060485224 -0.0072687813 0.0019608934 0.0018712012 0.0074073374 0.0075114802 -0.0021469714 0.0037877352 -0.005413151 -0.00041050106
has 0.000608071 -0.0047042863 0.0005876236 0.0012910068 0.0060902345 -0.0039431653 0.0028075813 0.0037489838 0.0033661153 0.0068981964 0.0012488401 -0.00019130817 -0.001794692 0.0030237823 0.0039868574 -0.0035220059 0.0032180415 -0.0067097815 -0.0036926453 -0.0013440239 0.0033743181 0.0029777188 0.008185637 0.0027723906 0.0071907816 -0.004674928 0.0060873707 0.004210816 0.0044713686 0.0044360575 0.0027071182 -0.0014707429 0.0027199276 -0.0033484753 0.0003637696 -0.0040800977 0.002550845 -7.9899575e-05 -0.004416213 0.004840254 0.00048821847 0.0040845643 0.0003908995 -0.0024049673 0.008670409 0.00063280156 -0.0010781287 -0.00026315643 0.00252462 -0.0054821307 -0.005636217 -0.0037263578 0.006037067 0.0060142763 0.0051366105 -0.0007485967 -0.0027562608 -0.010126404 0.004500708 -0.0019457106 0.0048553008 -0.0033071006 -0.0027241767 0.00045511159 0.0049086367 -0.005566936 0.005824192 -0.004702343 -0.0039821486 -0.0063980455 0.0046275896 0.0012346769 0.008183495 -4.884456e-05 0.00074883335 0.0044056387 -0.002873348 -0.006649693 0.0062573925 -0.005322589 0.0019906803 -0.00028558596 0.0020786948 -0.0074272407 -0.0004142365 -0.00777631 -0.0038915128 0.0020605274 -0.0033119393 0.00710456 -0.010017239 -0.0076821377 -0.00057496 -0.000986524 0.0018225153 0.003099537 -0.000840688 -0.0037723917 0.0023792712 0.003073884
with -0.0074811624 -0.00257152 -0.002241946 0.001758436 0.003253594 0.00093538506 -0.0009939204 -0.0025639492 0.0015511694 0.003354145 -0.005024798 -0.002912802 -0.00088084216 -0.00022253906 0.004256295 -0.0044819494 0.004096793 -0.0017890236 0.0049439715 0.0023102649 0.0011752163 0.0024292788 0.0073517566 0.003460377 0.0037097458 -0.0023913009 0.0018464248 -0.001249734 -0.002476651 0.001584679 -0.0018689462 0.0043033645 0.0037101384 -0.002430723 0.0052579744 -0.0003394847 -0.001437607 -0.0024618453 -0.0037938037 0.0037476749 -0.0029223375 -0.0049662404 0.0017964013 -0.0077138543 0.0006914883 0.0008922919 -0.0045871814 0.0033041965 -0.0056625498 -0.0056102765 -0.0017269934 -0.0036683888 -0.0014548058 0.0027548072 0.004170436 -0.0033872027 -0.003777211 -0.008520016 0.0011915732 -0.0015322533 0.004205979 -0.0027831902 0.0024703802 -0.0006855699 0.006130424 -0.0008106847 -0.0040658317 0.0031413105 -0.0033130143 0.0016195631 -0.0029137412 -0.0034601844 0.0065022577 -0.009164622 0.0058508674 0.0045498796 -0.003314919 -0.005756975 0.0035105092 0.003595467 -0.0025106326 0.0006415714 0.0022410061 -0.008164446 -0.0030800905 -0.0014560862 0.0035364851 -0.0027283686 -0.005199349 0.0030719137 -0.0014893742 -0.0020085142 0.0036481125 0.0037195454 0.0034921798 -0.000121861776 -0.0025626272 -0.004747112 -0.0026789238 -0.0017698662
developed -0.0061067836 -0.0011595797 0.0008695234 0.0010496972 0.003775919 -0.0017181805 0.0044948165 0.0045780228 -0.002045083 0.0003184669 -0.0006348258 -0.00094832416 -0.0061479006 -0.0007983648 -0.0006214645 -0.0010896919 0.005002608 -0.0015971829 -0.0007029986 0.0037202775 -0.0015960662 0.005088387 0.0026968287 0.0026932312 0.005052118 0.0020865323 0.0030862456 0.00088360324 0.0011528935 -0.0030179804 0.002287188 -0.0023701706 -0.0017515192 -0.001978272 -0.0031342045 0.0019560403 0.001095785 0.0004638846 -0.00601761 0.0056158644 0.0012088377 0.004677766 0.0007856183 -0.00043809047 0.00645346 -0.006105078 -0.0050153728 -0.00082477025 -0.0023351654 -0.0054138904 -0.0039980398 0.0015551822 -0.00019952928 -0.0007639725 0.0036794157 -0.0015938382 0.0041943546 -0.0014198335 -0.00031539236 -0.004483943 7.370512e-05 0.0051577813 -0.0029298796 -0.0017622145 0.0010372803 -0.0055853166 -0.0030334957 -0.0017677413 -0.008616472 0.0013342791 -0.004048584 0.0012026731 0.0044866237 -0.0036343667 0.0019335605 0.0051904614 0.0011085321 -0.007133163 -0.0037227352 -0.004576661 -0.0042018937 -0.001812423 0.0035370782 -0.009684808 0.0012993487 -0.006620656 0.0022892705 -0.0014328605 0.0029094245 0.0028727627 -0.0032036365 -0.0034891297 0.0048618196 -0.0035903289 0.005370022 0.0038063426 -0.0023745736 -0.002969413 0.0032144284 0.00222623
vision -0.0072517856 -0.003107716 0.002973586 0.0015279009 -0.0009330564 -0.0024476012 0.0040890374 -0.002461029 0.004047501 0.00020941038 -0.0067883735 0.00033809774 -0.00044283143 0.0042016557 -0.003540242 -0.00010219567 0.001851255 -0.0027472072 0.0033250009 0.004553251 -0.0031150563 -0.0005535769 0.00617724 -0.0045606 0.0060494645 0.00034159585 0.0017630896 0.000111992566 0.0010038768 0.0023660758 0.0029839934 0.0030074196 -0.001953387 -0.003658579 0.0011717756 -0.002320516 -0.0018615851 0.001137273 -7.754539e-05 -0.0017166912 0.002160192 -0.0044972585 -0.0021761265 -0.0067185303 0.008795821 -0.00021882524 -0.00013841287 -0.0044682594 0.004118199 -0.008206218 -0.007565255 0.00041924638 0.0048420215 0.0030299926 -0.0004181207 -0.0019994474 -0.002169422 -0.0011303839 -0.0006315488 -0.0050958144 0.0049028383 -0.0016613994 0.0016348173 0.0027602736 0.0018601666 0.0012631686 -0.0014626164 0.0021459025 -0.0042308783 -0.004402029 -0.0045030443 -0.0055072056 0.00080226874 -0.006362607 0.0013601286 -0.00013335934 -0.0059067514 -0.0021173244 0.004135633 -0.0004883541 -0.00023056213 -0.001063229 0.0031440598 -0.007944702 0.003539314 -0.0022936156 -0.0032261927 0.0021055466 -0.002810319 -0.0033674294 -0.007596259 -0.003071318 -0.0030836219 0.0011893938 0.003280383 0.0040028673 -0.0077538774 -0.003100172 -0.00028566804 -0.0026219147
we -0.0026077256 -0.0032286618 0.0030129405 -0.005856511 0.004778121 0.0017318637 0.004069644 0.0047809063 0.0034900545 -0.00018849054 0.0011432775 0.0045141075 0.0034969551 0.0064733545 -0.0014590911 -0.0037271194 0.0042118724 0.00051678956 0.0007594788 -0.003257681 -0.00072548824 0.0036321701 0.002713708 -0.002653157 0.0055905916 -0.0048964615 0.0011583675 -0.0010560998 -0.0029485417 0.005614788 -0.0030174972 0.00050231087 -0.0017358436 -0.00082264707 0.0029701334 0.0012317563 -0.001211482 -0.0028244026 -0.0030233925 0.004775011 0.004830583 -0.0020500391 0.0044377954 -0.0062118922 0.006557341 -0.0010648106 0.0012977195 0.0012653223 -0.0032827894 -0.0014930982 -0.0054312027 -0.0006204269 0.0036561503 0.0019800253 -0.002654664 0.0005577317 -0.0015839565 -0.00027491897 0.0052026683 -0.0035865433 0.004725274 -0.00052636774 -0.0022943097 0.0059073563 0.001334263 0.0024699727 0.00558099 -0.0029254362 -0.0030942378 -0.006405489 -0.000141495 -0.0006453404 0.004388102 -0.0042542936 -0.0019113948 0.005106218 -0.0066223247 -0.004727815 0.0058056186 -0.0017532293 0.00077376637 -0.0042981138 0.005328297 -0.0059416182 -0.003546576 -0.0049301544 0.0022814581 -0.004042017 -0.0017604571 0.002894416 -0.00954506 -0.0026223431 0.004454838 0.0017412512 0.007980303 0.00516168 -0.004468941 0.0012440768 0.0025575773 0.0013862719
estimation 0.0013956595 -0.004791311 0.0035661012 0.002895324 -6.0140417e-05 0.0026931148 0.004491294 -0.0010363596 -0.00027074644 0.0060622105 -0.0053633614 -0.0038943803 -0.002677774 0.0010301906 -0.0023334 -4.8483424e-05 1.9276282e-05 -0.0036203547 0.00014147158 0.00058820477 0.005108744 -0.0027437177 -0.00038454513 0.0026153983 0.0007229771 0.004265224 -0.0016533743 0.0056035616 0.0050372016 -3.4087483e-05 -0.0010201961 -0.00026381292 0.0037159612 -0.0041912957 -0.0032750943 7.2435374e-05 -0.0034770328 -0.0018838467 -0.0023115799 0.0016664697 4.0645544e-05 -0.0029673784 -7.608422e-05 0.0009090519 0.007468793 0.0025592172 -0.0019867201 0.0009251782 -0.002690855 -0.0061947913 0.001113498 -0.0018529597 0.0012210404 0.00015156927 0.00023909943 0.003984264 0.00087881694 0.0011904852 0.005742302 -0.006332727 0.0005904631 0.00014368014 0.0040037986 0.0061664027 0.001127363 0.0022835776 -0.0036162601 -0.00288511 -0.00066521845 -0.004460154 0.003166278 -0.004516429 0.0074430048 -0.008262075 -0.002460969 0.005937899 -0.007949367 -0.0012704459 -0.000719249 -0.0034678397 -0.0013443575 -0.00054246146 0.0036325876 0.00035784038 -0.00393499 -0.006236365 -0.0012020124 0.00457015 0.0038696735 0.0054679723 -0.004674906 0.0010335905 4.2345484e-05 -0.004303805 0.0017192735 -0.00044266696 -0.003420733 -0.0035193423 0.0004911322 -0.0016212799
or -0.0016817892 0.00028982837 -0.00074154494 -0.0043657087 0.004300397 0.0021852278 -0.0003521389 0.003789036 0.0025857082 0.0024512785 -0.006834741 -0.002426244 0.0020345447 0.0030730518 -0.0015363302 0.0048531247 0.003386949 -0.005535732 -8.88434e-05 -0.00042871118 0.004664488 -0.0024365466 0.00889461 0.0034064418 0.0066581494 0.0021464403 0.0033296754 0.0025024423 0.0027784677 0.0046119913 -0.0055761635 0.0081397975 0.0010103752 -0.0016991529 0.0035091336 0.003843071 -0.0052262773 -0.005530268 0.0008133201 0.0016120446 -0.0024507062 0.00209219 0.003052874 -0.005523187 0.006211719 0.0020196976 0.0011476796 -0.004411435 0.0014046284 -0.006624538 -0.0034212414 -0.00063472084 -0.0033805063 0.0067599257 -0.0008249203 -0.004407834 0.0032253105 -0.004736197 -0.000117699776 -0.007153601 0.002275681 -0.0033806267 0.0044098482 0.0042170775 -0.0011307938 -0.0070536295 -0.0032949916 0.002113925 -0.0079199355 0.000522705 -0.0030702068 -0.0020573281 0.001969171 -0.004049219 -0.0002926806 0.0064041065 -0.0075460337 -1.6079373e-05 -0.0011626756 -0.0014485073 -0.00035829414 -0.0032382696 0.0023842778 -0.006306967 -0.0012872407 -0.0036807824 -0.0005930852 -0.0029323192 -0.0048319018 -0.0022384655 -0.0082695 -0.007309696 -0.0003180725 -0.0043713464 0.0070676575 0.0033007052 -0.008561474 0.0026406124 -0.0057184207 -0.00019359212
it 0.0013439644 -0.0041696047 0.0014570846 -0.0005482571 0.0024456445 -0.002678289 -0.0038125555 -0.003292012 -0.0029309266 0.0057289866 -0.00030965067 -4.0144292e-05 0.0022472453 -0.0024337259 -0.0008395077 0.00072353333 0.0047134887 -0.00555667 -0.003208658 -0.00086570554 0.0012316587 -0.0037908517 0.0018556898 0.0013745995 -0.0006122978 -0.0013372794 -0.0008460773 -0.00069385604 0.0024700745 -0.0008886024 -0.0013702988 -0.0018405742 -0.0030093666 0.0008507416 -0.0017405618 -0.001845303 0.0035029238 -0.005986274 -0.001005726 0.0030956534 -0.0022265343 0.0036815228 0.0010238417 -0.0065419544 0.00028885156 -0.0034489904 -0.00512962 0.002118057 0.0043405676 -0.0055218604 -0.0057975897 0.00089746393 0.0049440833 0.001859981 0.002591802 -0.002269371 -0.0041019185 -0.0048961667 0.0024962064 -0.006013468 -0.000113360155 -0.003831555 -0.0022477114 -0.0025768597 0.0056051663 0.00057116913 -0.0029796674 0.004013601 -0.0060746083 -0.0065884707 -0.0045685023 0.00024294567 0.0040865103 -0.002079837 0.005393577 -0.0022806323 -0.00012691588 -0.0016601329 0.00244005 -0.004116951 -0.0051170117 -0.0047865654 0.0017722477 -0.0056011155 0.00029148086 -0.002879664 -0.0020026579 -0.0027866948 0.0030256906 0.0057775714 -0.0052183806 -0.0023604194 -0.0006968141 -0.0047498946 0.006915076 0.0020475786 -0.0014922061 -0.0026265688 -0.00029622167 0.00053702714
synthetic -0.00804741 0.0017863519 -0.0019612485 -0.0013113185 0.0025581738 -0.004190773 -0.0022404508 -0.0006017669 0.0030613306 0.004810151 -0.0060082073 0.0023785327 -0.0052383495 0.0054836473 -0.00040330857 0.002203933 0.002439428 0.0018805881 0.0013447418 0.003453688 0.0026447573 0.0009487851 0.0008990039 0.0018774603 0.0045155194 -0.0021093264 0.0037353514 0.002120177 0.0029668245 0.003222011 0.0007929318 0.0054966095 -0.004628554 -0.0022291085 -0.0007805046 -0.003317632 -0.00278182 -0.0068180272 -0.0030375095 0.001507626 0.0027366888 0.0015739914 -0.0019716886 7.520629e-05 0.004212783 -0.0020602467 0.0029338852 -0.0014843174 -0.0032750485 -0.008999999 -0.008763598 0.00219712 -0.003531804 0.0012079729 0.00058139703 -0.0033693505 -0.003992919 -0.0014854973 0.0051633683 -0.0010982461 0.0013948677 0.0011711827 -0.0031443962 0.0050842823 0.0026274037 -0.0020620173 0.0056482824 -0.005749347 -0.009281904 -0.0038237728 0.001973973 0.0013857634 0.0081948675 -0.007962791 0.006713541 0.005097162 -0.0061971024 -0.0017579063 -0.0034737636 -0.0051004877 -0.0033202022 -0.003044011 -0.0012026015 -0.0018267893 -0.0042927656 -0.0061209337 -0.002607118 0.0021019601 -0.00442145 0.0048424914 -0.0023749317 -0.0021469202 0.0020802075 -0.005080772 0.0035098963 0.006614265 -0.007853452 -0.003437111 0.0035168584 0.0038108185
genome 0.0020781877 -0.0038459413 0.0022931583 0.0026524572 0.00093741895 -0.00072156935 -0.0007420129 -0.0002872276 0.0032711953 -0.000515808 0.00034084177 0.004048129 -0.004840901 0.007039424 0.0014251097 0.0008640592 0.0036661057 -0.0021754901 -0.0035265223 0.0040681898 0.0010340879 -0.00090078614 0.0053204303 0.003400137 0.00028789492 -0.0027327554 0.0024636385 -0.0006852568 -0.0022026973 0.00024968272 -0.0046095573 0.0071931384 -0.0019568966 0.00027147285 0.0033002116 0.00088421337 -0.005342516 -0.007500678 -0.0029721512 0.0018250465 0.0018315612 0.0040266495 0.004361399 -0.008345241 0.010286833 -0.0022897318 -0.003918275 0.0025005594 0.003052716 -0.0079186605 -0.0020717715 2.3387889e-05 0.0053698076 0.0033184905 0.00040607635 0.0010134245 0.0009821003 -0.0037832367 -0.0010994114 -0.00358578 0.0013154583 -0.00014276034 -0.0015619601 0.005892823 0.0009824241 -5.644863e-05 0.00015397681 -0.003995813 -0.0057146423 -0.0038779515 0.0019188975 -0.0037872705 0.007931241 -0.004290979 0.00082504837 0.0035228995 -0.0022677889 -0.0010634469 0.0041756313 0.0020446414 0.0023007721 0.0015797917 -0.0025363741 -0.003591177 -0.0012469002 -0.002353186 0.0003147507 0.00036362163 -0.0017028006 0.0012345013 -0.008010184 0.0023637416 -0.0031499157 -0.0032351052 0.0046275235 0.0061188815 -0.0035747534 0.0008426062 -0.0006325775 0.0043453765
editing -0.004413317 0.0034250233 0.0050708493 -0.0029182862 -0.0021052945 0.0006198128 0.00027696116 0.0019514272 0.0022321157 0.0015298049 -0.0052009667 0.003710775 -0.005910837 0.0050977534 0.005094536 0.003928313 0.00056916417 0.0009760004 -0.0020314427 0.0029495477 -0.0030420169 0.0020242566 0.0029956633 -0.0028129776 0.0056802207 0.0003166327 0.0041565318 0.0056336354 -0.0039674523 -0.0017470805 -0.0052611697 0.0024805542 0.0007844266 -0.00298468 0.0049402965 0.0028133618 -0.0036654137 -0.005898709 -0.0047123004 0.0006068222 -0.002563458 -0.0049775103 0.0018420942 0.0007325341 0.010953322 -0.0057519414 -0.0007609045 -0.0023625055 -0.0013778247 -0.006756144 -0.009630502 -0.0010522961 0.0010904355 -0.0011935524 0.0035551449 -0.003692346 0.001464659 -0.009428762 0.0031249358 -0.005253817 -0.0040503233 0.0018582663 -0.0019214364 0.0026711114 6.2859663e-06 -0.0022798963 -0.00017118089 -0.0033328452 -0.008931983 -0.008878795 -0.004831455 0.0013529366 -0.00084753975 -0.0063363686 -0.00069959764 0.00046841416 -0.0037071877 -0.0005047535 0.004210801 -0.00575523 -0.005466067 -0.0039151483 -0.0024076276 -0.0047362163 -0.0032284353 -0.0023914203 -0.0011825797 0.0016254212 0.0026493743 -0.0010252307 -0.0026248158 -0.0037773768 0.003796454 0.0028557137 0.004646385 0.0059949737 -0.0064671454 0.0027903814 -0.0025715122 0.006946014
crop -0.0028290013 -0.0049861926 -0.0026961516 -0.0038510747 0.0014170527 0.0032459064 0.0041713165 0.002258986 0.0031743883 0.0023722835 -0.005009962 -0.003863102 -0.0018476206 -0.00077200716 -0.0016863947 0.0012746068 0.0028225572 -0.0051343627 0.0046676574 0.0032676663 0.0020462188 -0.0040440955 0.0070466106 -0.0022766746 0.0022035 -0.0015413442 0.006297243 0.0030103133 0.003803688 0.0040270146 0.0010195196 0.00019981759 0.003427544 0.0020868885 -0.0011453741 -0.0019148188 0.00048501958 -0.002076213 0.0027323093 -0.0031272203 -0.0031599638 0.0019076763 -0.0040666666 -0.00018509831 0.008158341 -0.0039104996 -0.005621612 -0.00085454487 0.003528782 -0.005479196 -0.0042515085 0.0006343355 0.0061528836 0.0046829376 0.003364987 -0.005545382 -0.00079410564 -0.003757619 0.007381206 0.00080985966 -0.00393519 -0.0005667782 0.0030690208 0.004253045 0.00025632817 -0.0068079145 0.0052641355 -0.0041799974 -0.0068946457 -0.0010573313 0.0013383258 -0.0007202717 0.005725011 -0.0021804988 0.0050059054 0.0065973517 -0.0001662134 -0.00068793655 0.006119008 -0.0024062195 -0.0031333202 -0.004972803 0.0050266474 -0.0023588098 -0.0015778611 0.0014529377 0.0019498261 -0.0051360712 0.0031733625 0.0059287082 -0.008057201 -0.004417681 0.0027799974 0.0025176099 0.001814432 -0.0005534339 -0.0009383009 -0.0046856008 -0.005741593 0.0043847947
which -0.0036583669 -0.0058524897 0.0039004118 -0.0025729984 0.0022673202 -0.004362222 0.0046452745 0.0033077549 -0.0015717905 0.006026747 -0.007107439 0.00013522377 -0.004783039 0.0048049013 0.0025097933 0.0046920795 -0.0025411556 -0.0014490983 0.0026010626 0.0036436222 0.0025100172 0.004539038 0.0041595944 0.003334421 0.0017808342 -0.0030461007 0.0043408647 0.0059551112 0.0047787707 -0.0025216986 0.0026662503 0.0058600893 0.0019869232 -0.005785552 -0.003074261 -0.00082425325 -0.003057099 -0.0028611205 -0.003103122 0.0024719958 -0.0038729855 0.000617609 -0.0026794292 -0.008470121 0.008561018 -0.0028526606 -0.00019777135 -0.0039741984 0.00035487112 -0.0042136945 -0.0010367903 -0.0014939148 0.003549392 -6.130264e-05 0.0041059707 0.0012954698 2.0559185e-06 -0.0071578613 0.003159809 -0.0027774698 0.004271641 0.0045707654 -0.0025936987 0.0044366713 0.005022643 -0.0033003597 0.0063674897 0.0012799113 -0.005358384 -0.0067402376 -0.0024138754 0.0013885971 0.0039378805 -0.00455767 -0.0022222637 0.004615948 -0.00542429 -0.00672405 0.0050287726 -0.00020946683 -0.0046176366 0.004317413 -0.00044702497 -0.0067137284 -0.006397913 -0.0037820106 0.0003819059 -0.0016587105 -0.004348785 0.005212764 -0.0048078024 -0.004773753 0.0042910515 -0.0046581267 0.008712171 0.0035085848 -0.005330998 -0.0005067066 0.00037779656 0.0073411497
should -0.00058475207 0.0023396707 0.0040598726 -0.0014972922 0.0025646207 -0.0012460293 -0.0033787773 -0.0019761412 0.0046173222 0.0013303282 -0.006573064 -0.00030753826 -0.0006585659 -0.0009998633 0.0026663835 0.005005117 0.0043630204 -0.0018686147 0.0020416933 -0.0014721869 -0.0013122946 -0.004577315 0.0026249632 -0.0034873942 0.007402057 0.004233086 0.0008831608 0.0033256253 -0.002962703 0.00016644991 9.404862e-05 -0.0029271485 -0.00037262568 0.0037389684 0.0044218837 -0.0011048319 -0.0039698835 -0.00020553212 -0.0040376238 -0.0005395717 0.00076969573 0.0032285617 -0.0015616064 -0.0041043605 0.00436947 -0.004929903 0.00379684 0.0032481533 -0.0010884299 -0.005384386 -0.0045385133 0.0021821212 0.0052369977 -0.001514898 0.0035755092 0.0021659643 0.003367441 -0.00030645472 0.003980202 -0.0021333052 0.0042531732 0.002239033 -4.2469994e-05 0.0034115915 0.005191548 -0.0019513861 0.0032856092 0.0021161828 -0.00051597966 -0.0050188503 0.0016451953 0.0016118427 -1.4570931e-05 -0.006883956 0.00064274296 0.0064007933 -0.0014986828 -0.0022236982 0.0048895027 0.001461256 0.0007303475 -0.0018620332 0.0019069638 -0.007138842 -0.0047837435 -0.00587022 -0.0010236091 0.0030409112 0.001944601 0.006154799 -0.0068218955 -0.0043927464 0.00072762126 -0.0021923224 0.005210563 -0.00075788045 -0.0025095637 -0.004204118 -0.0017714641 0.0012641647
design -0.007874798 0.00063446007 -0.0004216697 -0.004411537 0.0029673583 -0.002417325 0.00097105704 -0.0024905545 0.0050311508 0.0022638584 -0.00793057 0.0008288689 0.0012622832 0.003571396 -7.374668e-06 -0.0003672829 -0.0020376262 -0.0050577926 -0.0018013102 0.0007261622 0.0016472423 0.00038391456 0.00053936633 -0.0008726496 0.0019470034 -0.0020573775 5.2875374e-05 0.007451591 -0.0017488484 -0.0025538537 -0.005411161 0.003849506 -0.00014107482 -0.0057505383 -0.0026141691 0.001905361 -0.0061084814 -0.0063219783 -0.0057189865 -0.0021688957 -0.001876298 0.0024614893 0.0043934933 -0.0009519115 0.010482792 0.0016968462 -0.005529392 -0.00044335125 0.00037163062 -0.0011121432 -0.009144674 0.0033500206 0.005375217 -0.0007091316 0.0057535027 -0.0014968426 0.00013212436 -0.0018624053 -0.00011983532 -0.0042292206 -0.0033767393 0.00047441115 -9.4507755e-05 0.0058355406 0.0046782433 -0.0039349627 9.347515e-05 -0.0027324036 -0.00850251 0.00037218325 -0.0037852982 0.0019386358 0.0032974253 -0.0044933525 0.0054741744 0.007241169 -0.007758882 -0.0036970268 -0.0015581165 0.00073300186 -0.0048268344 -0.004639948 -0.0029423856 -0.008923156 -0.006851635 -0.0049824966 -0.005584699 -0.0034573374 -0.00021949448 0.004361878 -0.0054597263 -0.0060185487 0.00073331915 -0.0050771195 0.0066942675 0.005669608 -0.00013182456 -0.0038553036 0.0038011046 0.007137949
