253 100
the -0.045596328 0.1253356 0.06433775 0.026191426 0.08290396 -0.26049832 0.15686396 0.3554767 -0.14555761 -0.16298693 0.043084327 -0.19847837 -0.023827534 0.061675258 7.278391e-05 -0.1276449 -0.0003502534 -0.18704168 -0.10355326 -0.33278295 0.050467383 0.04398882 0.09306085 -0.081345685 -0.024635201 0.019995047 -0.05732977 -0.04471892 -0.14342831 0.020296555 0.09455741 -0.01029133 0.092241876 -0.06266962 -0.118845135 0.22111103 0.0546604 -0.13379689 -0.108967334 -0.21051349 0.016425796 -0.15062743 -0.08421733 -0.009326327 0.16645485 -0.0053388434 -0.06387274 -0.05861592 0.08009876 0.10378822 0.12056595 -0.03789677 0.023860676 -0.060741756 -0.059693895 0.0601393 0.047812242 -0.02982132 -0.16608228 0.08906168 0.04116133 -0.0011417954 0.062666744 -0.12814951 -0.1485483 0.10874907 0.1636946 0.16717297 -0.19951843 0.16503058 -0.038932804 0.06762817 0.090242155 -0.0070534777 0.16097702 0.14692268 -0.023601905 -0.023876857 -0.19055022 0.0893431 -0.070052795 0.09461003 -0.14566794 0.19988348 -0.13043909 0.04313821 0.13439168 0.12114938 0.13417469 -0.035442922 0.17817576 0.119616054 0.038728446 0.011006796 0.3015213 0.14760971 0.071657166 -0.13672748 0.037473697 -0.07870062
of -0.053948235 0.12761348 0.063006684 0.022210727 0.09918444 -0.25659037 0.14857343 0.34832886 -0.14183275 -0.16396646 0.034945812 -0.20218545 -0.024944313 0.061903715 0.009138184 -0.117143296 0.004136904 -0.17690283 -0.098000005 -0.32107696 0.044652108 0.03315146 0.09369841 -0.09073425 -0.024245549 0.02596904 -0.06011553 -0.04594547 -0.13615468 0.03159373 0.111377805 -0.0129974345 0.080697104 -0.060720474 -0.111197084 0.22241157 0.05236222 -0.12043127 -0.097762 -0.19363217 0.033957988 -0.1609393 -0.083014734 -0.0057742135 0.16185604 0.0032703269 -0.049296122 -0.06919789 0.07584239 0.09516788 0.13462324 -0.051398717 0.027199116 -0.05593351 -0.068231784 0.07237592 0.051058777 -0.016486427 -0.16103612 0.08635737 0.033967566 0.0019395843 0.061079115 -0.12335012 -0.14213003 0.110521756 0.17065549 0.15402116 -0.18588458 0.16778597 -0.047638327 0.04985559 0.09665425 0.00883481 0.15434979 0.13787723 -0.036975592 -0.025556952 -0.17972276 0.09209197 -0.078094386 0.09318861 -0.14517653 0.18425936 -0.122079276 0.038767364 0.12611689 0.11432774 0.13873842 -0.046358194 0.1764407 0.1160702 0.036135867 0.002820124 0.28550315 0.14456047 0.08505168 -0.13130704 0.025594918 -0.078888126
and -0.036447413 0.104737066 0.04099192 0.012439295 0.08273917 -0.19847168 0.11754406 0.2836067 -0.122853965 -0.122804195 0.024201587 -0.16175619 -0.0063466374 0.046330348 0.012814506 -0.10864538 0.0033923413 -0.14109197 -0.086098984 -0.2674153 0.02834974 0.025932226 0.06637861 -0.07452027 -0.017397348 0.013898959 -0.0374383 -0.035230987 -0.11657606 0.024706844 0.08958036 -0.014855382 0.05929104 -0.047047902 -0.10268509 0.17890249 0.03695534 -0.09997687 -0.086939916 -0.16749392 0.0148427645 -0.124185815 -0.061460026 0.0033355271 0.13867293 0.000700206 -0.044157956 -0.058088914 0.056795374 0.07526837 0.10588916 -0.037256505 0.014970455 -0.057866354 -0.06411469 0.04687215 0.032628432 -0.022640109 -0.13826999 0.061036978 0.03939651 -0.0046079103 0.062177747 -0.09537633 -0.12677537 0.09558367 0.14116128 0.13710402 -0.16588311 0.13747312 -0.03191579 0.052587733 0.07861088 0.0035577344 0.124091476 0.12751561 -0.015441259 -0.015015658 -0.15489791 0.07895876 -0.05520162 0.06555302 -0.13131876 0.1566004 -0.09950961 0.028183248 0.099281944 0.094758876 0.120033726 -0.0340304 0.13965124 0.10208357 0.037554327 0.0041424343 0.24460799 0.12191245 0.071402915 -0.10534654 0.037065063 -0.07629704
to -0.05131684 0.1272664 0.0555881 0.014352824 0.09194703 -0.24306399 0.14318623 0.33381283 -0.12648769 -0.157619 0.043075584 -0.18075797 -0.014673395 0.04608645 0.014125958 -0.12036623 0.0060582836 -0.18152697 -0.09779714 -0.297509 0.04174649 0.034225646 0.090303436 -0.06779487 -0.03920494 0.024686858 -0.046927173 -0.044032514 -0.12620643 0.02385849 0.097863495 -0.012555242 0.07025321 -0.054301012 -0.106348835 0.21843559 0.05329545 -0.12632717 -0.11182436 -0.1840362 0.02793568 -0.1417368 -0.064701214 -0.0077688247 0.16452615 -0.0020566157 -0.04953059 -0.066526994 0.0671208 0.086655125 0.12536642 -0.039973963 0.016530696 -0.067855865 -0.07062229 0.061164442 0.04202195 -0.012467495 -0.14707789 0.071008034 0.040867753 0.003410312 0.07075724 -0.11368151 -0.13446358 0.09432608 0.15443271 0.16077892 -0.18716095 0.1434934 -0.035844535 0.0519132 0.08539475 0.012085339 0.14591934 0.13303268 -0.034352023 -0.015076904 -0.18218347 0.09387962 -0.07035493 0.0915617 -0.13874352 0.18469478 -0.119020484 0.03565104 0.12994055 0.124010675 0.1273529 -0.04938526 0.1590672 0.11117706 0.031957537 0.007568429 0.2843953 0.13490938 0.082076944 -0.1300033 0.031174714 -0.08544075
a -0.041715678 0.0964267 0.03707337 0.010457963 0.07420593 -0.18631832 0.11478837 0.26527816 -0.11118417 -0.1141175 0.021241182 -0.144402 -0.023078658 0.044003077 -0.0007240284 -0.09933227 -0.0051314207 -0.13560306 -0.06677569 -0.25124878 0.032378674 0.019990487 0.07306697 -0.053045332 -0.026078379 0.018234158 -0.04194131 -0.032921206 -0.11219819 0.019357417 0.08484912 -0.004249893 0.06367507 -0.05158472 -0.08011363 0.16257718 0.03193362 -0.09345386 -0.08306252 -0.15449943 0.022098077 -0.12530442 -0.066848755 0.0049542473 0.133283 -0.010486956 -0.038865093 -0.05193482 0.06214646 0.064985596 0.10148467 -0.02770174 0.03154653 -0.050352253 -0.052974544 0.04191096 0.022654094 -0.027105797 -0.12388468 0.053973716 0.03787407 -0.0073002568 0.053327315 -0.08973623 -0.115623645 0.079389475 0.13513978 0.13172773 -0.1526069 0.13240628 -0.039563693 0.051351786 0.067089155 0.005312624 0.122102246 0.11812566 -0.025127346 -0.008940899 -0.13406561 0.064569205 -0.059781495 0.060787454 -0.11238582 0.1439108 -0.10127358 0.023579909 0.10545644 0.097386435 0.09513915 -0.03688704 0.13643178 0.08552113 0.031600736 0.00396768 0.22408947 0.100208014 0.06741751 -0.09407016 0.027590277 -0.060999725
in -0.04311922 0.09785626 0.044046838 0.0029112308 0.061906576 -0.19511777 0.11859801 0.26800066 -0.11307076 -0.12868166 0.022331368 -0.15273613 -0.022557195 0.03249894 0.0017902354 -0.10427828 -0.008290452 -0.14835921 -0.074994646 -0.2481396 0.024371346 0.029210437 0.0740507 -0.05441378 -0.030847747 0.014524877 -0.0397366 -0.04859638 -0.10189623 0.025651332 0.08401369 -0.016192453 0.058263913 -0.050548986 -0.08867248 0.17919526 0.04166581 -0.09238825 -0.077483706 -0.15997598 0.029714162 -0.12603752 -0.0641168 -0.005844649 0.12631027 -0.0074243434 -0.043077875 -0.04447019 0.056428526 0.07027173 0.10052942 -0.040780596 0.029203128 -0.038304653 -0.061400067 0.051426716 0.043469194 -0.02523543 -0.13066515 0.052368153 0.040442 -0.001497168 0.060160983 -0.099250235 -0.10858768 0.084245265 0.12653647 0.12612604 -0.1573285 0.11481702 -0.031637292 0.050579958 0.078832455 0.00732468 0.1189395 0.120199434 -0.03289475 -0.013872701 -0.14300638 0.077827096 -0.04557106 0.06295954 -0.10938909 0.1378002 -0.095861666 0.022940494 0.092635825 0.10587808 0.102167144 -0.029722663 0.14436871 0.100102186 0.018153835 0.0050360793 0.23238035 0.11470484 0.060129486 -0.10744213 0.0304157 -0.07136701
google -0.022510756 0.0807541 0.038757376 0.012435989 0.06309321 -0.1709497 0.10803982 0.23549898 -0.098920494 -0.10977164 0.030197699 -0.13206415 -0.014238326 0.04750924 -0.0010349322 -0.086668715 0.007355268 -0.12024639 -0.06377935 -0.22924504 0.030348677 0.023748865 0.06833227 -0.05462185 -0.019359479 0.018241929 -0.040264662 -0.03950188 -0.09249131 0.015086378 0.076232225 0.0029805829 0.05503581 -0.03507661 -0.085086234 0.15332936 0.024451023 -0.09521325 -0.080274336 -0.14896843 0.02517627 -0.111663185 -0.042522803 -0.010634296 0.11662861 0.0065143523 -0.04618405 -0.056251246 0.047157735 0.061390415 0.087245904 -0.03782021 0.010292006 -0.038564608 -0.054766003 0.034465373 0.026665835 -0.024668008 -0.11810494 0.045585804 0.028954672 -0.0054849028 0.05200131 -0.07989446 -0.10362197 0.078592606 0.106280476 0.10583558 -0.14131235 0.10652609 -0.031586427 0.047026575 0.060016952 0.006521831 0.11381434 0.09258675 -0.015605316 -0.009839485 -0.13036332 0.072534576 -0.04137811 0.05503436 -0.10999228 0.13369213 -0.086344145 0.021892488 0.096895546 0.080076404 0.087373696 -0.028414182 0.11807236 0.08154352 0.020170724 0.007044659 0.19726783 0.098169796 0.062930666 -0.09423204 0.02298674 -0.052042007
is -0.012439986 0.051917784 0.035502147 0.015899565 0.037795138 -0.11375999 0.071325965 0.15198208 -0.06862808 -0.077714965 0.01531197 -0.08876804 -0.0042842776 0.022157377 0.00219914 -0.054275516 0.0036401271 -0.084449306 -0.04951139 -0.1554098 0.019305525 0.023841424 0.040186994 -0.045736168 -0.022073066 0.017048145 -0.029009892 -0.016903277 -0.068185136 0.019670136 0.040160514 -0.000823942 0.036058478 -0.032000925 -0.055990998 0.09890488 0.015151552 -0.058871374 -0.05654426 -0.08979284 0.020583587 -0.07312398 -0.03482064 0.0011100661 0.08336667 -0.008384593 -0.031568848 -0.033958472 0.042904448 0.043750267 0.048830196 -0.02050294 0.022234546 -0.034620915 -0.036055673 0.038425684 0.009948898 -0.0062515438 -0.07210355 0.042873245 0.028023506 -0.003622702 0.026030121 -0.04454894 -0.064134456 0.054521944 0.06489702 0.08216065 -0.089265265 0.06757463 -0.017091984 0.026421923 0.04630521 -0.0012419557 0.06630613 0.06772264 -0.005299093 -0.015895609 -0.08170676 0.035257183 -0.0379643 0.0403851 -0.07759236 0.08962019 -0.055004265 0.015854651 0.062747225 0.066250354 0.0705263 -0.021092724 0.08110852 0.04942403 0.00792548 0.011702068 0.12964413 0.06395977 0.03461869 -0.06268368 0.019809049 -0.04249464
search -0.029449891 0.06337684 0.029799689 0.016539007 0.04749299 -0.10711515 0.07441307 0.14575136 -0.06784555 -0.06508198 0.01911283 -0.0909965 0.0012254212 0.020295883 0.012216176 -0.05397669 -0.0072148326 -0.083211504 -0.04869216 -0.14356089 0.019536823 0.026177213 0.04702929 -0.04206654 -0.010365682 0.012430594 -0.026496729 -0.031478614 -0.057997406 0.0028026083 0.050955664 -0.009855905 0.041326758 -0.014424145 -0.050693758 0.10086844 0.018145328 -0.04799233 -0.043113314 -0.09824491 0.008846155 -0.06414483 -0.0329038 -0.0037283537 0.07125211 -0.0040065357 -0.02340258 -0.02536884 0.028123079 0.03745026 0.055548288 -0.018196987 0.01145112 -0.030857725 -0.025445536 0.026182488 0.020591693 -0.009345727 -0.06409883 0.027673488 0.011554822 -0.00532739 0.03844788 -0.053554457 -0.07355305 0.045541257 0.06725566 0.07608693 -0.09487746 0.07376203 -0.028321423 0.026969329 0.04625995 0.008405955 0.06029975 0.05717986 -0.020020777 -0.018291244 -0.09092154 0.039770313 -0.031299926 0.032068953 -0.05910808 0.08499746 -0.048361372 0.01903554 0.056229267 0.047344502 0.057490647 -0.014224254 0.07163777 0.052515548 0.017991867 0.003384167 0.13630539 0.07098967 0.037886497 -0.04910654 0.021398338 -0.04242055
for -0.024113238 0.04595328 0.017155137 0.015756495 0.03708597 -0.1127182 0.058575206 0.15039647 -0.062264618 -0.07048834 0.016810998 -0.085237816 -0.0096371565 0.024312273 -0.000933177 -0.04415969 0.0028097206 -0.08821785 -0.03381921 -0.14261913 0.01849607 0.020428155 0.03076657 -0.036188427 -0.0046387403 0.005636954 -0.030917399 -0.012037626 -0.059282668 0.0052985973 0.051695928 0.0009032373 0.03848082 -0.014304472 -0.0576694 0.098661155 0.021569759 -0.049076494 -0.04405861 -0.081650555 0.015614486 -0.059553042 -0.03482882 -0.0068235327 0.06937748 0.00015683462 -0.026570559 -0.022554014 0.03557982 0.047355168 0.05616691 -0.009414582 0.009941894 -0.017624399 -0.024914451 0.018116986 0.013751836 -0.012286756 -0.06290055 0.032353744 0.015143955 0.007290539 0.037397914 -0.052131813 -0.06715005 0.040110618 0.06403695 0.057923198 -0.08081422 0.064031675 -0.01588036 0.030619748 0.034269247 -0.008412937 0.06759066 0.054632828 -0.010101207 -0.013467763 -0.07128183 0.04147921 -0.025548013 0.035257824 -0.065017246 0.08804928 -0.05113207 0.011042902 0.045690857 0.053556778 0.06433627 -0.011980237 0.06471272 0.058491066 0.019146256 0.012067097 0.1316509 0.052809294 0.025195727 -0.048567038 0.024451166 -0.031323135
on -0.014104442 0.056331143 0.035436217 -0.0014164762 0.035027828 -0.12457496 0.06488834 0.16587995 -0.069382906 -0.082217835 0.024556769 -0.094589695 -0.0006534205 0.020937202 0.006662837 -0.053317256 0.0011083935 -0.089135535 -0.04184177 -0.15831636 0.017088702 0.0151294395 0.047194123 -0.041645996 -0.021138752 0.014972981 -0.026555326 -0.027036987 -0.056100912 0.015253719 0.04409558 -0.0035225183 0.047404855 -0.017809868 -0.047778636 0.10763108 0.023851216 -0.06087662 -0.05675547 -0.09594547 0.010144865 -0.07275051 -0.041017007 0.004903079 0.07085552 -0.009620708 -0.028685546 -0.03313397 0.026952807 0.044671297 0.054204073 -0.02096777 0.005590274 -0.026628818 -0.028018706 0.03036548 0.013897819 -0.012221529 -0.06799132 0.040708907 0.011419886 -0.003804647 0.033341266 -0.053433735 -0.07756729 0.05412465 0.06759985 0.067753665 -0.08730636 0.07170576 -0.016817274 0.036107164 0.039156124 0.010411275 0.074361324 0.07816811 -0.008412909 -0.019961508 -0.09054756 0.051095642 -0.026525017 0.0503884 -0.063793235 0.09754621 -0.06777161 0.02373918 0.05464188 0.061457228 0.06988874 -0.015393368 0.08930486 0.056747947 0.015315016 0.011168777 0.12968981 0.0666193 0.046960775 -0.06578676 0.02043267 -0.047936756
web -0.010028318 0.064013496 0.027371338 0.0127259735 0.0431716 -0.11926279 0.06461134 0.1599565 -0.06723814 -0.07449886 0.020699264 -0.08428284 -0.0106216 0.021846034 0.008924745 -0.0615005 -0.004151718 -0.08922681 -0.046829797 -0.15299918 0.014272968 0.008170508 0.039703134 -0.044870257 -0.023750365 0.0022461098 -0.031585556 -0.015323168 -0.056460068 0.011513013 0.04288379 -0.011193908 0.03673584 -0.02410252 -0.051558662 0.09969671 0.021581424 -0.057114564 -0.05641529 -0.09737663 0.002916554 -0.070455104 -0.031166475 0.00486817 0.07192808 -0.0043241708 -0.015324343 -0.030242797 0.030987896 0.050711904 0.0598934 -0.023983514 0.018579986 -0.021822717 -0.03735857 0.028341329 0.019358663 -0.004238477 -0.07369638 0.032424863 0.020789562 0.00025290405 0.030454442 -0.05562814 -0.071603335 0.054395203 0.081077375 0.07990767 -0.09562849 0.07513211 -0.023309695 0.035972487 0.04383538 0.0059133573 0.071648456 0.071791776 -0.018917523 -0.0023657433 -0.08557358 0.038258728 -0.032900553 0.04999746 -0.07432771 0.083397195 -0.04832425 0.018515622 0.050122265 0.04926091 0.0700355 -0.01244674 0.08339563 0.04969683 0.0061669005 0.008552059 0.13662393 0.05812118 0.02803907 -0.060505975 0.010911075 -0.040083516
as -0.023264065 0.054193754 0.03712367 -0.0012687752 0.049236372 -0.11395468 0.06862499 0.17266269 -0.056275923 -0.08087036 0.010880056 -0.09993176 -0.01742693 0.022869311 -0.0022206004 -0.0678705 5.1521623e-05 -0.085076936 -0.03891295 -0.1555312 0.015502887 0.019657884 0.041030552 -0.030765383 -0.014682226 0.018454669 -0.03483522 -0.015815 -0.066083625 0.02083374 0.04096201 -0.0024769064 0.039827082 -0.026811898 -0.060225207 0.09597724 0.014500694 -0.06844722 -0.048960283 -0.09621004 0.010799479 -0.06688603 -0.03745222 -0.003921557 0.06939583 -0.012442703 -0.017027412 -0.038442366 0.02921002 0.050203636 0.06698591 -0.027385047 0.014454546 -0.03441793 -0.03072576 0.026421024 0.016641384 -0.008720911 -0.06723961 0.04441094 0.01058427 -0.006142929 0.03940084 -0.054116625 -0.07400185 0.051078286 0.08765892 0.0753878 -0.101894476 0.07839608 -0.0145315025 0.034258924 0.04815546 -0.0044091563 0.07357765 0.06876738 -0.009164976 -0.019127972 -0.09632584 0.04628375 -0.041456513 0.04816869 -0.07193095 0.101376824 -0.06408985 0.019051943 0.067931525 0.055056687 0.05995078 -0.018472923 0.086016335 0.05349071 0.022893673 -0.0022470355 0.14099795 0.068564825 0.046936505 -0.055000298 0.022787575 -0.031909477
we -0.022849223 0.04643236 0.00956888 0.002478227 0.022197386 -0.07999123 0.036124397 0.0944828 -0.045938402 -0.048384 0.0052174637 -0.05212529 -0.015034886 0.0109235635 0.010934742 -0.030192811 0.0068883956 -0.051364932 -0.027509661 -0.10125606 0.019074649 0.014188723 0.03348766 -0.017982114 -0.0011260726 0.015750375 -0.026862128 -0.02183232 -0.03873357 0.014002798 0.037924178 0.0029316195 0.03191522 -0.021335008 -0.027656896 0.06144598 0.003944588 -0.028582836 -0.030951457 -0.06350926 0.005112503 -0.050112806 -0.017322442 0.0031529705 0.046419784 -0.008578947 -0.020264717 -0.020513462 0.028173462 0.024877958 0.038085647 -0.011950577 0.0011873842 -0.016266722 -0.021647856 0.02180669 0.017543096 -0.008047291 -0.050911546 0.031392988 0.017903471 0.0063145203 0.024391193 -0.02651345 -0.03593998 0.030574769 0.057202492 0.052362613 -0.052714657 0.046290807 -0.015461649 0.013113972 0.018894441 0.003486105 0.055265382 0.052026898 -0.011352401 -0.00067677203 -0.051560592 0.02448628 -0.018354854 0.021521714 -0.036417402 0.062389478 -0.03327106 0.016301528 0.046633303 0.04437696 0.039479386 -0.019729959 0.06078789 0.04241413 0.0121409735 0.0018059219 0.08017857 0.037520688 0.03233179 -0.04136808 0.004263231 -0.014944862
an -0.012757235 0.06531208 0.027718393 -0.000985276 0.05008868 -0.11747925 0.072801165 0.15995188 -0.053377092 -0.08093021 0.02536385 -0.097456254 -0.015428345 0.015682016 -0.0028083469 -0.048927527 0.0077547994 -0.08712758 -0.039167657 -0.14885971 0.026940856 0.023189623 0.038480386 -0.04093466 -0.021216346 0.015288265 -0.023709374 -0.025718423 -0.053060055 0.0071555288 0.036811445 -0.0061668833 0.037236087 -0.03126391 -0.05755228 0.09149712 0.03012844 -0.050015666 -0.04908711 -0.0851008 0.019959608 -0.07079746 -0.026995497 0.0013709784 0.08004875 0.0050521814 -0.029916568 -0.032854933 0.034581583 0.046471145 0.061086148 -0.013675287 0.016920313 -0.035718046 -0.033347957 0.021940416 0.029321775 -0.0048845997 -0.07248418 0.039769713 0.011471963 -0.006821978 0.032908864 -0.04708692 -0.06205589 0.05369195 0.07166984 0.06911884 -0.08796513 0.069931015 -0.025771465 0.018655244 0.0477803 0.00030116705 0.068489216 0.05762448 -0.004423969 -0.009603848 -0.08247119 0.04621299 -0.038024638 0.042714294 -0.06503888 0.0779383 -0.050749153 0.021217182 0.064895034 0.06167996 0.059074003 -0.02593405 0.086334415 0.05531201 0.020577284 0.011317101 0.13300464 0.05801122 0.035950486 -0.05003141 0.010063605 -0.028667094
by -0.026195154 0.056937944 0.026782842 0.014905323 0.0340424 -0.11136218 0.056720987 0.14928792 -0.06415176 -0.058486756 0.010382096 -0.09135005 -0.012883998 0.029573912 -0.0037321039 -0.05821475 -0.008484716 -0.072535805 -0.0364962 -0.13358758 0.014704637 0.021992924 0.029722057 -0.036279593 -0.019107785 0.008546774 -0.025359804 -0.012847384 -0.05728184 0.0016623713 0.037918095 -0.010744065 0.03724497 -0.013971506 -0.054814734 0.10240954 0.028215118 -0.06070593 -0.05497391 -0.076927066 0.019457245 -0.07027108 -0.0384517 0.005982985 0.0740681 0.005956885 -0.0313436 -0.037726156 0.033473007 0.029660448 0.049299344 -0.021112217 0.021449711 -0.016993344 -0.031649712 0.033206545 0.025995826 -0.012065419 -0.058658782 0.040783696 0.020595348 -0.0044654836 0.022753563 -0.053266127 -0.054260377 0.038297042 0.066279896 0.07742781 -0.079455204 0.074574225 -0.026654627 0.024492055 0.04436843 -0.0038642464 0.07368288 0.071125686 -0.013222379 -0.011465358 -0.07931958 0.03520936 -0.037335634 0.0366815 -0.06648448 0.085194 -0.059388284 0.022573713 0.04708432 0.045504607 0.06656279 -0.008810802 0.07089392 0.054006983 0.009011621 -0.0038010147 0.11732099 0.06724423 0.040321473 -0.04558156 0.02249504 -0.028969014
with -0.021048335 0.05119151 0.03279868 0.008208377 0.05159868 -0.12208539 0.07006169 0.17688136 -0.06756219 -0.07783709 0.012871068 -0.10403956 -0.017137598 0.03627703 -0.006078515 -0.052434314 -0.010644827 -0.09115363 -0.048691444 -0.16743584 0.030042978 0.025517808 0.04553106 -0.035369597 -0.015200309 0.020670688 -0.020626832 -0.034777086 -0.07113241 0.010929848 0.053390875 -0.008158108 0.041549895 -0.03523977 -0.053945046 0.11411115 0.026919566 -0.06569513 -0.061976146 -0.10968988 0.012328915 -0.083532415 -0.04295591 0.0036534232 0.08894065 -0.00026254164 -0.035334025 -0.039501313 0.045127615 0.049729425 0.057802297 -0.027764846 0.014441751 -0.026469091 -0.031219536 0.034318447 0.014568654 -0.021472123 -0.08669942 0.039104305 0.025790358 0.0038952779 0.034666955 -0.05357125 -0.07238334 0.056167077 0.0714943 0.086923786 -0.0897354 0.08454644 -0.014703642 0.037139285 0.045624007 -0.00029881892 0.0777053 0.06239797 -0.0060223695 -0.017735485 -0.08273094 0.043238074 -0.03347598 0.034790657 -0.083621524 0.086590715 -0.06862557 0.02049695 0.055549376 0.056020383 0.062067993 -0.025026277 0.09378739 0.0636726 0.025869079 0.012869414 0.13662381 0.07739589 0.029817484 -0.06617107 0.009690131 -0.036899973
are -0.015520563 0.05507373 0.025509657 -0.0009001464 0.043467853 -0.10301901 0.066688456 0.13580309 -0.058012206 -0.06593667 0.0092665525 -0.08177184 0.0018852837 0.018530015 0.010078371 -0.05834777 0.0012546459 -0.0727459 -0.029103398 -0.13313124 0.023848098 0.009739584 0.026853168 -0.036986627 -0.015444894 0.005606882 -0.02496267 -0.027339071 -0.051467165 0.008943369 0.03786881 0.00015974251 0.024060285 -0.024647543 -0.039885223 0.09393169 0.007903303 -0.041677136 -0.03629409 -0.082393415 0.018594276 -0.06938127 -0.021447195 0.003719972 0.06526628 -0.0070581282 -0.025383372 -0.029871253 0.03053532 0.037946515 0.05689334 -0.0062439116 0.019814266 -0.027662935 -0.016554466 0.023975305 0.02149297 -0.00636423 -0.06257648 0.034271233 0.011069875 -0.006253259 0.017912392 -0.04374042 -0.049780864 0.041947044 0.064153045 0.065150514 -0.067104585 0.054551076 -0.014834198 0.014926217 0.038857665 0.010162922 0.067787424 0.06251497 -0.0039507314 -0.0019586603 -0.064823635 0.04585299 -0.03170758 0.0442039 -0.05289212 0.07220244 -0.039303243 0.020894485 0.059109796 0.050970156 0.06257705 -0.015100167 0.07700333 0.049074464 0.020141002 0.00053024624 0.11879389 0.062292177 0.029074615 -0.051562957 0.017217616 -0.03959568
be -0.012771535 0.052261714 0.022782044 0.011193177 0.052856974 -0.13094959 0.07651833 0.18108511 -0.07671465 -0.08525042 0.013231769 -0.100934535 -0.007849836 0.03731964 0.009682465 -0.061848585 0.0012222204 -0.083978936 -0.038483668 -0.15460049 0.027089735 0.011464725 0.03856794 -0.046437062 -0.009277741 0.009211502 -0.03677772 -0.017040113 -0.058820553 0.009397253 0.060414977 -0.005584493 0.036853895 -0.028112657 -0.05810871 0.106894955 0.026003817 -0.057132773 -0.046879463 -0.11050338 0.010762232 -0.082743004 -0.029621696 0.0036342242 0.078466214 -8.318007e-05 -0.03349619 -0.03372621 0.04651807 0.044299304 0.058294643 -0.02828726 0.010466863 -0.031274494 -0.030525051 0.04152698 0.0178126 -0.009501152 -0.07064873 0.04116497 0.022416694 0.009253735 0.042414352 -0.051593933 -0.078989744 0.06276985 0.087747276 0.08902528 -0.09916761 0.08398416 -0.014817485 0.025449008 0.052017923 0.0036951052 0.08731461 0.06901921 -0.018230911 -0.0054261684 -0.10200696 0.040536124 -0.040792234 0.04442518 -0.07806036 0.10283118 -0.052886605 0.019489698 0.06452362 0.064206384 0.06572442 -0.028791264 0.09492915 0.054368563 0.021737412 0.014188248 0.14734618 0.07446466 0.04387411 -0.067565516 0.021655513 -0.041375846
 -0.009910536 0.047892354 0.021678444 0.011680475 0.022253426 -0.079205625 0.059680812 0.11325326 -0.04606463 -0.059365105 0.013231648 -0.06377485 0.0014649668 0.019103378 0.0047024507 -0.04167227 0.0076013184 -0.06921006 -0.03859804 -0.11348415 0.012547 0.018336494 0.020963173 -0.0304607 -0.018887674 0.013219992 -0.021484528 -0.026630769 -0.04217065 0.017879553 0.031910453 -0.0089291455 0.030781025 -0.019358661 -0.049487755 0.083922684 0.00801148 -0.048305787 -0.039672118 -0.07530652 0.010814579 -0.043092087 -0.020905372 0.006788563 0.05588262 -0.0011579596 -0.021421988 -0.031866565 0.028686455 0.033878617 0.034290753 -0.019656898 -0.0001518259 -0.026524318 -0.018993508 0.030793706 0.018578434 -0.0054241465 -0.046735708 0.025889229 0.013309366 -0.009168884 0.022561839 -0.043227524 -0.04957604 0.04338327 0.048664376 0.05125365 -0.07355962 0.05159081 -0.018125273 0.022328297 0.034990404 -0.004363197 0.0486985 0.050886683 -0.005053489 -0.0024684174 -0.06664579 0.028454168 -0.029259108 0.030043457 -0.049655743 0.066717245 -0.035023652 0.011066968 0.04318989 0.037196998 0.045693625 -0.02214133 0.059285026 0.041865654 0.0031463467 0.012824915 0.089613825 0.03908849 0.019107958 -0.036710814 0.017711818 -0.019807588
from -0.015192368 0.04942629 0.020426044 0.015979229 0.039060056 -0.09544919 0.057459977 0.1359357 -0.0484971 -0.06319573 0.017024573 -0.077346556 -0.0021741777 0.025332429 0.004793064 -0.054791816 -0.0055409814 -0.06871602 -0.043557677 -0.12696964 0.016058564 0.018532084 0.025493914 -0.023191798 -0.013747649 0.0038773934 -0.01812993 -0.02150474 -0.06064011 0.0051906668 0.039628815 -0.012456813 0.032797474 -0.0192933 -0.048870254 0.08971348 0.020446792 -0.04015109 -0.041219365 -0.0783256 0.012811809 -0.06339523 -0.037868373 0.0059771533 0.06345777 -0.011745987 -0.028753713 -0.03090858 0.033719633 0.042032808 0.056327596 -0.02365691 0.011963313 -0.026617577 -0.032003485 0.032691855 0.020568706 -0.012136514 -0.071765006 0.026182046 0.016542943 0.0070462623 0.03223502 -0.05499932 -0.06708071 0.048955485 0.062075436 0.059028175 -0.07122186 0.057587285 -0.0123204505 0.022963608 0.02893773 0.0006789057 0.06775425 0.066509575 -0.009510283 -0.0040881503 -0.07825137 0.037138466 -0.032198165 0.036776576 -0.061114985 0.07194336 -0.055733025 0.025614107 0.053157166 0.04656742 0.049371522 -0.008873941 0.06245942 0.049665462 0.014631078 0.012595737 0.1209054 0.05297285 0.034092788 -0.052792177 0.0040926547 -0.03603067
this -0.014532553 0.050006203 0.030860357 0.015266161 0.024009157 -0.08103279 0.046458043 0.119298056 -0.04834058 -0.048779212 0.017078187 -0.0641427 0.0025689572 0.01958728 -0.0046438165 -0.050021842 0.0051196306 -0.07061814 -0.03597742 -0.1075915 0.012924956 0.007557278 0.027582472 -0.026886536 -0.008385906 0.014507317 -0.024617486 -0.014876936 -0.039977904 0.010828883 0.04086612 -0.008202735 0.034876443 -0.02719635 -0.037032515 0.06797038 0.013442411 -0.0537178 -0.039728854 -0.07658569 0.0051176012 -0.053003505 -0.023279984 -0.0031895116 0.049637973 -0.007858879 -0.018415276 -0.027733624 0.016300905 0.032022484 0.051400036 -0.008631919 -0.00040329318 -0.01825254 -0.030243816 0.012421678 0.015262322 -0.00870304 -0.06325513 0.021165939 0.012213969 0.0068119545 0.015521966 -0.03430906 -0.051782172 0.03808689 0.066675894 0.060952038 -0.0717072 0.060327694 -0.011856335 0.027204953 0.03205231 -0.0037751293 0.055999763 0.045136876 -0.009247459 -0.0030734683 -0.05988184 0.043356583 -0.03181001 0.02613489 -0.04572924 0.068072185 -0.050225858 0.014947585 0.04703541 0.04105475 0.042641733 -0.009460172 0.07088749 0.03399902 0.012073518 0.0009912574 0.09459893 0.048207 0.022502232 -0.035740312 0.0068649347 -0.025243739
use -0.017036287 0.050563566 0.024072072 0.016094463 0.035343897 -0.09991789 0.0540507 0.13087681 -0.05557947 -0.067030765 0.007610298 -0.07986468 -0.0007069038 0.024412366 0.010427554 -0.04048367 -0.0074426997 -0.06705882 -0.026918346 -0.11872228 0.019422838 0.02013245 0.023101386 -0.02158539 -0.004886138 0.01734969 -0.029262938 -0.012772929 -0.04368312 0.0078091933 0.03159687 0.0019012645 0.023692954 -0.025997639 -0.039381765 0.091016695 0.02569399 -0.051848486 -0.049765393 -0.06705583 0.016232038 -0.061961275 -0.03678073 -0.0065292576 0.057536487 -0.005300564 -0.019991733 -0.02525699 0.024685826 0.02906145 0.05730401 -0.020765992 0.0031333615 -0.014943404 -0.022751734 0.032806054 0.011678244 -0.015247751 -0.059419673 0.028584681 0.006353721 -0.0022645753 0.027889999 -0.03750974 -0.047768805 0.043404166 0.05676366 0.058374956 -0.0771232 0.06630412 -0.022829868 0.024265638 0.033198785 -0.004961649 0.05099803 0.059969854 -0.0194569 -0.009304697 -0.067043625 0.04391622 -0.033321608 0.0371761 -0.04655388 0.06456216 -0.049849875 0.02041649 0.05278062 0.04843055 0.05921928 -0.014773211 0.067591205 0.042603355 0.00499623 0.0071580014 0.110315904 0.044629782 0.029167542 -0.04798886 0.013345742 -0.022540487
information -0.021013053 0.044428445 0.031044057 -0.0006850788 0.028800378 -0.10392846 0.051702533 0.14020301 -0.054275036 -0.06657211 0.008041895 -0.07945684 -0.009286772 0.025700614 0.010578406 -0.045214973 0.0071539045 -0.08458752 -0.02879572 -0.13247132 0.026262661 0.017997202 0.038545437 -0.042255234 -0.022305448 0.018574102 -0.025409885 -0.01774957 -0.048129965 0.009761894 0.051259656 -0.005133579 0.023535518 -0.029209677 -0.047638398 0.08079052 0.026356032 -0.047658168 -0.05233787 -0.07418854 0.019212138 -0.05679156 -0.023544343 -0.0118125975 0.06719921 -0.0110361595 -0.025812266 -0.026781702 0.029833071 0.03969297 0.05483592 -0.01482218 0.01629119 -0.017086163 -0.03340312 0.034375925 0.023523422 0.000778871 -0.06034252 0.028533246 0.013133649 -0.00093226833 0.025313912 -0.038233794 -0.058323514 0.04700832 0.06950812 0.05642657 -0.07251013 0.07426818 -0.019401353 0.026227402 0.030880237 -0.0053641666 0.07101834 0.055699524 -0.0056623826 -0.0076693953 -0.07769517 0.0418762 -0.032498494 0.03482527 -0.05962868 0.082674995 -0.05181603 0.017086003 0.043564394 0.060735963 0.04671895 -0.009981102 0.07519926 0.040590793 0.008708893 -0.0037249005 0.112190895 0.06511323 0.04257172 -0.0499484 0.014868648 -0.024580615
glucose -0.02448216 0.051587645 0.028123146 0.00064141944 0.02866928 -0.11476484 0.071546964 0.15074378 -0.064142905 -0.075165205 0.016481914 -0.07880861 -0.009771557 0.024546344 -0.00178675 -0.047330093 0.0002703256 -0.06829283 -0.050174873 -0.14081706 0.007685102 0.015099595 0.027969932 -0.029113822 -0.019821236 0.0037586142 -0.018439235 -0.030243568 -0.055735968 0.003485278 0.05330793 0.0052596824 0.036513474 -0.017468367 -0.044524748 0.08645537 0.029072443 -0.062867425 -0.037044097 -0.082774684 0.0077528115 -0.068746194 -0.021682192 -0.007733287 0.07801557 -0.007791303 -0.014072024 -0.029732993 0.03960483 0.036556732 0.05986932 -0.008329369 0.013992019 -0.023927724 -0.02302543 0.034957323 0.026222559 -0.0013460505 -0.060476292 0.04111778 0.026927996 0.00010205546 0.026811514 -0.048753504 -0.061638936 0.04439186 0.060526192 0.058026437 -0.083359525 0.07685634 -0.021865064 0.017437937 0.043812264 0.001876368 0.067300044 0.06526236 -0.009700557 -0.0042191134 -0.07675451 0.041589368 -0.019524954 0.040517613 -0.06792802 0.08732693 -0.046906605 0.0203652 0.050139878 0.05627653 0.06426474 -0.010567695 0.07477617 0.040676203 0.014313532 0.0048995307 0.12679987 0.050772537 0.04303175 -0.062214192 0.020166324 -0.04517426
that -0.0036884665 0.044432126 0.018603437 0.0013312772 0.02691088 -0.07412231 0.037835 0.10764432 -0.038818084 -0.043259833 0.003307569 -0.049490683 -0.005544311 0.01574042 -0.0074317516 -0.03287501 0.0060478654 -0.04733167 -0.03453182 -0.10312169 0.006799868 0.010948543 0.01674932 -0.032618314 -0.01113523 0.0080748405 -0.026098607 -0.019068614 -0.039494418 0.014461372 0.032043736 -0.0034445412 0.016703516 -0.023124993 -0.03520989 0.072855696 0.018908689 -0.039163895 -0.030548 -0.07010577 0.0064913724 -0.050773088 -0.015682815 -0.0036208106 0.044430763 -0.010805895 -0.017266853 -0.027813232 0.020277932 0.023866907 0.035658177 -0.016075898 0.00016007877 -0.019219266 -0.018529749 0.015279081 0.0051595904 -0.010559672 -0.056647904 0.022603467 0.018661208 -0.0032225326 0.02292494 -0.03026171 -0.034689263 0.036897987 0.057825033 0.038028616 -0.06570338 0.04098455 -0.02046144 0.009110212 0.019902866 -0.0023597716 0.0475597 0.04036552 -0.018283742 -0.0016925406 -0.054409456 0.033188276 -0.012923743 0.034543704 -0.045367107 0.060572915 -0.041560035 0.014151403 0.042222884 0.047186516 0.037152328 -0.00998663 0.04624426 0.032664336 0.01834325 -0.000562347 0.084879145 0.032867994 0.014273415 -0.029391527 0.004652046 -0.020226683
used -0.022525603 0.039435472 0.011536771 0.012893691 0.037544046 -0.078969836 0.058360625 0.11448497 -0.05628218 -0.04401509 0.0070056277 -0.057250127 -0.0008107734 0.017375778 -0.0054317503 -0.04378181 0.005442355 -0.06925971 -0.030383807 -0.11609682 0.02332734 0.009959898 0.038174845 -0.03305128 -0.020406911 -0.0011565873 -0.022614999 -0.012370467 -0.04549937 0.017486352 0.03745223 0.0007920924 0.03016844 -0.010257501 -0.041266043 0.08178153 0.0059035197 -0.03935121 -0.036891196 -0.0678645 0.016088864 -0.054931946 -0.027441623 -0.0017851682 0.055410434 -0.005172954 -0.0119130295 -0.029501133 0.033035725 0.031354256 0.045383673 -0.010800751 0.008743503 -0.01880218 -0.026250897 0.026659068 0.014655388 -0.010674994 -0.06268994 0.016631285 0.015137148 -0.0060016 0.021204935 -0.043938376 -0.057622988 0.03608589 0.06077035 0.05140763 -0.072376706 0.057550333 -0.015288006 0.013645676 0.029571826 7.309472e-05 0.049491566 0.038647074 -0.00242817 -0.003860029 -0.064933844 0.040019087 -0.02275936 0.037317995 -0.052407637 0.0719918 -0.041639753 0.007448995 0.037855066 0.05187833 0.046859145 -0.013352578 0.06746898 0.033054374 0.009837483 -0.005085619 0.09013393 0.039508898 0.031173278 -0.040694013 0.017084314 -0.025569752
data -0.014473683 0.05109637 0.019229464 0.0091714505 0.04207134 -0.09052785 0.0600451 0.11780634 -0.043986063 -0.052805584 0.018340437 -0.08047049 -0.0072917636 0.023203764 -0.0036325152 -0.05199816 0.005794811 -0.07342272 -0.03936085 -0.10811725 0.008140416 0.022295007 0.031161072 -0.025000764 -0.014104027 0.002814539 -0.029092865 -0.018764917 -0.053789023 0.0058032065 0.045174506 -0.010711984 0.023083009 -0.025150554 -0.048744846 0.07078008 0.015702035 -0.036154985 -0.030906035 -0.07919999 0.001221985 -0.05825604 -0.036233332 -0.0070983074 0.05407273 0.0009986528 -0.02729863 -0.023414057 0.029190771 0.03926245 0.043988924 -0.024933673 0.014725047 -0.028043237 -0.01965899 0.025088118 0.024353562 -0.0067279227 -0.059637222 0.035401285 0.008313151 -0.009360214 0.027772333 -0.045355443 -0.057231475 0.03602632 0.04916792 0.058219716 -0.07154633 0.05559504 -0.013403436 0.025965577 0.03930424 -0.007076077 0.05146973 0.043400757 -0.02007344 -0.012356148 -0.06852091 0.026605336 -0.030453688 0.030559728 -0.04814975 0.07115672 -0.036463723 0.0063476656 0.04127987 0.04454256 0.058242943 -0.013975125 0.06511004 0.043646533 0.015237276 -0.005766144 0.10794098 0.056995194 0.034506787 -0.04228301 0.004829095 -0.03422701
have -0.0028629757 0.030234676 0.0051069567 0.00923604 0.016886434 -0.05546967 0.042284735 0.08023388 -0.032300383 -0.03378452 0.0049864366 -0.05018162 0.0043814573 0.022666547 -0.008083871 -0.02333806 0.009223965 -0.04908642 -0.021016527 -0.08260167 0.019488586 0.009334951 0.026985364 -0.011140382 -0.003565057 -0.001245823 -0.015947878 -0.0117157595 -0.03176267 0.0093407715 0.034917463 0.0022804737 0.030340878 -0.022654703 -0.034814253 0.05679906 0.014712443 -0.0325069 -0.03405639 -0.05370105 -0.0021188536 -0.029025258 -0.01481044 -0.009255972 0.044458855 0.002766658 -0.019219046 -0.023284508 0.019516353 0.0324286 0.021979991 -0.010657042 -0.0003374614 -0.01614582 -0.013764574 0.010726717 0.007539194 -0.0050207465 -0.04632175 0.0271859 0.0151759125 -0.009040832 0.014379062 -0.02633245 -0.04486631 0.019320529 0.031752855 0.034185536 -0.039387874 0.047278374 -0.007901203 0.0060996828 0.028619613 0.005147867 0.03909702 0.026757399 -0.009420444 -0.005708991 -0.053885397 0.026589682 -0.016510064 0.015050344 -0.04607666 0.053549867 -0.03914715 0.004203774 0.03714743 0.030306896 0.030776968 -0.015744686 0.042469073 0.034853548 0.0026422406 -0.0022820958 0.06673657 0.030626794 0.011873352 -0.041648068 0.016308106 -0.012765513
can -0.024474425 0.044956133 0.023525054 0.0033006782 0.05009959 -0.10721718 0.059087526 0.14755121 -0.07097187 -0.06730923 0.011980452 -0.08799553 -0.0036357746 0.031486392 0.007352966 -0.061829746 0.0059083267 -0.09053817 -0.049062364 -0.1488108 0.015728617 0.017032124 0.03327545 -0.033722956 -0.004155575 0.016767295 -0.02544424 -0.012915226 -0.057393976 0.009047716 0.03789848 0.0026833 0.026758078 -0.025964499 -0.04300023 0.09410083 0.022121571 -0.062821634 -0.042092573 -0.081843324 0.0020032134 -0.07142111 -0.024365274 0.0004473887 0.07251862 -0.0023831355 -0.034041643 -0.019457515 0.030713752 0.036271617 0.058238607 -0.017456066 0.0062528145 -0.01999352 -0.0324918 0.022348635 0.026500748 -0.0036353583 -0.061374273 0.035707336 0.019140702 -0.008204622 0.033515383 -0.042506367 -0.06520609 0.044628646 0.067707054 0.06991333 -0.09314502 0.076632075 -0.017353106 0.035213027 0.03388438 -0.0042297514 0.06168904 0.05632946 -0.01014481 -0.005112427 -0.08026824 0.045498434 -0.039175343 0.038320553 -0.07370134 0.087147675 -0.05724097 0.027044486 0.052028846 0.06207342 0.063870974 -0.016815007 0.07687218 0.059594557 0.017317776 0.013018307 0.13027555 0.06795196 0.040540244 -0.064171456 0.009516063 -0.035758603
its -0.017341403 0.05075281 0.02388543 0.014412764 0.031277806 -0.097703055 0.06487121 0.13618322 -0.04990831 -0.057029273 0.012212651 -0.08494878 -0.0047599482 0.012339854 -0.0009309474 -0.05831552 -0.0016497303 -0.08063715 -0.029373411 -0.12963907 0.027420005 0.005902495 0.029285798 -0.029856877 -0.01499746 0.011009832 -0.025568552 -0.020862427 -0.05867725 -0.00015425602 0.046246964 -0.0032241847 0.038225297 -0.029292323 -0.04128426 0.0758018 0.02520856 -0.04346977 -0.048354067 -0.071463056 0.0041545155 -0.0685701 -0.027389357 0.0015020608 0.056116976 -0.0112242615 -0.012174537 -0.025102947 0.029627392 0.038745433 0.04640406 -0.015143052 0.012831549 -0.014277702 -0.031903986 0.027087776 0.022705883 -0.01582163 -0.07186385 0.039525315 0.023655472 -0.0047357297 0.031921525 -0.045743298 -0.061887827 0.040152494 0.05863675 0.06886794 -0.0739539 0.05455398 -0.01695246 0.020262524 0.042769175 -0.000208166 0.06826813 0.05869954 -0.016085712 -0.00084546173 -0.06961485 0.03354507 -0.032694798 0.032197587 -0.06361903 0.07755816 -0.057819676 0.009727532 0.05316918 0.048827946 0.05905192 -0.020160578 0.06848104 0.048880626 0.019515675 0.006006798 0.122760646 0.059032686 0.023931883 -0.051107757 0.005443438 -0.03853204
cases -0.014094158 0.024376525 0.02559688 0.006796125 0.024334095 -0.074728586 0.032040097 0.084269516 -0.0289456 -0.046231866 0.014181369 -0.057586953 0.004626812 0.018884871 0.00309068 -0.038283274 -5.97469e-05 -0.053258665 -0.01820483 -0.08413925 0.012594335 0.014148455 0.027117118 -0.028934514 0.00044200447 0.008232536 -0.021452952 -0.0046537234 -0.037835214 0.01535836 0.02633871 0.0044817133 0.025063138 -0.01909145 -0.035536207 0.070548736 0.014535757 -0.041692633 -0.029493848 -0.058307204 0.008725814 -0.050059736 -0.013126621 -0.00029964506 0.053537834 0.0033082156 -0.020054486 -0.014700066 0.020293716 0.015574139 0.043433394 -0.0016541512 0.017687172 -0.020172304 -0.026848363 0.022876857 0.0034610664 0.0027103648 -0.041368037 0.027158897 0.017709415 1.3687387e-05 0.016108774 -0.031628035 -0.030140074 0.02142778 0.043873616 0.04130007 -0.04895756 0.05105051 -0.016704535 0.0201678 0.02037931 0.004053351 0.050856188 0.04322347 -0.012947257 -0.009500039 -0.043365523 0.036306355 -0.012903997 0.021787062 -0.04298282 0.04660799 -0.03827917 0.014714804 0.02829268 0.027383357 0.045309305 -0.0021598246 0.05653015 0.034389954 0.00026989877 -0.0049051913 0.08167321 0.029491726 0.014080762 -0.033770617 0.006489006 -0.03266736
were -0.00458461 0.022387056 0.007253889 0.0023380036 0.02503322 -0.06422929 0.03223019 0.09269742 -0.026250565 -0.04723052 0.018716427 -0.04181241 -0.0126287 0.01198886 0.005935919 -0.024428988 -0.0043792105 -0.05332517 -0.019057693 -0.0897925 0.0044593276 0.008575377 0.027352665 -0.025741702 -0.003239659 0.0054649785 -0.011313071 -0.006288467 -0.03250981 0.014049796 0.025626391 -0.01089025 0.030089825 -0.018572567 -0.024198862 0.051673733 0.0041198665 -0.038264494 -0.02250275 -0.05192714 0.00774564 -0.047861494 -0.023646927 -0.0073389234 0.04970722 -0.009952858 -0.00901876 -0.017848192 0.019008063 0.032643296 0.02842847 -0.01768169 0.0080392035 -0.00770354 -0.0076242234 0.012606994 0.013721925 -0.0009074369 -0.045872986 0.026263574 0.0037649444 0.0019104688 0.021357495 -0.02541664 -0.041633304 0.029068535 0.048538763 0.049280446 -0.05879272 0.04606631 -0.005899437 0.012883847 0.032526936 -0.0035256655 0.0371526 0.030131081 -0.011245264 -0.005324377 -0.050408624 0.018740725 -0.010775219 0.01717743 -0.043855302 0.056213815 -0.021354266 0.014435404 0.032048985 0.03234836 0.033098444 -0.0037675449 0.037803933 0.030177962 0.012940504 0.00046885436 0.073746406 0.039644033 0.029891878 -0.030489968 0.018594136 -0.027713448
sso -0.008750513 0.034570422 0.013697623 0.006544895 0.023765653 -0.083663575 0.04957797 0.11507614 -0.050565902 -0.05821794 0.007639546 -0.052981056 -0.015814751 0.026919428 0.0007566115 -0.03648803 -0.002923266 -0.06337194 -0.026197543 -0.093190074 0.006467375 0.01035932 0.027865205 -0.020951191 -0.0021399264 0.0033392105 -0.009946718 -0.021492433 -0.044152502 0.016365219 0.036891703 -0.011193245 0.02373005 -0.026101636 -0.037625827 0.07441502 0.0067357547 -0.033820983 -0.027760461 -0.06699193 -0.0014046279 -0.050596215 -0.02555758 0.0026947157 0.060343876 0.0006169917 -0.019646145 -0.017955495 0.016292011 0.02746194 0.037969213 -0.0031148696 0.0028591212 -0.026019607 -0.018606866 0.021919802 0.006125338 -0.01314901 -0.051460534 0.021424446 0.004413102 -0.0047586206 0.01742079 -0.030558767 -0.04448208 0.0344784 0.05072969 0.046243656 -0.057349317 0.050706506 -0.007869521 0.017471869 0.01916508 0.0015355629 0.058580052 0.039792318 -0.014822884 -0.009580271 -0.048654042 0.029313853 -0.011634837 0.019903902 -0.03774213 0.049251013 -0.029262858 0.014366344 0.042039305 0.03271146 0.050782263 -0.0067601902 0.048907146 0.02744685 0.017703565 -0.0018663475 0.079855524 0.04621397 0.019672588 -0.047653742 0.021412177 -0.027237728
using -0.014999609 0.03307576 0.012793766 0.00031666158 0.021807242 -0.080290765 0.03611376 0.112487994 -0.03505252 -0.050911542 0.013229881 -0.065869816 0.001969748 0.024850626 0.002603222 -0.04417799 -0.00357709 -0.051003627 -0.031286307 -0.09276103 0.022229835 0.015906112 0.02037832 -0.018980816 -0.012365614 0.000379212 -0.009615785 -0.0245182 -0.04141755 0.0061228885 0.02179868 -0.003880829 0.029804455 -0.021805648 -0.041442484 0.07238153 0.010077168 -0.04578985 -0.03186478 -0.060776565 0.015557641 -0.045830265 -0.014273952 -0.01121279 0.053813227 0.004837815 -0.01544214 -0.022994764 0.023088215 0.0273544 0.029824622 -0.019490344 0.0093331 -0.020071913 -0.010836023 0.018246742 0.018742405 -0.004627786 -0.040013243 0.014095281 0.015246948 -0.0017957591 0.021883892 -0.035496693 -0.050259974 0.040791098 0.045971494 0.050137937 -0.06459855 0.05183257 -0.0030045998 0.016255945 0.034165658 0.0006617269 0.05464495 0.05310027 -0.00920418 -0.008474907 -0.06505109 0.038768195 -0.023184683 0.028855884 -0.04692773 0.06582047 -0.02851026 0.013776102 0.040898338 0.043570112 0.04307841 -0.005969152 0.052673254 0.032874227 0.015596379 7.8995436e-05 0.08354062 0.05138601 0.014898366 -0.04168165 0.0075338176 -0.019282173
microsoft -0.0027511967 0.023620388 0.020021526 0.004005999 0.01322174 -0.06336767 0.03449368 0.078769006 -0.03469198 -0.04335921 0.014180539 -0.038123887 -0.006243951 0.01657837 0.0006187479 -0.03082451 -0.0076698917 -0.043449182 -0.01901994 -0.07061298 0.01695408 0.012984362 0.025261572 -0.027414057 -0.008890807 -0.00023386891 -0.0066258297 -0.004546971 -0.03720852 0.0070884884 0.029825218 -0.00062048156 0.02066336 -0.020137796 -0.018251963 0.046177667 0.0051228763 -0.03613046 -0.032649107 -0.053013444 -0.003146483 -0.036302883 -0.022029769 -0.0037084792 0.045829628 0.0025497014 -0.01158218 -0.018034562 0.027644321 0.023186479 0.035922185 -0.0016754142 -0.0032508178 -0.024109524 -0.0062460927 0.018186342 0.008220641 -0.00114156 -0.043248992 0.012717959 0.002077165 0.006745194 0.013853845 -0.036643103 -0.04126021 0.03181721 0.036759958 0.032878976 -0.048988454 0.03742132 -0.013781947 0.012019545 0.026515655 0.0020028118 0.034286108 0.038012408 -0.002613233 -0.014782581 -0.052774623 0.029821718 -0.025678234 0.022136837 -0.045595553 0.054302935 -0.034137245 0.003416121 0.029320031 0.02885114 0.04055471 -0.0012007803 0.0419083 0.03161684 0.013546791 0.0030176437 0.0641735 0.033800006 0.02179001 -0.022723088 0.0051704776 -0.030575896
apple -0.010162334 0.053407505 0.0132781705 0.005436487 0.02731459 -0.081368 0.061769836 0.11994328 -0.043887675 -0.048544418 0.016922416 -0.076042175 -0.003885108 0.017685425 -0.0005728175 -0.038268473 -0.0020167334 -0.054710224 -0.03390611 -0.11224567 0.012579681 0.004454499 0.019973641 -0.02340541 -0.017189484 0.010791156 -0.016668115 -0.02473754 -0.050546344 0.002533983 0.027005158 -0.0028772587 0.038336918 -0.02642821 -0.04486135 0.085714445 0.025414383 -0.034405284 -0.047936898 -0.06659179 0.002354523 -0.047268502 -0.019958455 -0.005251718 0.06478442 -0.009748997 -0.014691032 -0.019124568 0.032024577 0.038867123 0.041761585 -0.010821593 0.00336895 -0.027506111 -0.020958759 0.012902243 0.014283911 -0.006935668 -0.04834273 0.02042922 0.012812573 -0.004674785 0.017979806 -0.04231232 -0.046824887 0.031738333 0.055438787 0.064830154 -0.069420695 0.052804712 -0.007615443 0.021952692 0.031965584 0.010507759 0.06271896 0.05428754 -0.0070587303 -0.010135464 -0.05698756 0.039006818 -0.029452832 0.025317216 -0.053323776 0.05886404 -0.040175915 0.005124603 0.04302348 0.04722159 0.050897107 -0.01158628 0.05206885 0.044745695 0.017550882 0.00724685 0.10893079 0.05152836 0.034259427 -0.035985004 0.011318009 -0.030166876
more -0.013970628 0.037930816 0.026872825 0.0010484142 0.030655619 -0.09322393 0.06240869 0.12767443 -0.051256437 -0.060612135 0.010866083 -0.07245244 -0.012172974 0.0157745 0.0018999275 -0.040811453 0.0011979243 -0.060454264 -0.033670586 -0.12051624 0.008165157 0.019844364 0.03804732 -0.03577827 -0.0063671274 0.018077403 -0.02637122 -0.021352837 -0.058263056 0.012422231 0.03341478 -0.0010182149 0.038959228 -0.028498506 -0.051716506 0.08251528 0.008805349 -0.055681884 -0.048797023 -0.074858904 0.008691686 -0.055754732 -0.028458059 0.0072305487 0.069231436 -0.007994112 -0.011001899 -0.03394213 0.025834143 0.036673535 0.04616358 -0.019485427 0.010184091 -0.020557778 -0.033934508 0.018271675 0.0075612166 -0.0044575315 -0.05921887 0.021164369 0.021214861 -0.0005251006 0.026978116 -0.037707135 -0.05785389 0.04634563 0.05147179 0.054783817 -0.07848984 0.060152188 -0.023330601 0.030690677 0.039227847 -0.0064662364 0.06282615 0.05932242 -0.018679872 -0.003719586 -0.07570136 0.04446708 -0.020282876 0.03271951 -0.06391715 0.06858392 -0.045246787 0.015872966 0.054784164 0.042640105 0.04103926 -0.024457986 0.06302289 0.044428837 0.01277768 0.0017487339 0.113944426 0.05196479 0.035641134 -0.042646155 0.0056616524 -0.032480475
analysis -0.021273008 0.029780507 0.013973083 0.011711362 0.026519414 -0.0653965 0.041132938 0.09614369 -0.037123382 -0.044440914 0.010241264 -0.05969862 -0.012308341 0.02043252 -0.005583876 -0.046069536 -0.009910114 -0.04604383 -0.024087174 -0.08756785 0.022523632 0.0039252685 0.029492773 -0.020662572 -0.0032588057 0.0034820104 -0.0070363446 -0.020510595 -0.032637525 0.014560574 0.029920727 0.0024012888 0.030606346 -0.0144648515 -0.026243906 0.06755231 0.012122643 -0.029788094 -0.026955288 -0.06326529 0.009173703 -0.045618393 -0.016645167 -0.0069226823 0.04431088 -0.002464142 -0.012331347 -0.02635623 0.0296901 0.0244266 0.043505374 -0.009437843 0.014922124 -0.02207504 -0.023362106 0.022251874 0.0095230425 -0.00076227105 -0.053459127 0.025491599 0.011607393 -0.00071318797 0.022238983 -0.03736328 -0.04757674 0.022621956 0.05091061 0.05306788 -0.06354828 0.057070136 -0.008713924 0.01194472 0.025740338 0.0044998564 0.038762435 0.045468073 -0.003283254 3.700019e-06 -0.04972489 0.03154633 -0.02349803 0.020300278 -0.03611675 0.04940916 -0.03821623 0.0092184255 0.044017766 0.030722486 0.043867085 -0.010456357 0.04798191 0.02630395 0.0019705333 0.0064943195 0.075915314 0.04791258 0.020970402 -0.047301646 0.005374247 -0.017336441
but -0.0152408425 0.04352784 0.008217236 -0.004116544 0.022429481 -0.07428687 0.037158545 0.09322878 -0.05025087 -0.047766764 0.01804762 -0.06676577 -0.01152149 0.017977562 0.0051548854 -0.045886498 0.006796588 -0.06378831 -0.023580642 -0.086091265 0.018903257 0.017780297 0.033981428 -0.02048828 -0.01648633 0.013049153 -0.02518472 -0.021238403 -0.03441294 -0.00041544714 0.024666678 -0.006399022 0.027737247 -0.0113376975 -0.032158747 0.07122938 0.011184493 -0.03330741 -0.03959218 -0.06261079 -0.00016171354 -0.045684442 -0.017549776 0.003345317 0.044315256 -2.7569376e-07 -0.008311835 -0.026038555 0.018356532 0.027289923 0.03358629 -0.0039017412 0.01582758 -0.008846232 -0.0107387975 0.010625232 0.012234265 -0.014639142 -0.053075213 0.014426916 0.016074758 9.9454664e-05 0.01290892 -0.027592858 -0.04254164 0.032058153 0.045210704 0.044747274 -0.060734402 0.055866152 -0.010418285 0.012168974 0.032440964 0.0016000319 0.043573834 0.05133654 -0.013184375 0.00071638776 -0.060086608 0.021130513 -0.025209859 0.022935979 -0.04533824 0.055109013 -0.03212876 0.017654685 0.036501966 0.041272186 0.038625322 -0.012137878 0.051164083 0.032921825 0.005596273 -0.0010036979 0.0866928 0.044159826 0.014294177 -0.03221427 0.008758803 -0.028241925
databases -0.022179378 0.04264191 0.017231641 -0.0041471412 0.034518886 -0.10376221 0.051421717 0.12345372 -0.04321038 -0.061173875 0.0055165216 -0.06803855 -0.015764702 0.019161126 0.0055721053 -0.054808576 -0.00979942 -0.07673202 -0.028629197 -0.113302134 0.019693054 0.016644353 0.03704458 -0.034715157 -0.0021044526 0.015719894 -0.017270828 -0.009765523 -0.05986229 0.010510684 0.048177812 -0.0043409443 0.024694853 -0.022817764 -0.04641241 0.081410155 0.015547371 -0.04072709 -0.0413417 -0.073444925 0.0053995876 -0.050224707 -0.034907013 -0.011399636 0.058523253 -0.009171111 -0.026439939 -0.024629675 0.030811789 0.03718852 0.053410254 -0.0170828 0.012984458 -0.02246995 -0.017391685 0.03305975 0.01443584 -0.0073542264 -0.0675206 0.02515837 0.008896264 -0.00011348798 0.019815668 -0.049177818 -0.054425582 0.042979114 0.053281013 0.06350893 -0.068915576 0.06589668 -0.019575084 0.031563636 0.0443473 0.00091501174 0.059646353 0.046429943 -0.015766017 -0.0091666775 -0.06695324 0.036305394 -0.03511857 0.04030444 -0.06472528 0.08201836 -0.041517213 0.009119608 0.051291317 0.055744402 0.04549795 -0.022142781 0.07691522 0.04676945 0.023222743 -0.006177191 0.10893009 0.061425094 0.029245436 -0.051193222 0.006705112 -0.038414568
was -0.017702503 0.041230887 0.013716943 -0.00385277 0.031852413 -0.06811412 0.037464876 0.08854686 -0.033978455 -0.045859292 0.008747403 -0.053542875 0.0039203726 0.021087103 0.002411416 -0.038404956 0.0023793303 -0.047117706 -0.030726947 -0.08926319 0.008280406 0.012497177 0.013881328 -0.026305322 0.00013420384 0.0023412781 -0.006582976 -0.012533045 -0.04050572 0.0012458046 0.026061922 0.0022472471 0.014845109 -0.019827146 -0.037022714 0.0644444 0.009215563 -0.028719235 -0.030108623 -0.060677096 0.005714796 -0.039885625 -0.016016483 -0.0097999945 0.036077533 -0.007794651 -0.011497093 -0.021232588 0.020047817 0.028149229 0.037893455 -0.008679561 0.0042012935 -0.015462253 -0.022994092 0.0098652495 0.019593727 -0.00975327 -0.05135449 0.024107762 0.01967153 -0.0008611059 0.019259 -0.034572195 -0.042131882 0.018800365 0.03439283 0.032714654 -0.057091586 0.050322328 -0.0018413492 0.013844103 0.023666698 0.008237882 0.041872278 0.032583017 -0.005422004 -0.0039594797 -0.05196777 0.020448677 -0.008366128 0.031431735 -0.04762517 0.044180863 -0.030700698 0.011485888 0.024707872 0.041925218 0.030067423 -0.0063714935 0.055156868 0.031813685 0.013520053 -9.856171e-05 0.06500931 0.0373308 0.020052891 -0.043465864 0.01694291 -0.029184135
digital -0.01084036 0.040272582 0.011901668 -0.0035413946 0.040366553 -0.09628118 0.05835808 0.122055635 -0.040342506 -0.04941303 0.023173902 -0.061576597 -0.015244057 0.010217864 -0.0028745555 -0.045584183 0.004137348 -0.06246764 -0.03667146 -0.1107609 0.010972241 0.006486647 0.0350821 -0.039334014 -0.01019482 0.0030700383 -0.012276268 -0.021252641 -0.044932853 0.0029561582 0.046845037 -0.0089368615 0.033292547 -0.01625562 -0.032924876 0.07346751 0.012869441 -0.05170717 -0.03239465 -0.07805062 0.014326132 -0.0567963 -0.018898584 -0.008866917 0.059625506 -0.0021370607 -0.028877037 -0.015489877 0.024872066 0.040627357 0.04559018 -0.009764948 0.01220709 -0.012598927 -0.032996383 0.03206389 0.024543146 -0.0067488737 -0.052679412 0.032051142 0.019902322 -0.003656914 0.026681079 -0.041218597 -0.047671586 0.046431307 0.051483996 0.057345685 -0.07891881 0.05644374 -0.024940645 0.024300706 0.030621013 0.00015302662 0.06246525 0.043378264 -0.009279178 -0.010685659 -0.07087443 0.02703875 -0.03214539 0.040825848 -0.061864693 0.07465651 -0.048708994 0.014013771 0.04823747 0.036327947 0.043419942 -0.022962764 0.052961297 0.03697243 0.008595528 0.0039617843 0.10322255 0.043014236 0.025267262 -0.049544312 0.0057898555 -0.036953628
lens -0.017923253 0.033539467 0.010830007 -0.0021217167 0.033465847 -0.09017875 0.045684174 0.120663196 -0.039451115 -0.059585907 0.019153811 -0.07220075 -0.006221673 0.025189219 -0.001197197 -0.031852644 -0.000877253 -0.05626336 -0.024461746 -0.115236804 0.0077349027 0.0044860407 0.027672747 -0.03388004 -0.010489779 -0.0004957256 -0.018076792 -0.017504517 -0.038934622 -0.00065982784 0.030265791 0.003212172 0.036357462 -0.020445725 -0.037613045 0.06698711 0.01572749 -0.050020836 -0.04346336 -0.0657105 0.008566087 -0.04521316 -0.034714036 -0.00025505587 0.056893855 -0.0068545993 -0.01783468 -0.016808312 0.018357068 0.031721894 0.046124186 -0.012270362 0.012076135 -0.011775439 -0.015440513 0.02455122 0.021585746 -0.01600216 -0.045834847 0.030114343 0.0083952965 -0.004799003 0.028573848 -0.033962138 -0.058818545 0.03546714 0.053920794 0.054364912 -0.056578018 0.046269704 -0.0047247554 0.009963264 0.037036955 0.010104687 0.047948178 0.03900867 -0.0038957547 -0.016899018 -0.069114566 0.03141571 -0.029295998 0.03812597 -0.0421302 0.064787276 -0.032653853 0.023079393 0.047479704 0.045727096 0.050752446 -0.0073627476 0.06294734 0.04512083 0.0036269955 0.012132005 0.10429743 0.056501973 0.016832728 -0.04681851 0.011249888 -0.022827893
apps -0.021237737 0.035876814 0.022697534 0.014884385 0.023563752 -0.07057738 0.049173083 0.096770294 -0.038011298 -0.054912902 0.011136481 -0.051236834 -0.0010821312 0.005927689 -0.00393077 -0.03259092 0.0011642585 -0.057987668 -0.021438736 -0.08902289 0.0043019475 0.020923939 0.016814446 -0.026509319 0.001041126 0.007764712 -0.022037068 -0.013069777 -0.043226134 0.00086170423 0.021471068 0.0025855734 0.014191627 -0.012112383 -0.038939144 0.06937646 0.008133915 -0.042418186 -0.024553875 -0.06754015 0.0088832285 -0.04682525 -0.028137077 -0.009004917 0.05449493 -0.005748712 -0.01131998 -0.029769735 0.023417175 0.02497661 0.030796332 -0.0154828215 -0.0005046339 -0.020637503 -0.021979215 0.01598931 0.0064416802 -0.016233908 -0.04072361 0.021848593 0.018620575 0.002934368 0.02781899 -0.037904605 -0.051240914 0.032043844 0.0379026 0.052180015 -0.047591962 0.04703868 -0.0051467684 0.025508555 0.030744765 0.0059949984 0.054108445 0.042623326 -0.017394962 -0.015389017 -0.05559132 0.026887367 -0.010575647 0.016530046 -0.045925472 0.0640213 -0.036720417 0.002631379 0.03870367 0.029579297 0.03357087 -0.018653937 0.050581418 0.041508544 0.014916834 0.011813674 0.09214783 0.044987094 0.016643198 -0.029785557 0.0003244491 -0.029188491
drive -0.0033331646 0.040237587 0.009740845 -0.0038914457 0.032370005 -0.06850625 0.03423183 0.095852554 -0.030399904 -0.037145894 0.008358033 -0.041520998 0.0033156457 0.021448046 0.010845741 -0.0377866 0.0004834714 -0.04870122 -0.018345913 -0.07256618 0.015616937 0.013956727 0.028089462 -0.015012833 -0.0076924777 -0.0024877163 -0.016433839 -0.0036101153 -0.03935084 0.007650179 0.031094499 -0.009573935 0.029263157 -0.012599258 -0.027636958 0.06526515 0.013774807 -0.031487685 -0.03708796 -0.042551413 -0.0030816356 -0.03127155 -0.013802761 -0.0013636929 0.034871567 0.0081355795 -0.015915276 -0.01225584 0.016249657 0.019513672 0.032880772 -0.018868906 0.00039024197 -0.02523782 -0.012293874 0.01685492 0.010179058 -0.0009352229 -0.043053005 0.01284851 0.013619788 -0.0062388997 0.017262354 -0.020931395 -0.038709834 0.033338964 0.046742193 0.03799539 -0.055442523 0.050349534 -0.009027538 0.014709128 0.02433221 -0.0043617412 0.043719623 0.034198564 -0.0034815955 -0.01039381 -0.04868727 0.028989756 -0.024737554 0.020795224 -0.047427386 0.051091738 -0.029854842 0.013241881 0.033481788 0.03219797 0.037125576 -0.011594103 0.05118218 0.027244728 0.0036415728 -0.0029592211 0.064712614 0.02844523 0.023143718 -0.029392855 0.0034598568 -0.03142266
world -0.01825611 0.039256684 0.0070063476 0.009914221 0.032089498 -0.0637726 0.032993972 0.09740155 -0.04393108 -0.034236807 0.0054619187 -0.056140278 -0.00033203576 0.014266285 0.0067351256 -0.038630836 0.0043989695 -0.060738526 -0.019899217 -0.09006982 0.005623517 0.010166067 0.022284694 -0.023129052 -0.010270557 -0.0029881562 -0.0231049 -0.020372536 -0.046016116 0.0022910999 0.037678033 -0.004235555 0.015112784 -0.02102681 -0.02832092 0.058277335 0.011125025 -0.03941264 -0.023584679 -0.064682394 -0.0007577039 -0.03520581 -0.027421411 0.0008075026 0.045912318 0.008561845 -0.011002388 -0.016556228 0.023322746 0.028218307 0.037209056 -0.014458053 0.011903373 -0.010087487 -0.009249426 0.017027099 0.010221201 0.00024669679 -0.0530334 0.020978853 0.005094161 0.004218445 0.009198893 -0.029386615 -0.031438813 0.026892439 0.036515977 0.03600017 -0.05052828 0.03925922 -0.005468742 0.014967682 0.0334629 0.0004439391 0.03658272 0.034386165 -0.007711538 -0.011520273 -0.044708934 0.022609217 -0.024649834 0.026053537 -0.04668142 0.044436123 -0.039255586 0.009620826 0.035521023 0.037781205 0.04423971 -0.004979846 0.054289248 0.03309907 0.0038300916 0.012434605 0.07910683 0.043821406 0.020553455 -0.029700996 0.015241387 -0.03086983
database -0.015380246 0.035054114 0.018907594 -0.0044073206 0.030988088 -0.068355754 0.041693036 0.09424363 -0.047282103 -0.036709204 0.0011439624 -0.06300533 -0.0010168205 0.0067966064 -0.0021083935 -0.03753057 -0.0030532547 -0.06000487 -0.02255301 -0.09035963 0.0158667 0.009503074 0.031357024 -0.032765254 -0.0027217548 0.0012728466 -0.014593915 -0.021397462 -0.040978625 0.00034228346 0.025412021 0.0072001494 0.026343798 -0.014185662 -0.038887497 0.06858207 0.0047890074 -0.038475517 -0.037080433 -0.064803004 0.009593613 -0.04767394 -0.019078143 0.0029989057 0.040288158 -0.0031133017 -0.018733643 -0.029004516 0.011329864 0.028275864 0.040623583 -0.012004227 0.0034964737 -0.013518064 -0.017205745 0.008980961 0.019079292 0.0015925848 -0.05349826 0.02182438 0.018175745 -0.0032294928 0.018609988 -0.03778496 -0.03515241 0.03756366 0.048616316 0.04079604 -0.05733721 0.041755058 -0.022335006 0.024914913 0.025314553 -9.5253534e-05 0.051336545 0.03171406 -0.0023586801 -0.014377676 -0.05846651 0.032424003 -0.023010248 0.022253472 -0.049201205 0.05029121 -0.03787012 0.0074642957 0.045778096 0.04472467 0.038557444 -0.011844282 0.043895457 0.04162629 0.005233576 0.009376545 0.091601625 0.04602625 0.021418858 -0.030556703 0.01683263 -0.027852938
results -0.0077129644 0.030017346 0.01705811 0.003029924 0.019851867 -0.05429179 0.018708967 0.059873566 -0.031690113 -0.029293759 0.0024167844 -0.037241727 0.0040500774 0.020438075 0.00904162 -0.021345623 -0.003305797 -0.03227278 -0.020640811 -0.069951765 0.015172512 -0.0015872658 0.020093035 -0.019342603 -0.011545705 0.003292384 -0.017066352 -0.0009583897 -0.03240066 -0.0042217313 0.025355564 0.00286943 0.02028827 -0.0079428395 -0.025605911 0.03666272 0.010540095 -0.015788523 -0.026076885 -0.04112987 0.0066632493 -0.022568429 -0.020093726 -0.005382368 0.028848471 0.00060063746 -0.0051109795 -0.007374607 0.005569551 0.024903981 0.02163663 -0.01081349 -0.0034536112 -0.017098393 -0.0030987766 0.015193045 -0.0003742312 -0.001354897 -0.037774257 0.005504878 0.011963713 0.0018443388 0.013897468 -0.013543657 -0.021391295 0.01474848 0.03364252 0.03291328 -0.034633648 0.03893446 -0.015469603 0.008576617 0.018564336 0.00718471 0.02872218 0.03555395 -0.010426173 -0.013472635 -0.04249205 0.013758773 -0.003343766 0.011902832 -0.03346235 0.044476215 -0.030776706 0.009742709 0.029928742 0.015871534 0.02542598 -0.010464062 0.0387234 0.018077059 -0.0002153699 0.012187013 0.050205015 0.03479134 0.006459851 -0.017337196 0.0031411834 -0.023945477
between -0.015135923 0.035400625 0.015786735 0.004131496 0.021413028 -0.07999876 0.04192761 0.112607956 -0.03682436 -0.04928254 0.005625973 -0.05391478 -0.014585236 0.018426817 0.00579343 -0.040112108 -0.005353924 -0.06470346 -0.03728957 -0.09091975 0.01667596 0.010902748 0.03599958 -0.033324458 -0.009066036 0.00656844 -0.025267622 -0.025042241 -0.03418015 0.003932348 0.02341557 0.0053252797 0.018709436 -0.019969573 -0.033499267 0.063813485 0.005644695 -0.04235095 -0.041952785 -0.06072237 0.003227546 -0.04687814 -0.020280056 -0.0039133546 0.059421863 0.005369362 -0.017127613 -0.021795696 0.023916917 0.035258275 0.04778651 -0.014794849 0.006685739 -0.02145214 -0.02007971 0.013152776 0.010903392 -0.015870614 -0.048483696 0.025741119 0.01695973 -0.0033213524 0.026365552 -0.042982742 -0.03473093 0.032501183 0.052051943 0.053035896 -0.058479384 0.051822416 -0.011826546 0.008199838 0.024841553 -0.0019809217 0.03816916 0.047665395 -0.0043663825 -0.009318904 -0.049005456 0.028345082 -0.02103027 0.03254588 -0.054744203 0.05139377 -0.030348806 0.005594155 0.047150664 0.043631054 0.033659592 -0.0044193515 0.059862617 0.029262224 0.0019883395 -0.006009387 0.09232539 0.049748953 0.021928547 -0.03794784 0.0020499744 -0.03070628
market -0.008707124 0.028953968 0.008301102 0.0064296974 0.019473324 -0.08445393 0.0509318 0.114121005 -0.050142657 -0.04026161 0.020127252 -0.055485662 -0.01058865 0.026637781 -0.006746753 -0.042263255 0.0013860072 -0.06465085 -0.039060142 -0.09582677 0.021571852 0.0062711556 0.0220204 -0.021451568 -0.00890546 -0.0016941741 -0.010221975 -0.018612068 -0.03803681 0.011189381 0.040714167 0.005946138 0.03258656 -0.02515105 -0.03477818 0.06710244 0.0148650175 -0.030415475 -0.028025726 -0.07165622 0.01811842 -0.048624557 -0.022250477 0.003936536 0.044564236 -0.0013700805 -0.015442952 -0.01394316 0.027111346 0.027005276 0.030497843 -0.017293733 0.018236054 -0.027980387 -0.010361792 0.019677408 0.011420696 0.0029615448 -0.03966687 0.03273754 0.022339266 -0.010338985 0.028188063 -0.04633649 -0.05292732 0.023641849 0.052419797 0.056590326 -0.06656501 0.046892308 -0.01633128 0.013580869 0.02699685 0.0054701827 0.05152774 0.041436315 -0.013957704 -0.009414316 -0.060996182 0.03337461 -0.010977954 0.03600325 -0.054484174 0.05199514 -0.047002375 0.0068629594 0.04306205 0.031928767 0.043925345 -0.004026799 0.057221323 0.038153667 0.02001094 0.010693147 0.08773006 0.037092373 0.023386398 -0.032244064 0.018830813 -0.030307993
surveillance -0.00029121494 0.030567981 0.018497791 -0.0015179429 0.025086254 -0.05632321 0.023585025 0.08264944 -0.041037556 -0.04211514 0.0108962925 -0.03467448 -0.006549655 0.0194364 0.006357774 -0.024228364 -0.0069532567 -0.036936983 -0.029824806 -0.07681479 0.015007383 0.00020505991 0.024853235 -0.02164929 -0.006756258 -0.0023903833 -0.019169588 -0.014907793 -0.021934409 0.010891697 0.01337103 -0.008406318 0.021753527 -0.021220364 -0.019824114 0.0562075 0.0010531727 -0.019899642 -0.016615538 -0.047856588 0.007607468 -0.040887877 -0.010437982 0.0067659533 0.041262176 -0.010228857 -0.0073889634 -0.01829208 0.014608277 0.027232861 0.030591242 -0.0045191227 0.0002449727 -0.008524791 -0.018852033 0.013467508 0.015379824 -0.0011335007 -0.028976334 0.013786448 0.013218204 0.007151781 0.011413406 -0.021428902 -0.04243258 0.0326694 0.04098434 0.041622903 -0.039045762 0.041020602 -0.013208142 0.007312523 0.018383835 0.0019439695 0.03240625 0.024320262 -0.012935759 0.002898988 -0.032169014 0.027623836 -0.019859092 0.020980721 -0.04264469 0.05008318 -0.027797198 0.016197072 0.023185147 0.024948165 0.03367304 -0.0055352524 0.03287631 0.01939523 0.010007024 -0.0063836994 0.07134295 0.038037304 0.013940211 -0.034855343 -0.00030480657 -0.020491429
scholar -0.0037789014 0.029414577 0.005678399 0.012800917 0.013804882 -0.05409646 0.041579496 0.08228964 -0.0413504 -0.03109824 0.00035002394 -0.051105473 0.0045591635 0.0044757794 -0.0063427472 -0.034512155 0.0032884916 -0.041704252 -0.028215194 -0.07944419 0.018409023 0.018766671 0.030427525 -0.017973056 -0.0029926028 0.006950895 -0.011521014 -0.006949962 -0.029814908 0.0062018028 0.021055624 -0.008288933 0.027310299 -0.019265298 -0.024435999 0.051107787 0.007138871 -0.03517535 -0.022041388 -0.054091536 -0.0018866314 -0.039352853 -0.012179942 0.0047612735 0.03734599 0.0062099854 -0.02052715 -0.020951947 0.009689882 0.016465658 0.037410583 -0.01945305 -0.0023426118 -0.023644786 -0.0067287385 0.012292237 0.010840757 -0.011503698 -0.040355805 0.01838617 0.0071393503 -0.0074703535 0.0092107365 -0.025421364 -0.044497326 0.02625595 0.036652036 0.0464491 -0.0464909 0.04465353 -0.017427111 0.0062649865 0.027475873 0.0016375539 0.0315599 0.03180088 0.001786184 -0.0145135755 -0.047729068 0.023398563 -0.016701054 0.031006798 -0.03731693 0.037886266 -0.036978394 -0.00016898646 0.022125617 0.023320973 0.02604512 -0.011557966 0.04108772 0.023122163 0.010671217 0.0065879202 0.0777584 0.029389346 0.024290696 -0.02274739 0.0041909483 -0.027725846
storage -0.021823818 0.044537663 0.030779747 0.016005874 0.046942778 -0.11307033 0.06650024 0.14752607 -0.052285023 -0.073965624 0.015400794 -0.08731093 -0.017278386 0.025184702 0.012976846 -0.045076244 -0.007819531 -0.07355217 -0.043956634 -0.12284098 0.0077340035 0.025385963 0.028207479 -0.040860828 -0.0108510265 0.00878927 -0.031747133 -0.021118397 -0.05530817 0.0039857896 0.04801827 -0.00074518856 0.042423148 -0.015229627 -0.054488577 0.09594321 0.025343198 -0.04660347 -0.039213605 -0.08932552 0.015208938 -0.062911235 -0.030145628 -0.008878861 0.07007832 0.0028712177 -0.032945048 -0.019257117 0.033887543 0.038901262 0.04930188 -0.016673967 0.01754328 -0.01982752 -0.034406867 0.03455553 0.017616076 -0.017898772 -0.05707187 0.037540324 0.021302173 0.0075492756 0.01968669 -0.05438499 -0.06272402 0.040107604 0.066489175 0.066081576 -0.089419916 0.06861481 -0.015528036 0.023417234 0.042143073 0.0025013052 0.070469454 0.05773502 -0.003390442 -0.010657703 -0.07403689 0.035907518 -0.021855883 0.040524956 -0.061689302 0.08855648 -0.059348695 0.027247634 0.05298542 0.049378287 0.051897142 -0.026556073 0.070014864 0.0512014 0.02040814 0.013513192 0.11088636 0.06776858 0.02457301 -0.04993244 0.022598306 -0.037550475
citation -0.02312456 0.032191876 0.01999278 0.0043939045 0.021023205 -0.078944564 0.050572846 0.11664296 -0.04059445 -0.048503682 0.0018025186 -0.057586957 -0.0024222152 0.009995084 -7.750563e-05 -0.040654156 -0.0012080296 -0.061136268 -0.03667738 -0.10477663 0.018128643 0.011639486 0.029000321 -0.02386765 -0.014427154 -0.00014867504 -0.008608972 -0.026363969 -0.046697993 0.0072840317 0.025442041 -0.0011664381 0.034518994 -0.019241506 -0.029350907 0.0722 0.009282712 -0.0432826 -0.035985433 -0.060009312 0.015619387 -0.044168472 -0.030249884 -0.008802028 0.060025148 0.00069972995 -0.012133727 -0.021645311 0.032258287 0.021420848 0.05148198 -0.022042101 0.006921085 -0.012943048 -0.031789113 0.02543979 0.0067556873 -0.014490136 -0.049853742 0.027327642 0.010925706 0.007512104 0.014641926 -0.03793017 -0.039306164 0.03669592 0.046232067 0.05609758 -0.06849599 0.053617626 -0.011216701 0.026487898 0.037514344 -0.0042927144 0.059948593 0.042315766 -0.0021655164 -0.01536318 -0.06871082 0.029642899 -0.030968366 0.025639093 -0.049580943 0.06238125 -0.050530363 0.0069201007 0.033896144 0.04081445 0.049501467 -0.01414912 0.06796678 0.034155454 0.019417068 0.0093735205 0.10257902 0.046879847 0.026121497 -0.040011406 0.0014400514 -0.018427161
which -0.0151219405 0.042274777 0.018395228 0.007813558 0.024363242 -0.080672696 0.043186307 0.09938488 -0.04917918 -0.048165962 0.00748028 -0.05965827 -0.001400519 0.017431209 0.0055610705 -0.041751374 -0.006735176 -0.047392596 -0.019750468 -0.08469961 0.017076086 0.0030942315 0.03215191 -0.03002516 -0.016200183 0.014892224 -0.01841563 -0.023681408 -0.040929187 0.012843422 0.025898535 0.0026436078 0.023171138 -0.011294881 -0.031408407 0.052646097 0.008845987 -0.026541963 -0.028615698 -0.06333926 0.014525569 -0.035876147 -0.013800734 -0.0009211049 0.037188105 -0.004688664 -0.0100329835 -0.025775125 0.030667065 0.01643706 0.02758679 -0.01724955 0.014083512 -0.024697024 -0.009815968 0.008246022 0.015266119 -0.0029340205 -0.04519012 0.032033715 0.017393472 -0.00017116887 0.023537006 -0.026959712 -0.037939068 0.039079744 0.04442329 0.036490723 -0.059066575 0.043699972 -0.019764032 0.014743527 0.033598285 -0.004386681 0.048800245 0.045075722 -0.009790657 -0.005426682 -0.046565242 0.020454558 -0.015135577 0.0344093 -0.046095815 0.045850053 -0.04390808 0.002514855 0.039618004 0.040230114 0.045511797 -0.013337775 0.050293975 0.036111712 -3.554638e-05 -0.0063755573 0.085704826 0.03130768 0.019164812 -0.04025533 0.01594663 -0.027235435
new -0.0057278173 0.04530511 0.01564002 0.0023499806 0.03436732 -0.096265584 0.061174992 0.13303834 -0.045752432 -0.064898685 0.006359194 -0.069706835 -0.007831851 0.014160804 0.010469544 -0.03883597 -0.0057469225 -0.06436864 -0.028594378 -0.11350667 0.024629742 0.01257409 0.024549061 -0.030149005 -0.019734958 0.018521676 -0.02950584 -0.019619972 -0.051160593 0.012345585 0.041593112 -0.011486767 0.024872039 -0.019297475 -0.037091013 0.08559797 0.014958844 -0.046892066 -0.04717443 -0.06894072 0.0017365994 -0.051776897 -0.030278858 -0.009784857 0.066508114 -0.0023186433 -0.03055276 -0.033882253 0.028152512 0.024839984 0.050153345 -0.011403812 0.013594123 -0.027549118 -0.01607357 0.0142594725 0.022520887 -0.00878249 -0.0598007 0.03237947 0.012871708 -0.0045891865 0.021367207 -0.049144134 -0.0529962 0.032506045 0.06394124 0.047712464 -0.07505067 0.04888472 -0.026079217 0.020483878 0.024507549 -0.004763209 0.058950342 0.050750565 -0.007899967 3.2671494e-05 -0.076944254 0.04157174 -0.03290621 0.03930832 -0.046567727 0.07787074 -0.05283517 0.0181436 0.03807114 0.043586798 0.043502674 -0.023877162 0.06869876 0.047897227 0.00827781 -0.0045470246 0.10854846 0.04716732 0.019258259 -0.051295012 0.010258225 -0.021770861
access -0.019804519 0.045226265 0.02387013 0.00016032105 0.026570229 -0.07854339 0.04808357 0.10355917 -0.044729613 -0.056795385 0.017458102 -0.06878266 -0.014922197 0.017828243 0.0049084513 -0.037854567 -0.00036168678 -0.053419434 -0.026971152 -0.08920187 0.009058282 0.004314541 0.017539581 -0.01657968 -0.0070879394 0.001163695 -0.010244943 -0.006650425 -0.032622952 0.0006463959 0.025711069 -0.0046904897 0.01795305 -0.0117532825 -0.02944503 0.06087136 0.021538064 -0.046199974 -0.026289633 -0.0663064 0.009840337 -0.050210454 -0.01860713 0.0062379027 0.048358124 -0.0067074387 -0.025169356 -0.016819619 0.026622687 0.03536149 0.034219325 -0.022766016 0.015375213 -0.022979021 -0.016187448 0.027570782 0.009187209 -0.004973679 -0.05204546 0.016936544 0.007097244 -0.0005271826 0.0126752425 -0.03774085 -0.04677925 0.03860869 0.05093136 0.054599646 -0.055203892 0.04529554 -0.018231139 0.027503408 0.03478314 -0.008398538 0.052273415 0.05222573 0.0002440839 -0.014677319 -0.058364995 0.03051251 -0.017654859 0.02587502 -0.050079633 0.06436284 -0.030580083 0.012124726 0.032577097 0.033569552 0.036199357 -0.008487514 0.053269282 0.03334986 0.0014281449 0.0015370194 0.09416643 0.049438424 0.028777147 -0.041688725 0.019580716 -0.025070488
phrases -0.008916897 0.033347346 0.006013912 0.010402272 0.030016335 -0.05193657 0.036403902 0.08018505 -0.0327657 -0.042986877 0.008997905 -0.04175474 -0.010849497 0.0142056085 0.0064986604 -0.03504506 0.0024043713 -0.033313405 -0.02991998 -0.06737786 0.0008393662 7.068051e-05 0.025952796 -0.025699431 -0.008378817 -0.002993638 -0.020330729 -0.018223982 -0.029305855 0.0070929932 0.014472713 -0.010300911 0.014641632 -0.014041068 -0.031728603 0.044668116 0.013996064 -0.024800062 -0.016876489 -0.040636297 0.004794902 -0.031980503 -0.0074983556 0.00088177546 0.038647275 0.00020932643 -0.021894798 -0.009650589 0.02174588 0.020553304 0.037132025 -0.015047324 0.00946438 -0.02131633 -0.024221715 0.016305279 0.013853151 0.0012397529 -0.044708863 0.021963883 0.0121338405 0.0037743705 0.014118797 -0.020516116 -0.024944808 0.014978457 0.025951078 0.042295177 -0.043955415 0.02618409 -0.014053914 0.014098269 0.028326482 -0.0012260325 0.033513308 0.024789423 -0.014586882 -0.0037347232 -0.04138464 0.013535629 -0.014258307 0.01062529 -0.036168683 0.046858683 -0.026140036 0.016900616 0.034967378 0.026262887 0.035386145 -0.0029933753 0.047562156 0.035397574 0.012754096 0.006861457 0.0709173 0.02976772 0.0120356195 -0.01939356 0.008951933 -0.02346643
security -0.011270702 0.024062203 0.022947947 0.007493997 0.026053205 -0.051995695 0.043306224 0.075444676 -0.039391875 -0.041141763 0.0044016815 -0.055499136 -0.005311612 0.00433567 0.010983131 -0.032869805 -0.007310683 -0.051913835 -0.025864758 -0.08492093 0.010792983 0.014329484 0.016999638 -0.011465565 -0.009280536 -0.0017570001 -0.015888693 -0.015735865 -0.03899594 -0.0037280004 0.019703623 -0.0037251466 0.024031207 -0.020861277 -0.032269295 0.05319262 0.00891897 -0.026074188 -0.027252613 -0.043447312 0.014859049 -0.044358745 -0.013542112 0.0049411333 0.038404584 0.005506453 -0.018069929 -0.02086518 0.009467432 0.031673204 0.02035839 -0.013348612 0.0059665404 -0.019138252 -0.0066158567 0.0078083533 0.0017409673 0.0038037263 -0.045956917 0.028124457 0.0060718306 0.0055262446 0.015398645 -0.03208877 -0.0419277 0.018112455 0.045280743 0.04356703 -0.045446 0.044481695 -0.0065141805 0.017765015 0.024513433 -0.009411631 0.04636693 0.025560841 -0.010183468 -0.004055574 -0.037692815 0.013697706 -0.014179936 0.027371489 -0.044362348 0.054212976 -0.034099843 0.018927447 0.022826323 0.035934143 0.04162385 -0.019397106 0.04101899 0.020007715 0.016449358 0.012171615 0.061129823 0.033893164 0.016696023 -0.0378739 0.0093475375 -0.029292446
ability -0.010463949 0.028719362 0.022885147 0.012636739 0.02440864 -0.07799983 0.0336705 0.10569669 -0.038025454 -0.037381653 0.013593422 -0.05985319 -0.0022770767 0.024880607 0.011419609 -0.0288706 -0.009583828 -0.061913174 -0.020190097 -0.10182889 0.015845977 0.019464854 0.021820074 -0.01672822 -0.01739647 0.013113538 -0.010847795 -0.010928987 -0.047598746 0.016467901 0.038682673 -0.0045133526 0.028030142 -0.009690308 -0.035665642 0.07022509 0.009233393 -0.038561027 -0.033029936 -0.06384686 0.006359682 -0.05287357 -0.018082118 0.00778395 0.05327307 0.005117517 -0.021034973 -0.01502206 0.015140139 0.022468533 0.04753914 -0.005931732 0.002814626 -0.024266308 -0.01246349 0.021908075 0.018937226 -0.013323702 -0.048123363 0.02262015 0.012309404 0.0018322614 0.012558962 -0.030040124 -0.04558341 0.039266404 0.046920046 0.056298327 -0.058124945 0.05256736 -0.020578502 0.008253977 0.026166504 -0.0018427622 0.055720996 0.046906475 -0.014425614 0.0006777108 -0.05427312 0.01855986 -0.014518597 0.024400994 -0.053696044 0.06515279 -0.028890992 0.020495899 0.037521962 0.044816207 0.045026474 -0.019220628 0.06089536 0.030641438 -2.2998483e-05 0.0114859 0.07945741 0.049980577 0.015754452 -0.02874062 0.004496539 -0.021072606
words -0.0021660733 0.03711621 0.013199461 -0.00078939146 0.014644318 -0.063350454 0.047558427 0.08755974 -0.031356607 -0.03565571 -4.6837253e-05 -0.04963831 -0.011530569 0.010483965 0.0025640158 -0.040974185 -0.0047087306 -0.05739895 -0.032632373 -0.093415774 0.02193056 0.018378086 0.02271713 -0.024706887 -0.0022413512 0.0074164714 -0.024333607 -0.020702306 -0.03500729 0.0146271745 0.030421758 0.0072329706 0.028450247 -0.014261831 -0.022074882 0.06869243 0.020443154 -0.024336353 -0.03839311 -0.050949745 -0.0010803689 -0.049023814 -0.028958032 0.001893931 0.04444916 -0.007598421 -0.009454338 -0.010328913 0.02455392 0.032957256 0.02963008 -0.01768015 0.011305136 -0.019263428 -0.025588538 0.02121029 0.007818933 -0.011087029 -0.040629197 0.028229544 0.018058822 -0.0003722873 0.026477287 -0.028706972 -0.03238523 0.027536938 0.045802664 0.048843227 -0.062043447 0.049393035 -0.010785685 0.021727756 0.022551756 -0.002274875 0.0361467 0.036087375 -0.010752929 -0.011333157 -0.04877065 0.034091398 -0.01328518 0.016608713 -0.0481125 0.048693564 -0.028905911 0.0015018965 0.040277533 0.036588218 0.03388861 -0.001960342 0.05542885 0.032366294 0.0143203605 -0.0068610027 0.068520494 0.03490774 0.030984093 -0.03130541 0.014869297 -0.029357983
our -0.004421106 0.024433283 0.0105123315 -1.8433386e-05 0.022863047 -0.058138143 0.03415582 0.07272122 -0.029404202 -0.034695663 -0.0008854231 -0.044779446 -0.008649532 0.013930261 -0.004249757 -0.02569354 -0.00957276 -0.03978448 -0.01931343 -0.07020513 0.011908391 0.017260032 0.021045355 -0.014511987 -0.010880657 0.0033985912 -0.008538119 -0.008203323 -0.017265046 0.0038085505 0.026995147 0.0038595374 0.018912183 -0.0032282458 -0.027330225 0.038801864 0.015925827 -0.015892042 -0.017562676 -0.043906856 0.012781769 -0.027846836 -0.014578482 0.008179696 0.036506753 0.0032433385 -0.010928261 -0.022219304 0.011172306 0.020708133 0.01927243 -0.0014033209 0.013290004 -0.020965915 -0.018429544 0.0066140536 0.007635736 -0.005802621 -0.033406273 0.0132685825 0.012102866 0.009087984 0.008518195 -0.031527117 -0.024588501 0.0141156595 0.03824736 0.03378856 -0.04623246 0.02351801 -0.018032426 0.013716243 0.02076533 0.0032818154 0.030357912 0.029052924 -0.0031769131 -0.006035259 -0.04440489 0.018022018 -0.00937242 0.0151120685 -0.031615146 0.034647767 -0.016478041 0.004926098 0.034542207 0.020044593 0.016534945 -0.014757091 0.029539304 0.02418728 0.012097452 0.0044910554 0.06534858 0.028263105 0.021306532 -0.02461497 0.004872179 -0.01025511
at -0.013254132 0.049890198 0.0107767405 -0.0034630497 0.030025601 -0.0847775 0.046973217 0.11353034 -0.051612712 -0.06129019 0.02053425 -0.068242885 -0.009237219 0.016741335 0.00055212725 -0.050436422 -0.0025969266 -0.06259898 -0.02241391 -0.11450612 0.009185511 0.01068342 0.031416763 -0.033119578 -0.016089546 -0.0003070593 -0.012712589 -0.025920562 -0.048297808 0.008672057 0.03501314 -0.01304822 0.035778496 -0.020717535 -0.038469363 0.06423857 0.006885371 -0.03834447 -0.031764504 -0.06424388 0.015150532 -0.058141284 -0.026195752 -0.004785561 0.054068938 0.0028674996 -0.016180353 -0.030490981 0.027971243 0.037711825 0.036241215 -0.010808146 0.004645524 -0.011449674 -0.018622791 0.023055095 0.012851038 -0.01743507 -0.044169243 0.024488898 0.021947825 0.0033582447 0.01399596 -0.040044777 -0.045899782 0.03199745 0.06406793 0.048130855 -0.07127372 0.057276834 -0.018080465 0.012616018 0.032745764 0.0060615856 0.04645799 0.043531477 -0.017537212 -0.006285853 -0.066047736 0.041248728 -0.021804076 0.031226465 -0.053612676 0.07126825 -0.041335683 0.004775302 0.034687717 0.041605152 0.0530178 -0.010923816 0.052583992 0.032026786 0.0013029499 0.0072040395 0.08626621 0.050493937 0.028213644 -0.043794878 0.001612276 -0.021295642
did -0.013333145 0.026046254 0.009565389 0.013866789 0.02845577 -0.08213821 0.04267375 0.10647789 -0.050609015 -0.053325057 0.009047575 -0.06721942 -0.005123407 0.018141657 0.009934864 -0.03566511 0.0007345459 -0.049574308 -0.032487933 -0.08696068 0.013068159 0.010629873 0.015516374 -0.023788394 -0.002159513 0.008708356 -0.024907287 -0.01822243 -0.045903154 0.01350064 0.023495615 0.0026526304 0.018923502 -0.023384947 -0.041718643 0.068593495 0.0041125794 -0.042969655 -0.039286137 -0.064403206 0.0032002798 -0.044116177 -0.0152670005 -0.0025028314 0.04326037 9.292209e-05 -0.010801191 -0.02580364 0.016319824 0.032702237 0.043934934 -0.02073387 0.016447164 -0.028037516 -0.027413715 0.012715471 0.013722844 -0.007066468 -0.043811776 0.030524151 0.017478008 -0.003730425 0.012884992 -0.04334078 -0.043508504 0.041524615 0.039923053 0.05084133 -0.05278254 0.04268856 -0.020159882 0.0115322415 0.021954108 -0.006498364 0.051765505 0.03497168 -0.011897638 -0.0026245585 -0.054588553 0.020694027 -0.025009366 0.029808233 -0.04204132 0.054111242 -0.036941383 0.014448882 0.03873476 0.0332885 0.045461535 -0.01997743 0.05794824 0.02486641 0.008500974 0.009915016 0.08124415 0.0481776 0.029101228 -0.045167197 0.010202435 -0.02930172
their -0.024765154 0.044250738 0.027865836 0.0147551065 0.02858648 -0.09453907 0.048228536 0.12648596 -0.048458964 -0.067854226 0.015126483 -0.0796483 -0.0065702563 0.024681212 -0.0031654588 -0.04586963 -0.0027983508 -0.07624811 -0.036849417 -0.112515815 0.0070691253 0.0077393795 0.030580193 -0.021698415 -0.009963554 0.018243382 -0.028213995 -0.009149991 -0.05382579 0.0026417484 0.029071711 -0.0015813248 0.026948323 -0.012147122 -0.04262923 0.08318865 0.023233287 -0.05507147 -0.041265596 -0.079210594 0.00042006045 -0.052717432 -0.024975207 -0.0040340507 0.058475465 -0.008683724 -0.023320172 -0.023447957 0.035082232 0.041139614 0.042813472 -0.011931297 0.007301259 -0.02704946 -0.028481482 0.017398786 0.01917978 -0.015835112 -0.06622718 0.024586847 0.023038732 0.0012876772 0.029524406 -0.03486996 -0.05952312 0.03391299 0.06696044 0.06338525 -0.066518754 0.068138406 -0.0075158398 0.018462295 0.034352828 0.0060751196 0.06565583 0.06291228 -0.01949853 -0.013700093 -0.0627294 0.03615424 -0.025183186 0.04091061 -0.048688985 0.06257994 -0.047715463 0.0061344714 0.05338553 0.04849585 0.047402162 -0.013540324 0.07233855 0.05128531 0.01912181 0.0069347913 0.10718437 0.0603144 0.030958263 -0.046512146 0.0033828209 -0.028029336
it -0.025296297 0.052008912 0.01577656 0.0043002283 0.03476396 -0.094619706 0.045300893 0.13067442 -0.057822887 -0.06712944 0.017079715 -0.07232567 -0.00078940706 0.013221388 0.0030927865 -0.046635654 0.0048508774 -0.07817155 -0.029177656 -0.12715018 0.008474252 0.014954902 0.028849969 -0.03362574 -0.01662976 0.012821822 -0.030243523 -0.017164972 -0.045647487 0.008855689 0.037125167 0.0041718846 0.02026981 -0.029489256 -0.038015492 0.090344705 0.0088634575 -0.05491547 -0.040685844 -0.083626986 0.011624935 -0.047343362 -0.033516575 -0.008828378 0.069639504 -0.002920438 -0.024464322 -0.02786413 0.01861049 0.029667236 0.042841844 -0.015137145 0.01105739 -0.015015554 -0.018075788 0.021914735 0.00551348 -0.005988609 -0.06557909 0.038114756 0.019248977 -0.001382334 0.03099649 -0.0476342 -0.057787705 0.039070074 0.068520196 0.06538893 -0.0702778 0.063151635 -0.019283097 0.030604517 0.026221726 -0.0025958633 0.052058764 0.062519945 -0.013971402 -0.010669951 -0.061502274 0.025602566 -0.028675767 0.03621532 -0.061847415 0.07956805 -0.04465428 0.0099493265 0.052115895 0.05394679 0.051020753 -0.008483166 0.058359653 0.039978743 0.023003878 0.009453259 0.10822918 0.04920043 0.03398562 -0.044926755 0.021375377 -0.030689957
services -0.0063676736 0.035987485 0.012062403 0.0040074834 0.03449448 -0.08661867 0.055664938 0.10721106 -0.055988353 -0.045492448 0.018646283 -0.06979339 -0.010688914 0.014567345 0.0021701497 -0.032960318 0.00041628268 -0.0642362 -0.03564354 -0.110051155 0.0046876725 0.01973722 0.019248335 -0.030776324 -0.017528875 0.016818643 -0.0128742475 -0.017203351 -0.04095798 0.006011897 0.044213314 -0.0067932205 0.03240107 -0.022108018 -0.029344738 0.0836094 0.022038184 -0.042735007 -0.037634045 -0.077159554 0.01856667 -0.060626123 -0.03129499 0.0037643309 0.05326409 0.0060192286 -0.026568094 -0.013611126 0.027302718 0.022998085 0.04667048 -0.01910338 0.01554815 -0.013492252 -0.032112844 0.028457025 0.02037836 -0.0012481905 -0.06062181 0.019729378 0.005350607 0.0049574743 0.018246148 -0.0348861 -0.04426188 0.043879483 0.057321493 0.05255364 -0.0640777 0.057079457 -0.023740333 0.013792919 0.029623598 0.005973995 0.052307587 0.038632043 -0.010626586 -0.0002667504 -0.056494232 0.036126643 -0.027361399 0.02682635 -0.052533615 0.0585101 -0.050459262 0.01326138 0.04416607 0.04699371 0.049390424 -0.0056106863 0.051707238 0.0485856 0.0078087994 0.004351556 0.093110345 0.043677583 0.025791965 -0.050979234 0.020624073 -0.023557264
long -0.012942817 0.031102588 0.021524401 -0.0016624111 0.025491798 -0.05824111 0.038307052 0.07848028 -0.04284649 -0.031057674 0.006833587 -0.054702286 -0.004070662 0.00652555 0.008883277 -0.035750408 -0.0022565115 -0.04409756 -0.026824467 -0.078930415 0.017299661 0.0111887725 0.010787003 -0.019562751 -0.01705379 0.002498558 -0.008212338 -0.008314101 -0.03787184 0.007544754 0.02991031 -0.0097868955 0.015629739 -0.015649546 -0.036229525 0.05414615 0.01723283 -0.02728339 -0.022861516 -0.049001895 0.0052828817 -0.043090206 -0.017601969 0.005854357 0.04171592 -0.00039975412 -0.0051928316 -0.013306107 0.009812271 0.029577328 0.03990372 -0.019742735 0.014276911 -0.021888066 -0.016354406 0.019867137 0.0039634374 -0.013804794 -0.045389466 0.008624056 0.0031369722 0.0095726205 0.018731443 -0.037532423 -0.025608977 0.032450538 0.046469238 0.047660943 -0.054531716 0.03556614 -0.008435634 0.01619489 0.026536625 -0.007445063 0.0415165 0.044672918 -0.016441159 0.0028009831 -0.040631622 0.01822913 -0.017781228 0.012480893 -0.04274755 0.05038876 -0.032318775 0.019930577 0.021996021 0.022125399 0.038425125 -0.001979477 0.04519548 0.035670035 0.015005893 -0.002783077 0.07723895 0.026907073 0.01605208 -0.0363617 0.014475848 -0.024552166
applications -0.006414991 0.025326405 0.011599341 -0.0018715563 0.013876111 -0.058883864 0.032900646 0.07679946 -0.03432671 -0.032488845 0.0020456486 -0.0325178 -0.004957319 0.0051133526 -0.00100972 -0.01957636 -0.001771348 -0.04588135 -0.02906802 -0.07650518 0.006168148 0.015789622 0.011162509 -0.016250111 -0.006551368 0.008850383 -0.020393452 -0.0033268156 -0.032581896 0.010298218 0.012594417 0.0032910393 0.009812457 -0.015530279 -0.026525754 0.045003753 0.009124719 -0.027989754 -0.019565241 -0.047104124 0.0017000232 -0.040348977 -0.007909455 0.0036311287 0.045465257 0.0042703226 -0.01717967 -0.0062374244 0.00938179 0.023312408 0.02441528 -0.008621882 0.00997721 -0.016102912 -0.0193483 0.011309512 0.009711267 0.0012788306 -0.04155542 0.021953003 0.0058053355 -0.008172019 0.008642917 -0.024382148 -0.023429727 0.031278886 0.044891953 0.042119984 -0.0460262 0.03311239 -0.0008071127 0.019564047 0.02583684 0.007256617 0.03595372 0.034490064 -0.014920274 0.002581002 -0.031083062 0.014145272 -0.013762367 0.028554196 -0.02941195 0.048817016 -0.01970253 0.006942897 0.0367726 0.033293054 0.027895892 -0.008776313 0.04834213 0.032054123 0.0010398837 -0.0009134697 0.05964192 0.033945497 0.018317066 -0.036952585 0.010533458 -0.008423252
currently -0.012884554 0.04653618 0.02185733 0.013787653 0.04019102 -0.08231127 0.048064712 0.120347284 -0.055164784 -0.045419663 0.008123844 -0.05609039 -0.016516978 0.016257908 0.010852274 -0.04634528 -0.0031237304 -0.05760926 -0.023148997 -0.10942618 0.007767223 0.02313005 0.019661624 -0.025996588 -0.0049082823 0.0001070767 -0.024294972 -0.026177209 -0.04602053 0.013337777 0.026664382 -0.0061700316 0.03629929 -0.023454819 -0.03590795 0.078535624 0.012177922 -0.047966503 -0.028589435 -0.07162439 0.017460257 -0.054627974 -0.021944428 0.0037559331 0.056376625 0.0024413413 -0.024917496 -0.014629424 0.023792064 0.027188227 0.048619207 -0.004248387 0.003671227 -0.020118093 -0.018656302 0.0186001 0.014965437 0.00088074594 -0.04718234 0.020178478 0.011224678 0.008719418 0.022137538 -0.05019775 -0.050403595 0.029129561 0.056464195 0.055645324 -0.07084339 0.050160598 -0.0058771907 0.024324795 0.03352708 0.0026440213 0.06116339 0.044728342 -0.0038963002 -0.008826543 -0.07104312 0.02280097 -0.025175717 0.03881726 -0.048935153 0.05591439 -0.041057672 0.01029057 0.039348263 0.05078141 0.0521352 -0.013615802 0.0623593 0.040978283 0.0018429215 0.0066377567 0.1055578 0.052587453 0.029491315 -0.047667377 0.014756129 -0.036322396
blood -0.009416074 0.03981776 0.017249672 0.004485949 0.030174527 -0.072581366 0.04591131 0.112407565 -0.038321022 -0.04627482 0.007825608 -0.06444862 -0.01523417 0.013268019 0.0064080623 -0.02937951 -0.00028536833 -0.05979923 -0.0243555 -0.10009242 0.011583333 0.020626599 0.033708785 -0.02526497 -0.015487329 0.010574194 -0.0065717096 -0.0065278304 -0.04235059 0.015200013 0.040231925 -0.012377119 0.0337297 -0.016287033 -0.04026842 0.06960972 0.022957582 -0.044990268 -0.025312796 -0.067389034 -0.00017150384 -0.04078706 -0.026649 0.0032039294 0.057169337 0.0084860725 -0.010174625 -0.029514603 0.025405828 0.019185293 0.03772292 -0.0024662635 0.002495926 -0.014171341 -0.02586972 0.011034722 0.020982912 -0.0034516393 -0.04041952 0.026770549 0.013903096 0.0037765861 0.011233878 -0.028970815 -0.04796474 0.035569575 0.04314843 0.04928996 -0.05360169 0.04580134 -0.020853354 0.011166281 0.017482601 0.010386968 0.042260118 0.042223018 -0.018670807 -0.01185435 -0.060411185 0.032066207 -0.014656215 0.030478649 -0.0350491 0.05950965 -0.02683233 0.019736944 0.04026528 0.03976158 0.033408664 -0.014990413 0.05835249 0.026879298 0.012109594 -0.0046645002 0.09668611 0.042770226 0.024898503 -0.04391723 0.016773587 -0.032271847
scopus -0.02085016 0.043238353 0.013625443 0.0036309373 0.033033997 -0.069828086 0.049797833 0.108283915 -0.035259407 -0.055745374 0.015513634 -0.047884546 -0.010189301 0.01725056 -0.0012224221 -0.040392317 0.008170652 -0.05430741 -0.024793122 -0.10075395 0.018286746 0.0077102724 0.020530406 -0.021437224 0.00058154576 0.0007407134 -0.012938544 -0.015515716 -0.04700823 0.003100881 0.021831948 0.003358386 0.021217568 -0.02152236 -0.033015557 0.06966625 0.023076417 -0.047330387 -0.03204668 -0.061463125 0.0046395333 -0.04593205 -0.013253584 -0.00342955 0.058027636 -0.0010487576 -0.017430553 -0.013257274 0.029051239 0.028165555 0.037119534 -0.0062353956 0.004099433 -0.012725424 -0.019814478 0.012839811 0.018705176 -0.010858902 -0.04536036 0.01625801 0.014981356 0.005467469 0.02457415 -0.042859107 -0.049292 0.038439833 0.051414106 0.048572596 -0.063500285 0.04636774 -0.022247799 0.018388437 0.022463392 0.0016746214 0.050147157 0.045893136 -0.015583154 -0.005929679 -0.061617408 0.024050776 -0.01859992 0.03434412 -0.050918847 0.058686208 -0.028381309 0.022401737 0.043621145 0.029363886 0.04398344 -0.0037952089 0.056234278 0.03755684 0.008675327 0.006596724 0.08965705 0.051285975 0.019928196 -0.04677752 0.016667891 -0.031307608
or -0.013329188 0.035694554 0.014949344 0.0005330545 0.026356038 -0.079159126 0.04195659 0.09092648 -0.044480752 -0.039923225 0.011544402 -0.05008669 -0.004411034 0.0056620683 0.0121357115 -0.03781 -0.0031135879 -0.043920495 -0.026182745 -0.0855218 0.01395074 0.01308024 0.030135902 -0.012907934 -0.009133976 0.0029677334 -0.010873098 -0.022068372 -0.028626598 0.009427153 0.034524944 0.00021763306 0.020984543 -0.014329624 -0.037026197 0.07000573 0.01803951 -0.031230662 -0.034722567 -0.06462663 0.015288419 -0.039529283 -0.024963306 -0.01046497 0.04183618 -9.237831e-06 -0.02419633 -0.01875561 0.023357527 0.016002357 0.03503153 -0.01760106 0.0038312525 -0.018381556 -0.028842226 0.014025029 0.0044200965 -0.013717161 -0.042622175 0.024414824 0.021363635 0.008835924 0.011993388 -0.042043656 -0.032173526 0.03461716 0.052512854 0.041272536 -0.05848788 0.039921857 -0.02030384 0.022047032 0.021561887 0.009290191 0.037184134 0.049888384 -0.0129569 0.0020337196 -0.05656483 0.019179735 -0.01139393 0.014907146 -0.05065123 0.058178253 -0.044088084 0.016512232 0.038714442 0.02728574 0.04073032 -0.010022944 0.05677437 0.0353506 0.0041857376 0.000529827 0.087100655 0.03283704 0.03138619 -0.03919688 0.005084359 -0.027305141
cloud -0.011844762 0.03102312 0.022732232 0.00085480826 0.04083354 -0.08798702 0.04051993 0.116631754 -0.036614798 -0.048997883 0.00979114 -0.060801487 -0.015626447 0.014089126 -0.002114338 -0.03916739 -0.0069067837 -0.068275936 -0.0383404 -0.09982926 0.015711617 0.021214327 0.03016457 -0.021241754 -0.0054100063 0.012268197 -0.023389937 -0.014551728 -0.043342758 0.013786132 0.02736309 -0.003829091 0.03115573 -0.022668488 -0.04686105 0.07770727 0.014865867 -0.040924072 -0.041177686 -0.058183935 0.009390774 -0.049594913 -0.024620496 -0.0015133588 0.05999659 -0.01121569 -0.016244082 -0.02778149 0.034007866 0.035590217 0.03629719 -0.014940169 0.003593203 -0.011144683 -0.013333412 0.023619868 0.024519976 -0.012582602 -0.049532928 0.020462945 0.0048555536 -0.004622576 0.020436272 -0.044282462 -0.05264617 0.035463512 0.05403788 0.044115722 -0.05714407 0.054511767 -0.023716776 0.017958354 0.021888183 0.008657247 0.049679533 0.055253785 -0.0044991407 -0.011519594 -0.07051999 0.025293957 -0.013148743 0.028027266 -0.049583085 0.06330537 -0.049143188 0.018315269 0.03348344 0.05038979 0.036598347 -0.0055270484 0.05501146 0.0359821 0.008504751 0.004231066 0.09734943 0.04802038 0.02605215 -0.035014383 0.004855562 -0.03579004
based -0.018623581 0.038449515 0.0131588355 -0.0007442799 0.029086798 -0.073015295 0.041093078 0.09855372 -0.028667266 -0.04394071 0.011243537 -0.04520115 0.004994563 0.011572293 0.0026457803 -0.036677327 -0.0038749678 -0.047072813 -0.022133237 -0.08856055 0.015685882 0.0047772983 0.017561898 -0.030202055 -0.0003396757 0.010259694 -0.016539983 -0.0043027434 -0.032642145 -0.0038655296 0.018263243 -0.0064954218 0.013284114 -0.006598472 -0.024503969 0.05929499 0.011319258 -0.040188752 -0.021589871 -0.05805849 0.0041012485 -0.045981336 -0.021747505 -0.011073647 0.045987368 -0.008646197 -0.007758704 -0.024710376 0.013404465 0.02414377 0.02470178 -0.0054169022 0.0028740165 -0.015239754 -0.00953438 0.019809857 0.010456053 0.0021521496 -0.041762453 0.025885826 0.017016578 -0.008797719 0.019196745 -0.04028934 -0.03916166 0.03607333 0.039870262 0.03627635 -0.04793608 0.049181033 -0.0047113993 0.008730235 0.030652825 0.008374389 0.034558907 0.03621209 -0.008448307 -0.015469933 -0.05069247 0.034841973 -0.020315463 0.015809154 -0.04329658 0.039836816 -0.029626127 0.016754804 0.03388434 0.028440963 0.044845436 -0.020058217 0.040824257 0.0206528 0.018890219 0.0005631731 0.069244385 0.028610237 0.029142957 -0.036121294 0.0032649804 -0.018133542
evidence -0.019246567 0.042837486 0.022330957 0.00034339662 0.022568667 -0.066861056 0.030274125 0.09719899 -0.033382516 -0.03650698 0.00076148653 -0.052907385 -0.012048176 0.020933721 0.012034642 -0.03443007 -0.008822768 -0.044862125 -0.026555045 -0.0843602 0.004255566 0.009436675 0.019971171 -0.0147749605 -0.016123425 0.002318804 -0.016541878 -0.016044479 -0.03002666 0.0065045543 0.025698131 -0.01133149 0.012782613 -0.01289568 -0.03252596 0.049980525 0.020509193 -0.026602656 -0.022495572 -0.05811567 0.0068379687 -0.03443669 -0.026421156 -0.0091702165 0.036720373 0.002605989 -0.024790771 -0.016599303 0.028628346 0.027150385 0.024639353 -0.0029450902 0.013195795 -0.024454905 -0.012677375 0.026145443 0.018036831 -0.010727505 -0.036556225 0.016089989 0.0040331176 0.0034247313 0.012551563 -0.03356295 -0.044894908 0.02117392 0.04286978 0.044264853 -0.051598147 0.051425744 -0.008527304 0.005916556 0.015238246 -0.0011973373 0.039529134 0.032502774 0.0010907386 -0.0018237205 -0.05793654 0.031787932 -0.019688247 0.017099665 -0.041019715 0.059438273 -0.038879298 0.0077293576 0.031832363 0.0387969 0.04172309 -0.018775987 0.03820098 0.031187497 0.011984781 0.0057557677 0.08145815 0.038133133 0.020563068 -0.031233791 0.008939555 -0.01754147
sensor -0.013186204 0.047343664 0.014247637 0.008304374 0.031527538 -0.08309407 0.05459827 0.111285456 -0.03805254 -0.050795935 0.021249402 -0.056077212 -0.007141943 0.020501502 0.007329465 -0.030194094 0.00087461923 -0.054958504 -0.032111432 -0.104147874 0.0036214734 0.009783062 0.023355464 -0.022831786 -0.009761967 0.008749008 -0.011546353 -0.022008354 -0.034532066 0.014502662 0.037601266 -0.0009238878 0.024871588 -0.015488065 -0.043382242 0.061735738 0.016050523 -0.03909142 -0.02895777 -0.06721978 0.013158974 -0.050884437 -0.016456606 -0.005189248 0.046781063 0.0007043037 -0.017158354 -0.023905843 0.01889318 0.037330896 0.030067166 -0.00798494 0.00460916 -0.008712609 -0.01685075 0.02169682 0.0100455545 -0.008495153 -0.05446514 0.02201937 0.019520888 -0.009570448 0.023507604 -0.03259073 -0.037474297 0.028082496 0.055750847 0.039678745 -0.058594447 0.057957157 -0.009066539 0.012987712 0.02566568 -0.007208634 0.048273277 0.04918927 -0.017095972 -0.0018368732 -0.06105443 0.035675056 -0.01504174 0.02975471 -0.047392365 0.0493414 -0.043603763 0.01318021 0.02857499 0.047515683 0.045443345 -0.013863342 0.062184643 0.03174278 0.011487713 0.0043214774 0.0964271 0.046563745 0.021329656 -0.043785106 0.0027444954 -0.019745741
most -0.008913796 0.04680454 0.024862463 -0.0040811286 0.03973305 -0.088436946 0.048012916 0.11019702 -0.03712453 -0.059228957 0.014537261 -0.06885619 -0.006451438 0.024725556 -0.007905439 -0.029980978 -0.010238173 -0.052866556 -0.038726136 -0.10935761 0.0054050284 0.018096669 0.025063675 -0.0241703 -0.018975278 0.017656088 -0.0149706295 -0.020753494 -0.046883803 0.01593881 0.035903316 -0.012635317 0.029485399 -0.023479123 -0.034907833 0.07855065 0.013103314 -0.04035832 -0.028254995 -0.071188554 0.011838525 -0.045456883 -0.033600554 -0.0052654305 0.060565468 -3.0898336e-05 -0.008229092 -0.023345495 0.03233277 0.021726556 0.04604739 -0.022332914 0.011822142 -0.010757438 -0.024141848 0.027885905 0.0039934153 -0.008394351 -0.04721184 0.02007326 0.021051459 -0.007989205 0.020401845 -0.028914189 -0.039059583 0.034708694 0.06228048 0.041564677 -0.06530791 0.05422636 -0.016116764 0.024142537 0.03738763 -0.0031332278 0.047246825 0.055886485 -0.016053101 -0.016308907 -0.0600699 0.022794563 -0.021326 0.031223426 -0.055745486 0.060025483 -0.044766877 0.01027779 0.043371256 0.043933902 0.040995948 -0.0049854186 0.05649505 0.04511213 0.014919473 0.008280415 0.10282657 0.041211363 0.025703728 -0.04466559 0.015444601 -0.03371577
diagnoses -0.014119072 0.04039028 0.012008741 0.007840585 0.02459778 -0.064281285 0.038374715 0.081365675 -0.027239516 -0.034175403 -0.00040323916 -0.058901083 -0.002883049 0.014778166 -0.0013883557 -0.023979643 -0.009769993 -0.051783808 -0.017088555 -0.08521472 0.0053677578 0.019395206 0.029656706 -0.025682135 -0.01583549 0.0055224905 -0.006310461 -0.015699169 -0.030558638 0.0045550265 0.030857194 -0.003744766 0.027501008 -0.0044271126 -0.03862263 0.0642077 0.004090655 -0.042771365 -0.022579353 -0.05136933 0.012641791 -0.050725743 -0.010905072 -0.009995381 0.036791507 0.0006086494 -0.01862754 -0.0152605865 0.01441244 0.017863406 0.040127866 -0.013116266 0.014305985 -0.018176695 -0.018601727 0.021175692 0.018483954 -0.007410626 -0.052249048 0.017880015 0.018058803 0.005841945 0.010912477 -0.02749561 -0.028477691 0.01973515 0.043171898 0.04291638 -0.05743989 0.03692787 -0.006050102 0.010960742 0.019524023 0.003302868 0.05020028 0.0454107 -0.013289675 -0.008680074 -0.039710827 0.025861789 -0.023288729 0.015161898 -0.044309318 0.0559094 -0.030044898 0.0040645916 0.039530203 0.030629406 0.035267476 -0.015616302 0.049723674 0.03145476 0.011075738 -0.0011646638 0.07322095 0.036847185 0.016938623 -0.034618918 0.017143784 -0.019830104
one -0.0061410526 0.037250724 0.0173344 0.005385667 0.03364218 -0.062165845 0.032199446 0.10005851 -0.04274819 -0.043294515 2.5573845e-05 -0.061667755 -0.009275658 0.019936493 0.0029771447 -0.03445901 -0.0067438358 -0.043991886 -0.01731936 -0.078582734 0.010634289 0.0013750523 0.030942487 -0.023608731 -0.0058347518 0.011172917 -0.0052309423 -0.0148291895 -0.041286346 0.0059250905 0.03035826 -0.0027193127 0.020085163 -0.0050063576 -0.028384505 0.05414485 0.021816434 -0.040664185 -0.032121934 -0.04921371 0.0011104125 -0.03467248 -0.026170537 -0.009900174 0.03468214 0.0008909438 -0.008676633 -0.011049313 0.023158709 0.029337987 0.033627 -0.018537281 0.017895786 -0.022737112 -0.011379269 0.016020583 0.010024561 -0.008958182 -0.03522114 0.014505685 0.013337395 0.00026145525 0.019231616 -0.038240228 -0.047790855 0.01946898 0.03978592 0.042897265 -0.05865784 0.0519547 -0.008965023 0.00895181 0.019908879 -0.005376208 0.033428065 0.03954109 -0.009281827 0.0027662197 -0.045187123 0.024798011 -0.009065303 0.018372377 -0.0491137 0.052107245 -0.03916427 0.007313239 0.036149453 0.025778195 0.034811035 -0.008727429 0.04832053 0.030609071 0.008157215 0.012202317 0.08067749 0.035624083 0.01583265 -0.041479416 0.007996408 -0.026063878
